SVM-light Version V6.02
0 # kernel type
3 # kernel parameter -d 
1 # kernel parameter -g 
1 # kernel parameter -s 
1 # kernel parameter -r 
empty# kernel parameter -u 
47 # highest feature index 
9061 # number of training documents 
101 # number of support vectors plus 1 
0 # threshold b, each following line is a SV (starting with alpha*y)
-3.5855784037799636e-010 1:20.896353 2:76 3:19 4:2 5:2 6:0.026753999 7:0.0014609999 8:0.00066100003 9:2.3000001e-005 10:0.00087400002 11:0.00062399998 12:0.001149 13:20.093742 14:8e-006 15:-15.1426 16:0.074611001 17:-12.8709 18:-10.2224 19:-8.9228201 20:2.0597899 21:-8.5089302 22:-8.5830698 23:-8.7425699 24:2.5332799 25:-8.5541201 26:-8.6767902 27:20.134272 28:2 29:0 30:0 31:0 32:4.4e-005 33:0 34:0 35:0 36:0 37:0.002052 38:1e-006 39:0.001732 40:0.00162 41:0.003974 42:21.009201 43:23.07445 44:35.933041 45:-4.9549732 46:233052 47:0.00091900001 #
0.057961320277597247 1:22.43828 2:92 3:6 4:4 5:5 6:0 7:0 8:0.00027300001 9:2.3000001e-005 10:0.00087400002 11:0.00062399998 12:0.001149 13:20.19445 14:2e-006 15:-15.1426 16:0.074611001 17:-12.8709 18:-10.2224 19:-8.9228201 20:2.0597899 21:-8.5089302 22:-8.5830698 23:-8.7425699 24:2.5332799 25:-8.5541201 26:-8.6767902 27:20.194452 28:6 29:0 30:0 31:0 32:0.00013299999 33:0 34:0 35:0 36:1e-006 37:0 38:0 39:0 40:0 41:0 42:0 43:0 44:0 45:-4.9549732 46:0.00082199997 47:0.0029839999 #
-5.4228716330077217e-010 1:19.41592 2:85 3:0 4:5 5:4 6:0.025477 7:0.00089999998 8:0.00056700001 9:2.3000001e-005 10:0.00087400002 11:0.00062399998 12:0.001149 13:17.474329 14:4e-006 15:-15.1426 16:0.074611001 17:-12.8709 18:-10.2224 19:-8.9228201 20:2.0597899 21:-8.5089302 22:-8.5830698 23:-8.2966805 24:6.41852 25:-8.2709904 26:-8.2966805 27:17.474327 28:8 29:0 30:1 31:0 32:0.00017699999 33:0 34:0.00062399998 35:0 36:0 37:0.000216 38:1e-006 39:0.001621 40:0.001487 41:0.00075599999 42:19.037979 43:21.740465 44:17.904613 45:-4.1968932 46:65194.125 47:0.0034370001 #
-0.00086973852399017146 1:21.933537 2:77 3:2 4:5 5:5 6:0 7:0 8:9.1000002e-005 9:2.3000001e-005 10:0.00087400002 11:0.00062399998 12:0.001149 13:19.740185 14:0 15:-15.1426 16:0.074611001 17:-12.8709 18:-10.2224 19:-7.6820798 20:8.6541204 21:-7.65943 22:-7.6820798 23:-7.7814999 24:8.39114 25:-7.7588601 26:-7.7814999 27:19.740183 28:12 29:0 30:1 31:0 32:0.00026599999 33:0 34:0.00062399998 35:0 36:0 37:0 38:0 39:0 40:0 41:0 42:0 43:0 44:0 45:-2.306102 46:9.2000002e-005 47:0.0058340002 #
-0.0020913400869050601 1:17.678837 2:90 3:11 4:4 5:5 6:0 7:0 8:0.00034100001 9:2.3000001e-005 10:0.00087400002 11:0.00062399998 12:0.001149 13:15.910953 14:0 15:-8.6209698 16:10.5239 17:-8.2836704 18:-8.4051905 19:-8.9228201 20:2.0597899 21:-8.5089302 22:-8.5830698 23:-8.7425699 24:2.5332799 25:-8.5541201 26:-8.6767902 27:15.910953 28:2 29:1 30:0 31:0 32:4.4e-005 33:0.00087400002 34:0 35:0 36:0 37:0 38:0 39:0 40:0 41:0 42:0 43:0 44:0 45:-4.9549732 46:0.00034200001 47:0.00077799999 #
-0.0046159995264232244 1:21.464655 2:105 3:0 4:6 5:7 6:0 7:0 8:6.8000001e-005 9:2.3000001e-005 10:0.00087400002 11:0.00062399998 12:0.001149 13:19.31819 14:0 15:-15.1426 16:0.074611001 17:-12.8709 18:-10.2224 19:-8.9228201 20:2.0597899 21:-8.5089302 22:-8.5830698 23:-8.2966805 24:6.41852 25:-8.2709904 26:-8.2966805 27:19.31819 28:5 29:0 30:1 31:0 32:0.000111 33:0 34:0.00062399998 35:0 36:0 37:0 38:0 39:0 40:0 41:0 42:0 43:0 44:0 45:-4.1968932 46:6.9000002e-005 47:0.002383 #
-0.0074999999999999997 1:24.035341 2:105 3:3 4:3 5:9 6:0 7:0 8:0.000227 9:2.3000001e-005 10:0.00087400002 11:0.00062399998 12:0.001149 13:21.631807 14:0 15:-15.1426 16:0.074611001 17:-12.8709 18:-10.2224 19:-8.9228201 20:2.0597899 21:-8.5089302 22:-8.5830698 23:-8.7425699 24:2.5332799 25:-8.5541201 26:-8.6767902 27:21.631807 28:3 29:0 30:0 31:0 32:6.7000001e-005 33:0 34:0 35:0 36:0 37:0 38:0 39:0 40:0 41:0 42:0 43:0 44:0 45:-4.9549732 46:0.000228 47:0.00161 #
-0.006823035165016025 1:22.143005 2:81 3:3 4:3 5:9 6:0 7:0 8:0.000227 9:2.3000001e-005 10:0.00087400002 11:0.00062399998 12:0.001149 13:19.928703 14:0 15:-15.1426 16:0.074611001 17:-12.8709 18:-10.2224 19:-8.9228201 20:2.0597899 21:-8.5089302 22:-8.5830698 23:-8.7425699 24:2.5332799 25:-8.5541201 26:-8.6767902 27:19.928705 28:3 29:0 30:0 31:0 32:6.7000001e-005 33:0 34:0 35:0 36:0 37:0 38:0 39:0 40:0 41:0 42:0 43:0 44:0 45:-4.9549732 46:0.000228 47:0.001484 #
-0.0060611901198520061 1:19.984425 2:74 3:3 4:3 5:5 6:0 7:0 8:0.00021899999 9:2.3000001e-005 10:0.00087400002 11:0.00062399998 12:0.001149 13:19.639942 14:0 15:-15.1426 16:0.074611001 17:-12.8709 18:-10.2224 19:-8.9228201 20:2.0597899 21:-8.5089302 22:-8.5830698 23:-8.7425699 24:2.5332799 25:-8.5541201 26:-8.6767902 27:19.639942 28:12 29:0 30:0 31:0 32:0.00026599999 33:0 34:0 35:0 36:0 37:0 38:0 39:0 40:0 41:0 42:0 43:0 44:0 45:-4.9549732 46:0.00022 47:0.005316 #
-0.0074999999999999997 1:25.102558 2:67 3:0 4:6 5:3 6:0 7:0 8:0.00042600001 9:2.3000001e-005 10:0.00087400002 11:0.00062399998 12:0.001149 13:22.592302 14:0 15:-15.1426 16:0.074611001 17:-12.8709 18:-10.2224 19:-8.9228201 20:2.0597899 21:-8.5089302 22:-8.5830698 23:-6.2578201 24:13.6469 25:-6.7342701 26:-6.2578201 27:22.592302 28:12 29:0 30:2 31:0 32:0.00026599999 33:0 34:0.001248 35:0 36:0 37:0 38:0 39:0 40:0 41:0 42:0 43:0 44:0 45:-2.3962331 46:0.00042699999 47:0.0066769999 #
-1.5954565753452827e-008 1:16.924419 2:88 3:0 4:7 5:3 6:0.016682999 7:0.001178 8:0.00042600001 9:2.3000001e-005 10:0.00087400002 11:0.00062399998 12:0.001149 13:15.231978 14:0 15:-15.1426 16:0.074611001 17:-12.8709 18:-10.2224 19:-8.9228201 20:2.0597899 21:-8.5089302 22:-8.5830698 23:-8.38064 24:5.4840002 25:-8.3067102 26:-8.38064 27:15.231977 28:2 29:0 30:1 31:0 32:4.4e-005 33:0 34:0.00062399998 35:0 36:0 37:0.0044430001 38:0.001677 39:0.001319 40:0.0012619999 41:0.00055300002 42:16.880602 43:18.194641 44:11.706487 45:-4.3725929 46:8399.2764 47:0.00074500003 #
-0.0074999999999999997 1:21.454424 2:107 3:9 4:3 5:7 6:0 7:0 8:0.000218 9:2.3000001e-005 10:0.00087400002 11:0.00062399998 12:0.001149 13:19.308981 14:0 15:-15.1426 16:0.074611001 17:-12.8709 18:-10.2224 19:-8.9228201 20:2.0597899 21:-8.5089302 22:-8.5830698 23:-8.7425699 24:2.5332799 25:-8.5541201 26:-8.6767902 27:19.308981 28:5 29:0 30:0 31:0 32:0.000111 33:0 34:0 35:0 36:0 37:0 38:0 39:0 40:0 41:0 42:0 43:0 44:0 45:-4.9549732 46:0.00021899999 47:0.002381 #
-0.0074999999999999997 1:17.892694 2:92 3:9 4:3 5:7 6:0 7:0 8:0.000218 9:2.3000001e-005 10:0.00087400002 11:0.00062399998 12:0.001149 13:16.103426 14:0 15:-15.1426 16:0.074611001 17:-12.8709 18:-10.2224 19:-8.9228201 20:2.0597899 21:-8.5089302 22:-8.5830698 23:-8.7425699 24:2.5332799 25:-8.5541201 26:-8.6767902 27:16.103424 28:3 29:0 30:0 31:0 32:6.7000001e-005 33:0 34:0 35:0 36:0 37:0 38:0 39:0 40:0 41:0 42:0 43:0 44:0 45:-4.9549732 46:0.00021899999 47:0.001199 #
-0.0074999999999999997 1:20.679527 2:101 3:8 4:2 5:7 6:0 7:0 8:0.000218 9:2.3000001e-005 10:0.00087400002 11:0.00062399998 12:0.001149 13:18.611574 14:0 15:-15.1426 16:0.074611001 17:-12.8709 18:-10.2224 19:-8.9228201 20:2.0597899 21:-8.5089302 22:-8.5830698 23:-8.7425699 24:2.5332799 25:-8.5541201 26:-8.6767902 27:18.611574 28:4 29:0 30:0 31:0 32:8.9000001e-005 33:0 34:0 35:0 36:0 37:0 38:0 39:0 40:0 41:0 42:0 43:0 44:0 45:-4.9549732 46:0.00021899999 47:0.00184 #
-1.2204129923908803e-008 1:5.8018718 2:615 3:10 4:2 5:6 6:0 7:0 8:0.00027799999 9:0.001082 10:0.041666999 11:0.027778 12:1 13:5.221684 14:0 15:-4.02529 16:9.36763 17:-4.3564501 18:-4.0252099 19:-3.3321099 20:6.0734901 21:-4.1585398 22:-3.3321099 23:-3.5262201 24:4.8945198 25:-4.2042699 26:-3.5262201 27:5.221684 28:0 29:0 30:0 31:0 32:0 33:0 34:0 35:0 36:0 37:0 38:0 39:0 40:0 41:0 42:0 43:0 44:0 45:-0.70885497 46:0.000279 47:0 #
1.2204129923908803e-008 1:22.652651 2:289 3:3 4:2 5:5 6:0.074024998 7:0.012447 8:0.00035799999 9:0.001082 10:0.041666999 11:0.027778 12:1 13:20.387386 14:1e-006 15:-0.122602 16:21.7428 17:-1.65821 18:-0.773184 19:-0.69313997 20:15.2866 21:-3.9314899 22:-0.69313997 23:-0.69313902 24:15.017 25:-3.9314001 26:-0.69313902 27:20.387384 28:21 29:2 30:1 31:0 32:0.020792 33:0.083333001 34:0.027778 35:0 36:1e-006 37:0.082539 38:0.000106 39:0.010408 40:0.0090939999 41:0.009598 42:22.888346 43:22.593243 44:22.429369 45:3.5090721 46:661619.5 47:0.470994 #
-6.3406066833211637e-007 1:15.481017 2:116 3:0 4:3 5:5 6:0.26431599 7:0.00037600001 8:0.00034500001 9:1.4e-005 10:0.00041199999 11:7.1000002e-005 12:9.2000002e-005 13:13.932916 14:4.3e-005 15:-13.6815 16:0.015328 17:-12.3019 18:-8.5451202 19:-7.0474701 20:1.19692 21:-6.82269 22:-6.8222198 23:-5.9899802 24:2.8975501 25:-6.2234902 26:-5.9899802 27:13.932915 28:4 29:0 30:0 31:0 32:4.5000001e-005 33:0 34:0 35:0 36:9.9999997e-006 37:0.28130499 38:1.8000001e-005 39:0.004863 40:0.000462 41:0.000444 42:23.497932 43:16.155209 44:19.20632 45:-3.6273179 46:1517033.6 47:0.00069700001 #
0.007607768727893335 1:22.487156 2:224 3:4 4:3 5:4 6:0.00095399999 7:0.00050199998 8:0.00042600001 9:1.4e-005 10:0.00041199999 11:7.1000002e-005 12:9.2000002e-005 13:20.23844 14:1e-006 15:-5.2920599 16:11.4326 17:-5.8387499 18:-5.2916098 19:-4.8776798 20:8.1802597 21:-6.13939 22:-4.8776798 23:-5.3993502 24:4.9807301 25:-6.0994301 26:-5.3993502 27:20.23844 28:23 29:2 30:1 31:1 32:0.00026100001 33:0.00082399999 34:7.1000002e-005 35:9.2000002e-005 36:0 37:0.000378 38:2.9000001e-005 39:0.000642 40:0.00064899999 41:0.000216 42:22.2379 43:22.742916 44:18.817389 45:-1.5591429 46:410.23172 47:0.0058690002 #
-0.0074999999999999997 1:16.974035 2:391 3:1 4:2 5:5 6:0.00025799999 7:0.00025799999 8:0.00034500001 9:1.4e-005 10:0.00041199999 11:7.1000002e-005 12:9.2000002e-005 13:15.276632 14:0 15:-13.6815 16:0.015328 17:-12.3019 18:-8.5451202 19:-7.0474701 20:1.19692 21:-6.82269 22:-6.8222198 23:-5.9899802 24:2.8975501 25:-6.2234902 26:-5.9899802 27:15.276631 28:16 29:0 30:0 31:0 32:0.000182 33:0 34:0 35:0 36:0 37:0.000231 38:1.8000001e-005 39:0.00046899999 40:0.000505 41:0.00034299999 42:16.467661 43:16.538013 44:14.847237 45:-3.6273179 46:23.210026 47:0.003089 #
-0.0020193539097984959 1:20.720623 2:373 3:5 4:3 5:6 6:0.00052200002 7:0.000398 8:0.00036800001 9:1.4e-005 10:0.00041199999 11:7.1000002e-005 12:9.2000002e-005 13:18.64856 14:0 15:-5.9847598 16:9.8278799 17:-6.12502 18:-5.83951 19:-7.0474701 20:1.19692 21:-6.82269 22:-6.8222198 23:-5.9899802 24:2.8975501 25:-6.2234902 26:-5.9899802 27:18.64856 28:28 29:1 30:0 31:0 32:0.00031800001 33:0.00041199999 34:0 35:0 36:0 37:0.00079800002 38:1.8000001e-005 39:0.00057700003 40:0.00060899998 41:0.00046800001 42:20.420635 43:20.733109 44:18.44776 45:-3.6273179 46:77.001816 47:0.0065890001 #
1.8269048222598324e-006 1:15.375553 2:7165 3:8 4:9 5:6 6:0.00055900001 7:0 8:0.000218 9:1.4e-005 10:0.00041199999 11:7.1000002e-005 12:9.2000002e-005 13:13.837998 14:0 15:-4.2109599 16:13.5403 17:-4.6173301 18:-4.2879901 19:-4.6378999 20:7.63416 21:-4.6835999 22:-4.4939198 23:-3.95294 24:5.9471502 25:-4.2814598 26:-3.95294 27:13.837997 28:91 29:2 30:1 31:0 32:0.001034 33:0.00082399999 34:7.1000002e-005 35:0 36:0 37:0.00094 38:0 39:0.00043499999 40:0.00041499999 41:0.000124 42:14.894464 43:14.128465 44:7.6170192 45:-0.63843501 46:0.12264 47:0.015898 #
-0.0010184544708934391 1:15.916901 2:98 3:2 4:3 5:5 6:0.00064599997 7:0.00025799999 8:0.00034500001 9:1.4e-005 10:0.00041199999 11:7.1000002e-005 12:9.2000002e-005 13:14.325211 14:2e-006 15:-13.6815 16:0.015328 17:-12.3019 18:-8.5451202 19:-7.0474701 20:1.19692 21:-6.82269 22:-6.8222198 23:-5.9899802 24:2.8975501 25:-6.2234902 26:-5.9899802 27:14.325211 28:4 29:0 30:0 31:0 32:4.5000001e-005 33:0 34:0 35:0 36:0 37:0.00057400001 38:1.8000001e-005 39:0.00047200001 40:0.00047599999 41:0.00033499999 42:15.605261 43:16.427862 44:17.748999 45:-3.6273179 46:173.94078 47:0.00071599998 #
0.0099804260251577029 1:15.210758 2:97 3:0 4:4 5:5 6:0.000298 7:7.4000003e-005 8:0.00034200001 9:1.4e-005 10:0.00041199999 11:7.1000002e-005 12:9.2000002e-005 13:13.689683 14:0 15:-13.6815 16:0.015328 17:-12.3019 18:-8.5451202 19:-4.7248802 20:5.9511399 21:-4.96491 22:-4.6721702 23:-3.5476201 24:8.7167397 25:-4.1929102 26:-3.5476201 27:13.689682 28:7 29:0 30:1 31:0 32:7.9999998e-005 33:0 34:7.1000002e-005 35:0 36:0 37:0.000132 38:9.0000003e-006 39:0.00042299999 40:0.00046000001 41:0.00012899999 42:15.086366 43:17.197323 44:12.880512 45:-0.45162201 46:7.6917748 47:0.001217 #
-0.0014619715542642637 1:14.37408 2:104 3:1 4:5 5:4 6:0.000134 7:0.00012700001 8:0.00027799999 9:1.4e-005 10:0.00041199999 11:7.1000002e-005 12:9.2000002e-005 13:12.936671 14:4e-006 15:-13.6815 16:0.015328 17:-12.3019 18:-8.5451202 19:-7.0474701 20:1.19692 21:-6.82269 22:-6.8222198 23:-5.9899802 24:2.8975501 25:-6.2234902 26:-5.9899802 27:12.936671 28:2 29:0 30:0 31:0 32:2.3000001e-005 33:0 34:0 35:0 36:1e-006 37:0.000119 38:9.9999997e-006 39:0.00039999999 40:0.00042500001 41:0.00012700001 42:13.771254 43:16.411343 44:8.345849 45:-3.6273179 46:24.1056 47:0.00033099999 #
0.0095193539097984947 1:18.139351 2:389 3:5 4:8 5:5 6:0.000161 7:0.00076700002 8:0.00027799999 9:1.4e-005 10:0.00041199999 11:7.1000002e-005 12:9.2000002e-005 13:16.325415 14:0 15:-13.6815 16:0.015328 17:-12.3019 18:-8.5451202 19:-7.0474701 20:1.19692 21:-6.82269 22:-6.8222198 23:-5.9899802 24:2.8975501 25:-6.2234902 26:-5.9899802 27:16.325415 28:15 29:0 30:0 31:0 32:0.00017 33:0 34:0 35:0 36:0 37:0.000124 38:9.9999997e-006 39:0.000505 40:0.00051899999 41:0.000204 42:17.680487 43:18.49914 44:12.369699 45:-3.6273179 46:34.712063 47:0.003084 #
-0.0074999999999999997 1:19.2841 2:225 3:10 4:10 5:6 6:0.00038700001 7:0.00039599999 8:0.00034500001 9:1.4e-005 10:0.00041199999 11:7.1000002e-005 12:9.2000002e-005 13:17.35569 14:0 15:-6.02878 16:11.2352 17:-5.7368398 18:-5.6374798 19:-5.56952 20:6.0591602 21:-6.1965499 22:-5.56952 23:-5.4587898 24:4.63657 25:-5.8969798 26:-5.5996199 27:17.35569 28:18 29:3 30:2 31:0 32:0.000205 33:0.001237 34:0.000141 35:0 36:0 37:0.000405 38:1.8000001e-005 39:0.00053299998 40:0.000566 41:0.00047699999 42:18.91552 43:18.9035 44:18.619503 45:-2.0944901 46:53.296455 47:0.0039530001 #
-0.0001077687278933357 1:22.526842 2:220 3:2 4:2 5:5 6:0 7:0.00018 8:0.00019999999 9:1.4e-005 10:0.00041199999 11:7.1000002e-005 12:9.2000002e-005 13:20.274158 14:0 15:-13.6815 16:0.015328 17:-12.3019 18:-8.5451202 19:-7.0474701 20:1.19692 21:-6.82269 22:-6.8222198 23:-5.9899802 24:2.8975501 25:-6.2234902 26:-5.9899802 27:20.274157 28:24 29:0 30:0 31:0 32:0.00027300001 33:0 34:0 35:0 36:0 37:0 38:2.6e-005 39:0.000619 40:0.00066100003 41:0.000205 42:22.268358 43:23.388569 44:19.132782 45:-3.6273179 46:0.036380999 47:0.0061499998 #
-0.0074999999999999997 1:16.110512 2:98 3:0 4:3 5:6 6:0.00038799999 7:0.00025799999 8:0.00027600001 9:1.4e-005 10:0.00041199999 11:7.1000002e-005 12:9.2000002e-005 13:14.49946 14:0 15:-13.6815 16:0.015328 17:-12.3019 18:-8.5451202 19:-7.0474701 20:1.19692 21:-6.82269 22:-6.8222198 23:-5.3993502 24:4.9807301 25:-6.0994301 26:-5.3993502 27:14.49946 28:4 29:0 30:1 31:0 32:4.5000001e-005 33:0 34:7.1000002e-005 35:0 36:0 37:0.00042200001 38:1.8000001e-005 39:0.00044999999 40:0.000481 41:0.000336 42:15.648005 43:16.532763 44:17.778364 45:-3.1610069 46:27.908028 47:0.00072499999 #
-1.192844153927716e-006 1:14.669892 2:189 3:0 4:4 5:5 6:0.268709 7:0.00047500001 8:0.00046000001 9:1.4e-005 10:0.00041199999 11:7.1000002e-005 12:9.2000002e-005 13:13.202904 14:4.4e-005 15:-13.6815 16:0.015328 17:-12.3019 18:-8.5451202 19:-7.0474701 20:1.19692 21:-6.82269 22:-6.8222198 23:-5.9899802 24:2.8975501 25:-6.2234902 26:-5.9899802 27:13.202903 28:6 29:0 30:0 31:0 32:6.8000001e-005 33:0 34:0 35:0 36:9.9999997e-006 37:0.286284 38:1.8000001e-005 39:0.0046430002 40:0.00044 41:0.000497 42:23.120539 43:15.108238 44:18.64864 45:-3.6273179 46:2653409.3 47:0.00099800003 #
-3.5883726981988763e-005 1:11.147163 2:144 3:25 4:4 5:6 6:0.027667001 7:0.001616 8:0.00036899999 9:7.0000001e-006 10:0.000543 11:0.00064799999 12:0.001364 13:10.912688 14:1.1e-005 15:-6.2220402 16:13.8887 17:-5.0504699 18:-4.48315 19:-6.2764702 20:1.6066099 21:-6.2248402 22:-6.2209301 23:-5.0597 24:7.60288 25:-5.7024798 26:-5.0597 27:11.185697 28:9 29:5 30:1 31:0 32:6.5e-005 33:0.0027139999 34:0.00064799999 35:0 36:0 37:0.003215 38:9.0000003e-006 39:0.001955 40:0.001509 41:0.000185 42:11.255979 43:11.065139 44:6.7723141 45:-2.333077 46:198641.86 47:0.00072499999 #
-0.0074999999999999997 1:13.878914 2:154 3:2 4:6 5:5 6:0 7:0 8:0.00034 9:7.0000001e-006 10:0.000543 11:0.00064799999 12:0.001364 13:12.491022 14:0 15:-12.1153 16:0.029712001 17:-11.3511 18:-8.3467197 19:-6.2764702 20:1.6066099 21:-6.2248402 22:-6.2209301 23:-5.26226 24:6.4089999 25:-5.7388401 26:-5.26226 27:12.491022 28:5 29:0 30:1 31:0 32:3.6000001e-005 33:0 34:0.00064799999 35:0 36:0 37:0 38:0 39:0 40:0 41:0 42:0 43:0 44:0 45:-2.571877 46:0.00034100001 47:0.00050000002 #
0.0075358837269819887 1:11.713039 2:156 3:2 4:2 5:6 6:0 7:0 8:0.00022 9:7.0000001e-006 10:0.000543 11:0.00064799999 12:0.001364 13:10.541735 14:0 15:-12.1153 16:0.029712001 17:-11.3511 18:-8.3467197 19:-6.2764702 20:1.6066099 21:-6.2248402 22:-6.2209301 23:-4.6856399 24:9.3955097 25:-5.6373 26:-4.6856399 27:10.541736 28:5 29:0 30:1 31:1 32:3.6000001e-005 33:0 34:0.00064799999 35:0.001364 36:0 37:0 38:0 39:0 40:0 41:0 42:0 43:0 44:0 45:-1.961098 46:0.00022099999 47:0.00042200001 #
1.5748791037611088e-007 1:23.502497 2:88 3:30 4:6 5:2 6:0 7:0 8:0.00065100001 9:4.9999999e-006 10:0.00014600001 11:0.00014 12:0.00082399999 13:22.109234 14:1.7e-005 15:-7.18185 16:14.0918 17:-6.0441599 18:-5.5195999 19:-6.882 20:0.99291599 21:-6.5998802 22:-6.55269 23:-5.5939598 24:7.0661001 25:-5.5433202 26:-5.5939598 27:22.153109 28:4 29:3 30:1 31:0 32:1.8000001e-005 33:0.00043799999 34:0.00014 35:0 36:2e-006 37:0 38:0 39:0 40:0 41:0 42:0 43:0 44:0 45:-2.7051389 46:0.011736 47:0.00042299999 #
-1.5748791037611088e-007 1:28.476906 2:52 3:35 4:3 5:3 6:0.30904499 7:0.00045799999 8:0.000497 9:4.9999999e-006 10:0.00014600001 11:0.00014 12:0.00082399999 13:26.710945 14:0.00014400001 15:-8.4576302 16:0.42499301 17:-7.6787601 18:-6.7662201 19:-6.882 20:0.99291599 21:-6.5998802 22:-6.55269 23:-6.95509 24:0.98551798 25:-6.78161 26:-6.7452202 27:26.710955 28:2 29:4 30:0 31:0 32:9.0000003e-006 33:0.00058400002 34:0 35:0 36:1.8999999e-005 37:0.122316 38:0.00015399999 39:0.0043649999 40:0.00042900001 41:5.9000002e-005 42:40.391968 43:32.915985 44:12.699701 45:-4.116828 46:10243141 47:0.000256 #
0.0053345283697256336 1:19.473518 2:197 3:4 4:4 5:5 6:0 7:0 8:0.000113 9:4.9999999e-006 10:0.00014600001 11:0.00014 12:0.00082399999 13:18.902655 14:1e-006 15:-7.3587699 16:7.2354202 17:-5.8060002 18:-5.9350901 19:-5.6691599 20:5.3114901 21:-5.5681601 22:-5.6691599 23:-5.92348 24:7.5227799 25:-5.7207398 26:-5.7076702 27:18.902657 28:11 29:1 30:1 31:1 32:4.9999999e-005 33:0.00014600001 34:0.00014 35:0.00082399999 36:0 37:0 38:0 39:0 40:0 41:0 42:0 43:0 44:0 45:-1.638577 46:0.000228 47:0.00097400002 #
0.0074999999999999997 1:33.659157 2:29 3:5 4:3 5:3 6:0.001068 7:0.000229 8:0.000463 9:4.9999999e-006 10:0.00014600001 11:0.00014 12:0.00082399999 13:30.29324 14:4.9999999e-006 15:-6.1753001 16:11.4071 17:-5.4798002 18:-5.5892601 19:-5.3948102 20:8.3265696 21:-5.4609098 22:-5.3948102 23:-5.6357999 24:8.2954197 25:-5.7020502 26:-5.6357999 27:30.29324 28:3 29:1 30:1 31:0 32:1.4e-005 33:0.00014600001 34:0.00014 35:0 36:1e-006 37:0.00067799998 38:8e-006 39:0.00057899999 40:0.00051099999 41:6.4e-005 42:34.310734 43:35.864986 44:16.235628 45:-0.92859697 46:684.50208 47:0.00047100001 #
0.0074999999999999997 1:25.956163 2:438 3:6 4:4 5:5 6:0.0014149999 7:0.00014400001 8:0.000466 9:4.9999999e-006 10:0.00014600001 11:0.00014 12:0.00082399999 13:23.360546 14:4.9999999e-006 15:-12.7569 16:0.013895 17:-12.6977 18:-7.3048902 19:-6.882 20:0.99291599 21:-6.5998802 22:-6.55269 23:-6.95509 24:0.98551798 25:-6.78161 26:-6.7452202 27:23.360546 28:27 29:0 30:0 31:0 32:0.00012300001 33:0 34:0 35:0 36:3.0000001e-006 37:0.002176 38:4.9999999e-006 39:0.00042299999 40:0.00038300001 41:4.7000001e-005 42:25.844116 43:24.664074 44:10.483722 45:-4.116828 46:575.30664 47:0.0031930001 #
-1.9008994236317223e-005 1:24.718994 2:203 3:2 4:4 5:5 6:0 7:0 8:0.000344 9:4.9999999e-006 10:0.00014600001 11:0.00014 12:0.00082399999 13:22.247093 14:1e-006 15:-5.1083202 16:25.1369 17:-3.7978401 18:-3.79706 19:-6.882 20:0.99291599 21:-6.5998802 22:-6.55269 23:-4.2969899 24:13.3732 25:-4.93151 26:-4.2969899 27:22.247093 28:21 29:2 30:2 31:0 32:9.6000003e-005 33:0.00029200001 34:0.00028099999 35:0 36:0 37:0 38:0 39:0 40:0 41:0 42:0 43:0 44:0 45:-1.335826 46:0.00069000002 47:0.0023729999 #
-0.0074999999999999997 1:29.192928 2:42 3:3 4:3 5:5 6:0 7:2.3000001e-005 8:0.00034100001 9:4.9999999e-006 10:0.00014600001 11:0.00014 12:0.00082399999 13:26.273634 14:1e-006 15:-3.8041699 16:20.378099 17:-4.5685501 18:-3.8041699 19:-6.882 20:0.99291599 21:-6.5998802 22:-6.55269 23:-3.96911 24:15.5959 25:-4.7337799 26:-3.96911 27:26.273634 28:3 29:2 30:2 31:1 32:1.4e-005 33:0.00029200001 34:0.00028099999 35:0.00082399999 36:0 37:0 38:9.9999997e-006 39:0.00042500001 40:0.00045799999 41:5.1999999e-005 42:28.46567 43:30.878069 44:11.017119 45:-0.877774 46:0.016416 47:0.000409 #
-0.0074999999999999997 1:28.909397 2:61 3:10 4:4 5:4 6:0.00106 7:0.00039 8:0.00036999999 9:4.9999999e-006 10:0.00014600001 11:0.00014 12:0.00082399999 13:26.018457 14:7.0000001e-006 15:-6.3371 16:11.4125 17:-5.5292602 18:-5.6598201 19:-6.882 20:0.99291599 21:-6.5998802 22:-6.55269 23:-5.9640002 24:6.0564399 25:-5.9370799 26:-5.9640002 27:26.018457 28:7 29:3 30:1 31:0 32:3.2e-005 33:0.00043799999 34:0.00014 35:0 36:1e-006 37:0.00119 38:0.00024699999 39:0.00047699999 40:0.00044199999 41:5.9999998e-005 42:28.741829 43:33.286686 44:15.436654 45:-3.000716 46:1231.2777 47:0.000925 #
-0.0030515539015758923 1:28.496271 2:49 3:2 4:2 5:4 6:0 7:0 8:0.00044 9:4.9999999e-006 10:0.00014600001 11:0.00014 12:0.00082399999 13:25.646643 14:1e-006 15:-5.5585599 16:9.78339 17:-5.7041202 18:-5.5585599 19:-6.882 20:0.99291599 21:-6.5998802 22:-6.55269 23:-6.95509 24:0.98551798 25:-6.78161 26:-6.7452202 27:25.646643 28:6 29:1 30:0 31:0 32:2.7e-005 33:0.00014600001 34:0 35:0 36:0 37:0 38:0 39:0 40:0 41:0 42:0 43:0 44:0 45:-4.116828 46:0.00088200002 47:0.00076899998 #
-0.0067968192982537359 1:23.265945 2:146 3:7 4:8 5:5 6:0.00079299998 7:0.000206 8:0.00036999999 9:4.9999999e-006 10:0.00014600001 11:0.00014 12:0.00082399999 13:20.93935 14:0 15:-6.28757 16:12.4244 17:-5.4651599 18:-5.5911198 19:-5.4618402 20:6.5388398 21:-5.3900399 22:-5.4618402 23:-5.6658401 24:6.10711 25:-5.5784101 26:-5.6658401 27:20.93935 28:7 29:1 30:1 31:0 32:3.2e-005 33:0.00014600001 34:0.00014 35:0 36:0 37:0.000193 38:1e-006 39:0.00034100001 40:0.00036100001 41:4.5000001e-005 42:22.788628 43:32.402 44:11.195646 45:-1.57503 46:60.976818 47:0.00074500003 #
0.010551553901575892 1:27.27594 2:59 3:10 4:4 5:4 6:0 7:0 8:0.00047 9:4.9999999e-006 10:0.00014600001 11:0.00014 12:0.00082399999 13:26.659761 14:4.9999999e-006 15:-7.9187002 16:15.2991 17:-5.7930002 18:-5.3811302 19:-5.2501302 20:9.0133696 21:-5.3172798 22:-5.2501302 23:-5.49263 24:8.3823795 25:-5.5069499 26:-5.49263 27:26.659763 28:2 29:3 30:1 31:0 32:9.0000003e-006 33:0.00043799999 34:0.00014 35:0 36:0 37:0 38:0 39:0 40:0 41:0 42:0 43:0 44:0 45:-0.695207 46:0.0028260001 47:0.000245 #
0.014999999999999999 1:28.586254 2:69 3:7 4:2 5:4 6:0.0022390001 7:0.000226 8:0.00036500001 9:4.9999999e-006 10:0.00014600001 11:0.00014 12:0.00082399999 13:28.00157 14:0 15:-6.76267 16:12.0992 17:-5.46242 18:-5.5802898 19:-5.57443 20:7.77806 21:-5.7178702 22:-5.57443 23:-5.9640002 24:6.0564399 25:-5.9370799 26:-5.9640002 27:28.001572 28:8 29:3 30:0 31:0 32:3.6000001e-005 33:0.00043799999 34:0 35:0 36:0 37:0.00051400001 38:1.6e-005 39:0.00046000001 40:0.00043099999 41:5.3e-005 42:28.673407 43:26.658903 44:11.009077 45:-1.559813 46:186.10368 47:0.001029 #
-0.0012402980713788099 1:23.305292 2:189 3:21 4:8 5:5 6:0.00106 7:0.000275 8:0.00034100001 9:4.9999999e-006 10:0.00014600001 11:0.00014 12:0.00082399999 13:20.974764 14:0 15:-6.2358098 16:10.7964 17:-5.5885701 18:-5.7066102 19:-6.882 20:0.99291599 21:-6.5998802 22:-6.55269 23:-6.95509 24:0.98551798 25:-6.78161 26:-6.7452202 27:20.974762 28:22 29:2 30:0 31:0 32:9.9999997e-005 33:0.00029200001 34:0 35:0 36:0 37:0.00042299999 38:7.0000001e-006 39:0.000351 40:0.000359 41:4.6000001e-005 42:23.133633 43:29.438643 44:12.703292 45:-4.116828 46:100.14991 47:0.0023310001 #
-0.0074999999999999997 1:27.004478 2:60 3:6 4:5 5:4 6:0.00052900001 7:2.4000001e-005 8:0.00036999999 9:4.9999999e-006 10:0.00014600001 11:0.00014 12:0.00082399999 13:24.304029 14:1e-006 15:-5.5822301 16:13.5857 17:-5.3288999 18:-5.3794398 19:-5.3220201 20:8.2343302 21:-5.3359699 22:-5.3220201 23:-5.5483999 24:7.66816 25:-5.5253 26:-5.5483999 27:24.304029 28:9 29:2 30:1 31:0 32:4.0999999e-005 33:0.00029200001 34:0.00014 35:0 36:0 37:0.000428 38:2.7e-005 39:0.000401 40:0.00041899999 41:4.8000002e-005 42:26.791788 43:27.422527 44:14.046219 45:-0.971533 46:9.8315001 47:0.001107 #
0.019694859449989735 1:24.567808 2:153 3:5 4:3 5:3 6:0.0063979998 7:0.000191 8:0.00047999999 9:4.9999999e-006 10:0.00014600001 11:0.00014 12:0.00082399999 13:22.825052 14:1e-006 15:-7.86167 16:11.9066 17:-5.7593799 18:-5.6563201 19:-6.882 20:0.99291599 21:-6.5998802 22:-6.55269 23:-5.8365002 24:7.3005099 25:-5.9000401 26:-5.8365002 27:22.978521 28:8 29:2 30:1 31:0 32:3.6000001e-005 33:0.00029200001 34:0.00014 35:0 36:0 37:0.0027719999 38:9.9999997e-006 39:0.00048700001 40:0.00036899999 41:4.5000001e-005 42:26.140017 43:24.723028 44:7.9690018 45:-2.7659471 46:1181.9209 47:0.00088399998 #
-0.0074999999999999997 1:24.195238 2:450 3:9 4:4 5:4 6:0.000795 7:0.000229 8:0.00036999999 9:4.9999999e-006 10:0.00014600001 11:0.00014 12:0.00082399999 13:21.775715 14:0 15:-12.7569 16:0.013895 17:-12.6977 18:-7.3048902 19:-6.882 20:0.99291599 21:-6.5998802 22:-6.55269 23:-6.95509 24:0.98551798 25:-6.78161 26:-6.7452202 27:21.775713 28:26 29:0 30:0 31:0 32:0.000119 33:0 34:0 35:0 36:0 37:0.000233 38:3.0000001e-006 39:0.00036100001 40:0.000374 41:4.7000001e-005 42:23.436142 43:25.580954 44:8.2997665 45:-4.116828 46:67.922684 47:0.002879 #
-0.0074999999999999997 1:29.50522 2:44 3:8 4:4 5:4 6:0 7:0 8:0.00046899999 9:4.9999999e-006 10:0.00014600001 11:0.00014 12:0.00082399999 13:27.647848 14:0 15:-5.7305899 16:10.2677 17:-5.6427498 18:-5.7316298 19:-5.57443 20:7.77806 21:-5.7178702 22:-5.57443 23:-5.90832 24:6.6205401 25:-5.9187298 26:-5.90832 27:27.66246 28:6 29:2 30:1 31:1 32:2.7e-005 33:0.00029200001 34:0.00014 35:0.00082399999 36:0 37:0 38:0 39:0 40:0 41:0 42:0 43:0 44:0 45:-1.453458 46:0.00047 47:0.00079700002 #
-0.0053155193754893162 1:23.349562 2:202 3:4 4:4 5:5 6:0 7:0 8:0.000325 9:4.9999999e-006 10:0.00014600001 11:0.00014 12:0.00082399999 13:21.014605 14:0 15:-5.4513202 16:11.8074 17:-5.4649301 18:-5.4513202 19:-6.882 20:0.99291599 21:-6.5998802 22:-6.55269 23:-6.95509 24:0.98551798 25:-6.78161 26:-6.7452202 27:21.014605 28:12 29:1 30:0 31:0 32:5.5e-005 33:0.00014600001 34:0 35:0 36:0 37:0 38:0 39:0 40:0 41:0 42:0 43:0 44:0 45:-4.116828 46:0.00032600001 47:0.001284 #
-0.0041577420803571886 1:26.582338 2:185 3:2 4:2 5:4 6:0.0022390001 7:0.000226 8:0.00027399999 9:4.9999999e-006 10:0.00014600001 11:0.00014 12:0.00082399999 13:23.924105 14:0 15:-6.7628598 16:13.8419 17:-5.2294698 18:-5.3603401 19:-5.2934899 20:9.1966496 21:-5.4418702 22:-5.2934899 23:-5.7076702 24:7.5227799 25:-5.7207398 26:-5.7076702 27:23.924105 28:14 29:1 30:0 31:0 32:6.4e-005 33:0.00014600001 34:0 35:0 36:0 37:0.00051400001 38:1.6e-005 39:0.000428 40:0.00040399999 41:4.8999998e-005 42:26.622969 43:24.281748 44:10.211898 45:-0.90739 46:139.832 47:0.001701 #
-0.0074999999999999997 1:24.411434 2:153 3:2 4:2 5:4 6:0.0022390001 7:0.000226 8:0.00027399999 9:4.9999999e-006 10:0.00014600001 11:0.00014 12:0.00082399999 13:21.970289 14:0 15:-12.7569 16:0.013895 17:-12.6977 18:-7.3048902 19:-6.882 20:0.99291599 21:-6.5998802 22:-6.55269 23:-6.95509 24:0.98551798 25:-6.78161 26:-6.7452202 27:21.970289 28:7 29:0 30:0 31:0 32:3.2e-005 33:0 34:0 35:0 36:0 37:0.00051400001 38:1.6e-005 39:0.000394 40:0.000374 41:4.6000001e-005 42:24.555626 43:22.108494 44:6.9453311 45:-4.116828 46:139.832 47:0.00078100001 #
0.0010397998760574346 1:23.089445 2:234 3:2 4:1 5:5 6:0.034464002 7:0 8:0.00027300001 9:0.001923 10:0.083333001 11:0.142857 12:1 13:20.780499 14:0 15:-1.38629 16:17.884399 17:-3.95116 18:-1.38629 19:-1.79176 20:14.1856 21:-3.9702201 22:-1.79176 23:-2.63905 24:9.9552898 25:-4.0429902 26:-2.63905 27:20.7805 28:8 29:1 30:0 31:1 32:0.015238 33:0.083333001 34:0 35:1 36:0 37:0.019954 38:0 39:0.013145 40:0.012422 41:0.0087829996 42:22.92292 43:22.690611 44:21.842485 45:1.949478 46:9.4434099 47:0.35183701 #
-0.0010397998760574346 1:23.292896 2:211 3:2 4:4 5:6 6:0.013505 7:0.0045190002 8:0.000222 9:0.001923 10:0.083333001 11:0.142857 12:1 13:20.963604 14:0 15:-0.98082799 16:20.057199 17:-3.29579 18:-1.38629 19:-1.38629 20:15.6679 21:-3.95117 22:-1.38629 23:-2.0794401 24:12.737 25:-3.98892 26:-2.0794401 27:20.963606 28:8 29:1 30:1 31:0 32:0.015238 33:0.083333001 34:0.142857 35:0 36:0 37:0.001125 38:0.000185 39:0.012799 40:0.013134 41:0.01158 42:23.138239 43:22.951109 44:22.442266 45:2.83318 46:13613.508 47:0.35493699 #
-1.0855781159465472e-009 1:10.412593 2:240 3:39 4:4 5:4 6:0.033263002 7:0 8:0.00065200002 9:0.001908 10:0.0625 11:0.034483001 12:0.021276999 13:9.5567398 14:7.0000001e-006 15:-3.1779799 16:13.3585 17:-4.1268001 18:-3.1779699 19:-3.33214 20:6.2138901 21:-4.1586199 22:-3.33213 23:-3.2580199 24:6.05512 25:-4.1428299 26:-3.2580199 27:9.5567389 28:1 29:0 30:0 31:0 32:0.001876 33:0 34:0 35:0 36:1e-006 37:0.016706999 38:0 39:0.0030429999 40:0.002816 41:0.001991 42:11.020771 43:9.274395 44:7.355773 45:-0.437098 46:173.77113 47:0.019533999 #
-1.7175318538251178e-008 1:11.563485 2:182 3:16 4:3 5:4 6:0 7:0 8:0.00066199998 9:0.001908 10:0.0625 11:0.034483001 12:0.021276999 13:10.407136 14:1e-006 15:-3.1779799 16:13.3585 17:-4.1268001 18:-3.1779699 19:-3.33214 20:6.2138901 21:-4.1586199 22:-3.33213 23:-3.2580199 24:6.05512 25:-4.1428299 26:-3.2580199 27:10.407136 28:1 29:0 30:0 31:0 32:0.001876 33:0 34:0 35:0 36:0 37:0 38:0 39:0 40:0 41:0 42:0 43:0 44:0 45:-0.437098 46:0.001326 47:0.021693001 #
1.8260896654197725e-008 1:24.209885 2:85 3:13 4:2 5:4 6:0.30807099 7:0.0043310001 8:0.00066199998 9:0.001908 10:0.0625 11:0.034483001 12:0.021276999 13:23.60593 14:9.9999997e-006 15:-0.71862602 16:22.155899 17:-0.98562098 18:-1.4053299 19:-3.33214 20:6.2138901 21:-4.1586199 22:-3.33213 23:-3.2580199 24:6.05512 25:-4.1428299 26:-3.2580199 27:23.605927 28:3 29:5 30:0 31:1 32:0.0056289998 33:0.3125 34:0 35:0.021276999 36:1e-006 37:0.052305002 38:6.9000002e-005 39:0.013923 40:0.0071620001 41:0.00728 42:25.10429 43:23.951376 44:23.729315 45:-0.437098 46:9733004 47:0.13627701 #
5.6883679116622324e-008 1:44.65239 2:363 3:23 4:0 5:2 6:0.561755 7:0.0075289998 8:0.000142 9:9.9999997e-006 10:0.00030300001 11:0.00027600001 12:0.00063199998 13:41.630108 14:2.4999999e-005 15:-8.5153198 16:6.7953 17:-7.3580499 18:-7.3882799 19:-8.6292295 20:0.71894699 21:-8.6570501 22:-8.4132299 23:-8.6811895 24:1.02233 25:-8.4018097 26:-8.3477001 27:41.630199 28:17 29:1 30:0 31:1 32:0.000155 33:0.00030300001 34:0 35:0.00063199998 36:8e-006 37:0.32645199 38:0.00065399997 39:0.022321999 40:0.002907 41:0.0044450001 42:65.376633 43:45.473549 44:50.799473 45:-5.3464189 46:15727224 47:0.0069209998 #
-0.0015422769807067133 1:19.799166 2:104 3:2 4:1 5:7 6:0.098995999 7:0.001373 8:0.00029299999 9:9.9999997e-006 10:0.00030300001 11:0.00027600001 12:0.00063199998 13:17.81925 14:6.0000002e-006 15:-14.2997 16:0.026110999 17:-13.7133 18:-9.1036997 19:-8.6292295 20:0.71894699 21:-8.6570501 22:-8.4132299 23:-8.6811895 24:1.02233 25:-8.4018097 26:-8.3477001 27:17.819248 28:0 29:0 30:0 31:0 32:0 33:0 34:0 35:0 36:0 37:0.014247 38:9.0000003e-006 39:0.0025549999 40:0.001341 41:0.001494 42:23.81566 43:19.483294 44:20.871483 45:-5.3464189 46:279933.03 47:0 #
-5.6883679116622324e-008 1:17.891357 2:7259 3:12 4:11 5:3 6:0.004652 7:0 8:0.000106 9:9.9999997e-006 10:0.00030300001 11:0.00027600001 12:0.00063199998 13:16.102222 14:1e-006 15:-8.6185598 16:7.9836102 17:-7.9479699 18:-8.1087599 19:-7.9755902 20:4.1561699 21:-7.78158 22:-7.9755902 23:-8.0173597 24:3.7890301 25:-7.8213401 26:-8.0173597 27:16.102221 28:246 29:1 30:1 31:1 32:0.0022420001 33:0.00030300001 34:0.00027600001 35:0.00063199998 36:0 37:0.002872 38:0 39:0.001288 40:0.001099 41:0.00052300002 42:18.125345 43:16.950016 44:13.319908 45:-3.9417779 46:0.99574202 47:0.040112 #
-0.00030611747289101103 1:18.563936 2:105 3:2 4:3 5:4 6:0 7:0 8:0.000283 9:9.9999997e-006 10:0.00030300001 11:0.00027600001 12:0.00063199998 13:17.628531 14:4e-006 15:-5.81916 16:20.5826 17:-6.4503798 18:-5.81916 19:-8.6292295 20:0.71894699 21:-8.6570501 22:-8.4132299 23:-5.8201599 24:15.8012 25:-6.3085699 26:-5.8201599 27:17.628531 28:6 29:1 30:1 31:1 32:5.5e-005 33:0.00030300001 34:0.00027600001 35:0.00063199998 36:1e-006 37:0 38:0 39:0 40:0 41:0 42:0 43:0 44:0 45:-2.1131439 46:0.00142 47:0.001021 #
-0.0013385095218513715 1:23.458569 2:126 3:5 4:1 5:5 6:0 7:0 8:0.000106 9:9.9999997e-006 10:0.00030300001 11:0.00027600001 12:0.00063199998 13:21.112713 14:0 15:-7.2941699 16:13.2912 17:-7.1566701 18:-7.2941699 19:-7.1895099 20:9.1275396 21:-7.05196 22:-7.1895099 23:-8.6811895 24:1.02233 25:-8.4018097 26:-8.3477001 27:21.112711 28:12 29:1 30:0 31:0 32:0.000109 33:0.00030300001 34:0 35:0 36:0 37:0 38:0 39:0 40:0 41:0 42:0 43:0 44:0 45:-3.4735179 46:0.000107 47:0.0025569999 #
0.0016446269947423824 1:20.846056 2:111 3:21 4:4 5:4 6:0 7:0 8:0.000665 9:9.9999997e-006 10:0.00030300001 11:0.00027600001 12:0.00063199998 13:18.76145 14:1e-006 15:-6.3453698 16:15.4115 17:-6.1827998 18:-6.1223998 19:-8.6292295 20:0.71894699 21:-8.6570501 22:-8.4132299 23:-4.7262201 24:20.5889 25:-5.6180601 26:-4.7262201 27:18.76145 28:11 29:2 30:2 31:0 32:9.9999997e-005 33:0.00060600002 34:0.00055200001 35:0 36:0 37:0 38:0 39:0 40:0 41:0 42:0 43:0 44:0 45:-1.017786 46:0.001332 47:0.002085 #
-0.00020973299579305133 1:17.695536 2:118 3:7 4:7 5:7 6:0 7:0 8:0.000218 9:9.9999997e-006 10:0.00030300001 11:0.00027600001 12:0.00063199998 13:15.925983 14:0 15:-7.3614502 16:12.5862 17:-7.19238 18:-7.3614502 19:-7.3070502 20:6.92413 21:-7.12217 22:-7.3070502 23:-7.23909 24:7.75144 25:-7.0700302 26:-7.23909 27:15.925982 28:3 29:1 30:1 31:0 32:2.7e-005 33:0.00030300001 34:0.00027600001 35:0 36:0 37:0 38:0 39:0 40:0 41:0 42:0 43:0 44:0 45:-2.3437951 46:0.00021899999 47:0.000478 #
0.0042651732145774588 1:20.624453 2:111 3:5 4:4 5:3 6:0 7:0 8:0.00057199999 9:9.9999997e-006 10:0.00030300001 11:0.00027600001 12:0.00063199998 13:18.562006 14:0 15:-14.2997 16:0.026110999 17:-13.7133 18:-9.1036997 19:-8.6292295 20:0.71894699 21:-8.6570501 22:-8.4132299 23:-4.7262201 24:20.5889 25:-5.6180601 26:-4.7262201 27:18.562006 28:11 29:0 30:2 31:0 32:9.9999997e-005 33:0 34:0.00055200001 35:0 36:0 37:0 38:0 39:0 40:0 41:0 42:0 43:0 44:0 45:-1.017786 46:0.000573 47:0.0020620001 #
-0.0025131632380776944 1:16.863836 2:93 3:4 4:1 5:4 6:0 7:0 8:0.00034299999 9:9.9999997e-006 10:0.00030300001 11:0.00027600001 12:0.00063199998 13:16.086159 14:1e-006 15:-6.4070401 16:24.135401 17:-6.0408401 18:-5.9084001 19:-5.8245101 20:15.8798 21:-6.3126798 22:-5.8245101 23:-8.6811895 24:1.02233 25:-8.4018097 26:-8.3477001 27:16.086159 28:4 29:2 30:0 31:0 32:3.6000001e-005 33:0.00060600002 34:0 35:0 36:0 37:0 38:0 39:0 40:0 41:0 42:0 43:0 44:0 45:-1.9974281 46:0.000688 47:0.00060700002 #
0.00096281545297273094 1:17.337488 2:22 3:10 4:5 5:6 6:0.038623001 7:0.003244 8:0.00045799999 9:1.3e-005 10:0.00038899999 11:0.00051300001 12:0.003333 13:15.603738 14:1.1e-005 15:-5.1069398 16:12.9193 17:-4.4755802 18:-4.4679098 19:-7.30231 20:0.808182 21:-7.18578 22:-7.1375299 23:-6.9365001 24:1.44043 25:-6.8762798 26:-6.8752999 27:15.603739 28:3 29:2 30:0 31:1 32:3.7999998e-005 33:0.00077799999 34:0 35:0.003333 36:2e-006 37:0.016023999 38:6.1999999e-005 39:0.00348 40:0.002415 41:0.003267 42:18.208551 43:17.390293 44:19.277359 45:-4.3043799 46:690344.5 47:0.00065900001 #
-1.0161256515667196e-010 1:17.692728 2:64 3:13 4:5 5:6 6:0.27524099 7:0.003484 8:0.00034299999 9:1.3e-005 10:0.00038899999 11:0.00051300001 12:0.003333 13:17.15675 14:1.2e-005 15:-10.7172 16:0.026732 17:-11.1354 18:-8.0882797 19:-7.30231 20:0.808182 21:-7.18578 22:-7.1375299 23:-6.9365001 24:1.44043 25:-6.8762798 26:-6.8752999 27:17.15675 28:2 29:0 30:0 31:0 32:2.4999999e-005 33:0 34:0 35:0 36:2e-006 37:0.10877 38:6.1999999e-005 39:0.0087630004 40:0.002481 41:0.003734 42:21.166531 43:17.974615 44:19.441654 45:-4.3043799 46:4289624.5 47:0.00044199999 #
-0.00035462552851231785 1:12.026029 2:235 3:3 4:2 5:4 6:0 7:0 8:0.00042600001 9:1.3e-005 10:0.00038899999 11:0.00051300001 12:0.003333 13:10.823426 14:0 15:-4.3499198 16:13.5598 17:-4.6014099 18:-4.18155 19:-4.1676898 20:10.9623 21:-5.1219301 22:-4.1676898 23:-6.9365001 24:1.44043 25:-6.8762798 26:-6.8752999 27:10.823425 28:8 29:1 30:0 31:0 32:0.000101 33:0.00038899999 34:0 35:0 36:0 37:0 38:0 39:0 40:0 41:0 42:0 43:0 44:0 45:-1.773078 46:0.00042699999 47:0.0012150001 #
-1.1392877597695023e-011 1:10.647389 2:106 3:2 4:2 5:13 6:0 7:0 8:0.000174 9:1.3e-005 10:0.00038899999 11:0.00051300001 12:0.003333 13:9.5826502 14:0 15:-4.1044998 16:11.7395 17:-5.0564198 18:-4.1044998 19:-7.30231 20:0.808182 21:-7.18578 22:-7.1375299 23:-6.9365001 24:1.44043 25:-6.8762798 26:-6.8752999 27:9.5826502 28:2 29:1 30:0 31:0 32:2.4999999e-005 33:0.00038899999 34:0 35:0 36:0 37:0 38:0 39:0 40:0 41:0 42:0 43:0 44:0 45:-4.3043799 46:0.00017499999 47:0.00026599999 #
-1.3426655295833849e-007 1:16.686695 2:138 3:1 4:4 5:6 6:0.011461 7:0.001096 8:0.00034200001 9:1.3e-005 10:0.00038899999 11:0.00051300001 12:0.003333 13:15.018025 14:1e-006 15:-4.9458098 16:15.3843 17:-3.84916 18:-3.7579999 19:-7.30231 20:0.808182 21:-7.18578 22:-7.1375299 23:-4.6577902 24:8.9663296 25:-5.3034101 26:-4.6577902 27:15.018025 28:3 29:1 30:1 31:1 32:3.7999998e-005 33:0.00038899999 34:0.00051300001 35:0.003333 36:0 37:0.0021939999 38:2.1e-005 39:0.0024029999 40:0.0023159999 41:0.001064 42:16.627001 43:16.357817 44:13.098749 45:-2.4183331 46:8625.6367 47:0.000634 #
-0.00041233846470701543 1:12.767336 2:178 3:3 4:6 5:6 6:0.011754 7:0.001087 8:0.00034 9:1.3e-005 10:0.00038899999 11:0.00051300001 12:0.003333 13:11.490602 14:0 15:-10.7172 16:0.026732 17:-11.1354 18:-8.0882797 19:-7.30231 20:0.808182 21:-7.18578 22:-7.1375299 23:-6.9365001 24:1.44043 25:-6.8762798 26:-6.8752999 27:11.490602 28:2 29:0 30:0 31:0 32:2.4999999e-005 33:0 34:0 35:0 36:0 37:0.002074 38:6.8000001e-005 39:0.001837 40:0.001803 41:0.00082000002 42:12.809073 43:12.434874 44:8.3749456 45:-4.3043799 46:4361.1992 47:0.00031900001 #
0.019758042631884354 1:16.386438 2:73 3:3 4:7 5:8 6:0.00087599998 7:0.001626 8:0.00034299999 9:1.3e-005 10:0.00038899999 11:0.00051300001 12:0.003333 13:14.747794 14:0 15:-4.9499502 16:9.5399303 17:-5.7091699 18:-4.9499502 19:-5.4681201 20:7.3073702 21:-6.2288198 22:-5.4681201 23:-6.9365001 24:1.44043 25:-6.8762798 26:-6.8752999 27:14.747794 28:5 29:1 30:0 31:0 32:6.2999999e-005 33:0.00038899999 34:0 35:0 36:0 37:0.00041199999 38:6.1999999e-005 39:0.002138 40:0.00232 41:0.0024649999 42:16.007666 43:16.28528 44:17.240248 45:-2.783453 46:490.84637 47:0.0010319999 #
-0.0074999999999999997 1:20.197416 2:54 3:4 4:7 5:8 6:0.00087599998 7:0.001626 8:0.00034299999 9:1.3e-005 10:0.00038899999 11:0.00051300001 12:0.003333 13:18.177675 14:0 15:-1.38491 16:20.3279 17:-3.2786701 18:-1.38491 19:-1.3852299 20:15.7431 21:-3.28265 22:-1.3852299 23:-6.9365001 24:1.44043 25:-6.8762798 26:-6.8752999 27:18.177673 28:4 29:2 30:0 31:0 32:4.9999999e-005 33:0.00077799999 34:0 35:0 36:0 37:0.00041199999 38:6.1999999e-005 39:0.002635 40:0.002811 41:0.002663 42:19.937763 43:19.881554 44:19.138952 45:-0.205988 46:490.84637 47:0.00101 #
-0.00062538826009085635 1:15.039139 2:132 3:4 4:3 5:4 6:0 7:0 8:0.000106 9:1.3e-005 10:0.00038899999 11:0.00051300001 12:0.003333 13:13.535225 14:0 15:-5.0935202 16:9.2650204 17:-5.72786 18:-5.0935202 19:-6.1213498 20:4.39604 21:-6.35287 22:-6.0684299 23:-5.5398302 24:7.5060201 25:-6.3032799 26:-5.5398302 27:13.535225 28:6 29:1 30:1 31:0 32:7.5999997e-005 33:0.00038899999 34:0.00051300001 35:0 36:0 37:0 38:0 39:0 40:0 41:0 42:0 43:0 44:0 45:-2.0603919 46:0.000107 47:0.001143 #
-0.0023101665470137548 1:17.61895 2:67 3:13 4:5 5:6 6:0.017576 7:0.001626 8:0.00034299999 9:1.3e-005 10:0.00038899999 11:0.00051300001 12:0.003333 13:15.857055 14:1e-006 15:-10.7172 16:0.026732 17:-11.1354 18:-8.0882797 19:-7.30231 20:0.808182 21:-7.18578 22:-7.1375299 23:-6.9365001 24:1.44043 25:-6.8762798 26:-6.8752999 27:15.857055 28:2 29:0 30:0 31:0 32:2.4999999e-005 33:0 34:0 35:0 36:0 37:0.0079140002 38:6.1999999e-005 39:0.0026400001 40:0.0024669999 41:0.0024300001 42:17.876087 43:18.112339 44:17.799913 45:-4.3043799 46:19675.271 47:0.00044 #
-0.0041709940782999619 1:11.36053 2:267 3:2 4:7 5:5 6:0 7:0 8:0.00027300001 9:1.3e-005 10:0.00038899999 11:0.00051300001 12:0.003333 13:10.224477 14:0 15:-4.1044998 16:11.7395 17:-5.0564198 18:-4.1044998 19:-4.1676898 20:10.9623 21:-5.1219301 22:-4.1676898 23:-4.93753 24:7.00811 25:-5.35747 26:-4.93753 27:10.224477 28:4 29:1 30:1 31:0 32:4.9999999e-005 33:0.00038899999 34:0.00051300001 35:0 36:0 37:0 38:0 39:0 40:0 41:0 42:0 43:0 44:0 45:-0.26903501 46:0.00027399999 47:0.00056800002 #
-0.0028344978248158151 1:13.077881 2:236 3:2 4:5 5:8 6:0 7:0 8:0.00027799999 9:1.3e-005 10:0.00038899999 11:0.00051300001 12:0.003333 13:11.770093 14:2e-006 15:-10.7172 16:0.026732 17:-11.1354 18:-8.0882797 19:-7.30231 20:0.808182 21:-7.18578 22:-7.1375299 23:-6.9365001 24:1.44043 25:-6.8762798 26:-6.8752999 27:11.770092 28:4 29:0 30:0 31:0 32:4.9999999e-005 33:0 34:0 35:0 36:0 37:0 38:0 39:0 40:0 41:0 42:0 43:0 44:0 45:-4.3043799 46:0.00083700003 47:0.00065399997 #
0.022831878267146419 1:3.593045 2:264 3:0 4:7 5:5 6:0 7:0 8:0.00027399999 9:1.3e-005 10:0.00038899999 11:0.00051300001 12:0.003333 13:3.2337401 14:1e-006 15:-10.7172 16:0.026732 17:-11.1354 18:-8.0882797 19:-7.30231 20:0.808182 21:-7.18578 22:-7.1375299 23:-6.9365001 24:1.44043 25:-6.8762798 26:-6.8752999 27:3.2337401 28:1 29:0 30:0 31:0 32:1.3e-005 33:0 34:0 35:0 36:0 37:0 38:0 39:0 40:0 41:0 42:0 43:0 44:0 45:-4.3043799 46:0.00055 47:4.7000001e-005 #
0.0024691913192513349 1:18.551241 2:217 3:20 4:5 5:5 6:0.080513999 7:0 8:0.000374 9:1.3e-005 10:0.00038899999 11:0.00051300001 12:0.003333 13:16.696115 14:0 15:-4.9988899 16:13.0912 17:-4.5624199 18:-4.5624199 19:-4.7168899 20:7.7309399 21:-5.1960402 22:-4.7168899 23:-4.76934 24:8.2023602 25:-5.3217602 26:-4.76934 27:16.696115 28:11 29:4 30:1 31:1 32:0.000139 33:0.001555 34:0.00051300001 35:0.003333 36:0 37:0.042351998 38:0 39:0.002991 40:0.0023930001 41:0.00096099998 42:19.342136 43:18.045742 44:14.813776 45:-0.678455 46:30.193125 47:0.0025790001 #
-0.0024478759832580323 1:20.754827 2:85 3:1 4:6 5:5 6:0.01478 7:0.001813 8:0.00034 9:1.3e-005 10:0.00038899999 11:0.00051300001 12:0.003333 13:18.679344 14:1e-006 15:-4.8136702 16:15.3196 17:-3.91205 18:-3.7579999 19:-4.1676898 20:10.9623 21:-5.1219301 22:-4.1676898 23:-5.88586 24:5.73803 25:-6.3583398 26:-5.88586 27:18.679344 28:8 29:1 30:1 31:1 32:0.000101 33:0.00038899999 34:0.00051300001 35:0.003333 36:0 37:0.0082569998 38:0.000106 39:0.0029829999 40:0.0028880001 41:0.00171 42:20.816845 43:20.508001 44:18.786186 45:-0.80558199 46:18286.285 47:0.0020959999 #
-8.8916516246926541e-009 1:14.936798 2:191 3:6 4:6 5:6 6:0.01478 7:0.001813 8:0.00034 9:1.3e-005 10:0.00038899999 11:0.00051300001 12:0.003333 13:13.443117 14:1e-006 15:-6.00633 16:11.8817 17:-4.95012 18:-4.9499502 19:-5.6117201 20:6.6757798 21:-6.24751 22:-5.6117201 23:-5.88586 24:5.73803 25:-6.3583398 26:-5.88586 27:13.443118 28:13 29:2 30:1 31:0 32:0.000164 33:0.00077799999 34:0.00051300001 35:0 36:0 37:0.0082569998 38:0.000106 39:0.0021540001 40:0.002146 41:0.001419 42:15.082296 43:15.061513 44:13.984463 45:-1.94827 46:18286.285 47:0.00245 #
-0.0074999999999999997 1:16.31818 2:76 3:3 4:6 5:6 6:0.015836 7:0.001813 8:0.00034 9:1.3e-005 10:0.00038899999 11:0.00051300001 12:0.003333 13:14.686361 14:1e-006 15:-10.7172 16:0.026732 17:-11.1354 18:-8.0882797 19:-7.30231 20:0.808182 21:-7.18578 22:-7.1375299 23:-5.88586 24:5.73803 25:-6.3583398 26:-5.88586 27:14.686361 28:4 29:0 30:1 31:0 32:4.9999999e-005 33:0 34:0.00051300001 35:0 36:0 37:0.0088710003 38:0.000106 39:0.0024339999 40:0.002323 41:0.001488 42:16.622112 43:16.515141 44:15.658566 45:-3.3368831 46:19592.713 47:0.00081599999 #
-5.8132596129665854e-008 1:13.404962 2:311 3:1 4:6 5:5 6:0.01478 7:0.001813 8:0.00034 9:1.3e-005 10:0.00038899999 11:0.00051300001 12:0.003333 13:12.064466 14:1e-006 15:-10.7172 16:0.026732 17:-11.1354 18:-8.0882797 19:-7.30231 20:0.808182 21:-7.18578 22:-7.1375299 23:-5.88586 24:5.73803 25:-6.3583398 26:-5.88586 27:12.064466 28:11 29:0 30:1 31:0 32:0.000139 33:0 34:0.00051300001 35:0 36:0 37:0.0082569998 38:0.000106 39:0.0019349999 40:0.0019499999 41:0.001342 42:13.574661 43:13.516378 44:12.4282 45:-3.3368831 46:18286.285 47:0.001863 #
0.010285408117931822 1:19.712996 2:329 3:2 4:7 5:8 6:0 7:0 8:6.8000001e-005 9:1.3e-005 10:0.00038899999 11:0.00051300001 12:0.003333 13:17.741695 14:0 15:-5.0943298 16:10.6605 17:-5.4243202 18:-4.9499502 19:-5.4681201 20:7.3073702 21:-6.2288198 22:-5.4681201 23:-6.0293498 24:4.95928 25:-6.3934302 26:-6.0293498 27:17.741695 28:25 29:1 30:1 31:0 32:0.00031500001 33:0.00038899999 34:0.00051300001 35:0 36:0 37:0 38:0 39:0 40:0 41:0 42:0 43:0 44:0 45:-1.975512 46:6.9000002e-005 47:0.0062099998 #
1.3426655295833849e-007 1:21.029774 2:139 3:5 4:5 5:5 6:0 7:0 8:0.000378 9:1.3e-005 10:0.00038899999 11:0.00051300001 12:0.003333 13:18.926796 14:1e-006 15:-0.441717 16:25.343901 17:-1.8528301 18:-1.02865 19:-5.4681201 20:7.3073702 21:-6.2288198 22:-5.4681201 23:-1.60842 24:14.4293 25:-3.3041101 26:-1.60842 27:18.926796 28:8 29:4 30:2 31:0 32:0.000101 33:0.001555 34:0.001027 35:0 36:0 37:0 38:0 39:0 40:0 41:0 42:0 43:0 44:0 45:0.85453302 46:0.00075800001 47:0.0021240001 #
-4.3830703475618414e-005 1:11.963902 2:230 3:1 4:6 5:6 6:0.000879 7:0.00081300002 8:0.000275 9:1.3e-005 10:0.00038899999 11:0.00051300001 12:0.003333 13:10.76751 14:0 15:-10.7172 16:0.026732 17:-11.1354 18:-8.0882797 19:-7.30231 20:0.808182 21:-7.18578 22:-7.1375299 23:-5.88586 24:5.73803 25:-6.3583398 26:-5.88586 27:10.767511 28:3 29:0 30:1 31:0 32:3.7999998e-005 33:0 34:0.00051300001 35:0 36:0 37:0.000332 38:6.1999999e-005 39:0.00155 40:0.00176 41:0.001437 42:11.447818 43:11.906373 44:11.311039 45:-3.3368831 46:197.70432 47:0.000455 #
-0.0052157880830978765 1:10.789712 2:1205 3:3 4:7 5:9 6:0 7:0 8:0.000174 9:1.3e-005 10:0.00038899999 11:0.00051300001 12:0.003333 13:9.710741 14:0 15:-10.7172 16:0.026732 17:-11.1354 18:-8.0882797 19:-7.30231 20:0.808182 21:-7.18578 22:-7.1375299 23:-6.9365001 24:1.44043 25:-6.8762798 26:-6.8752999 27:9.7107401 28:19 29:0 30:0 31:0 32:0.000239 33:0 34:0 35:0 36:0 37:0 38:0 39:0 40:0 41:0 42:0 43:0 44:0 45:-4.3043799 46:0.00017499999 47:0.0025790001 #
-0.0027853499853356923 1:13.38033 2:297 3:2 4:6 5:7 6:0 7:0 8:0.00022 9:1.3e-005 10:0.00038899999 11:0.00051300001 12:0.003333 13:12.042296 14:0 15:-4.1044998 16:11.7395 17:-5.0564198 18:-4.1044998 19:-3.8211501 20:12.2415 21:-5.10251 22:-3.8211501 23:-4.93753 24:7.00811 25:-5.35747 26:-4.93753 27:12.042296 28:33 29:1 30:1 31:0 32:0.000416 33:0.00038899999 34:0.00051300001 35:0 36:0 37:0 38:0 39:0 40:0 41:0 42:0 43:0 44:0 45:0.0051580002 46:0.00022099999 47:0.005566 #
-0.0024690830616132249 1:16.116755 2:236 3:9 4:9 5:8 6:0 7:0 8:0.00014 9:1.3e-005 10:0.00038899999 11:0.00051300001 12:0.003333 13:14.505078 14:0 15:-5.4976301 16:8.0982304 17:-5.8164101 18:-5.4976301 19:-6.0684299 20:4.39604 21:-6.35287 22:-6.0684299 23:-6.0880599 24:4.6441302 25:-6.4105201 26:-6.0880599 27:14.505078 28:9 29:1 30:1 31:0 32:0.000113 33:0.00038899999 34:0.00051300001 35:0 36:0 37:0 38:0 39:0 40:0 41:0 42:0 43:0 44:0 45:-2.6466179 46:0.000141 47:0.001821 #
-6.1140187167882682e-012 1:10.647389 2:106 3:2 4:2 5:13 6:0 7:0 8:0.000178 9:1.3e-005 10:0.00038899999 11:0.00051300001 12:0.003333 13:9.5826502 14:0 15:-4.1044998 16:11.7395 17:-5.0564198 18:-4.1044998 19:-7.30231 20:0.808182 21:-7.18578 22:-7.1375299 23:-6.9365001 24:1.44043 25:-6.8762798 26:-6.8752999 27:9.5826502 28:2 29:1 30:0 31:0 32:2.4999999e-005 33:0.00038899999 34:0 35:0 36:0 37:0 38:0 39:0 40:0 41:0 42:0 43:0 44:0 45:-4.3043799 46:0.000179 47:0.00026599999 #
-0.0025904932549953613 1:11.969071 2:1048 3:2 4:2 5:6 6:0 7:0 8:0.000222 9:1.3e-005 10:0.00038899999 11:0.00051300001 12:0.003333 13:10.772163 14:1e-006 15:-4.1044998 16:11.7395 17:-5.0564198 18:-4.1044998 19:-4.1676898 20:10.9623 21:-5.1219301 22:-4.1676898 23:-4.3112602 24:11.0189 25:-5.2656698 26:-4.3112602 27:10.772164 28:27 29:1 30:1 31:0 32:0.00034 33:0.00038899999 34:0.00051300001 35:0 36:0 37:0 38:0 39:0 40:0 41:0 42:0 43:0 44:0 45:0.519108 46:0.00044599999 47:0.004069 #
-1.0825763810985824e-007 1:15.597053 2:234 3:7 4:7 5:6 6:0.011502 7:0.00152 8:0.00028000001 9:1.3e-005 10:0.00038899999 11:0.00051300001 12:0.003333 13:14.037347 14:0 15:-4.7305102 16:10.1826 17:-5.1482301 18:-4.7305102 19:-4.7939401 20:7.2003298 21:-5.2137399 22:-4.7939401 23:-4.93753 24:7.00811 25:-5.35747 26:-4.93753 27:14.037347 28:7 29:1 30:1 31:0 32:8.8000001e-005 33:0.00038899999 34:0.00051300001 35:0 36:0 37:0.00605 38:0.005043 39:0.0020860001 40:0.0022519999 41:0.00084300002 42:15.44285 43:15.729113 44:11.536448 45:-1.015707 46:4916.3936 47:0.001373 #
-0.00016627688797355418 1:17.620039 2:114 3:14 4:7 5:10 6:0 7:0 8:0.000181 9:1.3e-005 10:0.00038899999 11:0.00051300001 12:0.003333 13:15.858035 14:0 15:-5.0876098 16:11.6731 17:-4.7968602 18:-4.7649698 19:-7.30231 20:0.808182 21:-7.18578 22:-7.1375299 23:-6.9365001 24:1.44043 25:-6.8762798 26:-6.8752999 27:15.858035 28:3 29:2 30:0 31:0 32:3.7999998e-005 33:0.00077799999 34:0 35:0 36:0 37:0 38:0 39:0 40:0 41:0 42:0 43:0 44:0 45:-4.3043799 46:0.000182 47:0.00066999998 #
-0.0074999999999999997 1:13.663093 2:320 3:6 4:3 5:6 6:0 7:0 8:0.00025300001 9:1.3e-005 10:0.00038899999 11:0.00051300001 12:0.003333 13:12.296782 14:0 15:-10.7172 16:0.026732 17:-11.1354 18:-8.0882797 19:-7.30231 20:0.808182 21:-7.18578 22:-7.1375299 23:-6.9365001 24:1.44043 25:-6.8762798 26:-6.8752999 27:12.296783 28:20 29:0 30:0 31:0 32:0.000252 33:0 34:0 35:0 36:0 37:0 38:0 39:0 40:0 41:0 42:0 43:0 44:0 45:-4.3043799 46:0.00025400001 47:0.0034429999 #
0.0079725582260667914 1:17.582911 2:1186 3:5 4:6 5:5 6:0 7:0 8:0.00027600001 9:1.3e-005 10:0.00038899999 11:0.00051300001 12:0.003333 13:15.824618 14:0 15:-10.7172 16:0.026732 17:-11.1354 18:-8.0882797 19:-7.30231 20:0.808182 21:-7.18578 22:-7.1375299 23:-6.9365001 24:1.44043 25:-6.8762798 26:-6.8752999 27:15.824619 28:36 29:0 30:0 31:0 32:0.00045299999 33:0 34:0 35:0 36:0 37:0 38:0 39:0 40:0 41:0 42:0 43:0 44:0 45:-4.3043799 46:0.00027700001 47:0.0079650003 #
-0.0074999999999999997 1:11.647972 2:330 3:0 4:3 5:5 6:0 7:0 8:0.00027700001 9:1.3e-005 10:0.00038899999 11:0.00051300001 12:0.003333 13:10.483174 14:0 15:-10.7172 16:0.026732 17:-11.1354 18:-8.0882797 19:-7.30231 20:0.808182 21:-7.18578 22:-7.1375299 23:-6.9365001 24:1.44043 25:-6.8762798 26:-6.8752999 27:10.483174 28:6 29:0 30:0 31:0 32:7.5999997e-005 33:0 34:0 35:0 36:0 37:0 38:0 39:0 40:0 41:0 42:0 43:0 44:0 45:-4.3043799 46:0.00027799999 47:0.00088499999 #
-0.0074999999999999997 1:12.106776 2:293 3:8 4:15 5:6 6:0 7:0 8:0.00034699999 9:1.3e-005 10:0.00038899999 11:0.00051300001 12:0.003333 13:10.896098 14:0 15:-10.7172 16:0.026732 17:-11.1354 18:-8.0882797 19:-7.30231 20:0.808182 21:-7.18578 22:-7.1375299 23:-6.9365001 24:1.44043 25:-6.8762798 26:-6.8752999 27:10.896098 28:11 29:0 30:0 31:0 32:0.000139 33:0 34:0 35:0 36:0 37:0 38:0 39:0 40:0 41:0 42:0 43:0 44:0 45:-4.3043799 46:0.000348 47:0.001683 #
-1.5582775684068634e-005 1:11.449947 2:207 3:3 4:8 5:8 6:0.003515 7:0.0018570001 8:0.00034299999 9:1.3e-005 10:0.00038899999 11:0.00051300001 12:0.003333 13:10.304953 14:0 15:-10.7172 16:0.026732 17:-11.1354 18:-8.0882797 19:-7.30231 20:0.808182 21:-7.18578 22:-7.1375299 23:-6.9365001 24:1.44043 25:-6.8762798 26:-6.8752999 27:10.304953 28:0 29:0 30:0 31:0 32:0 33:0 34:0 35:0 36:0 37:0.00115 38:6.1999999e-005 39:0.00152 40:0.001678 41:0.0022780001 42:11.026208 43:11.615129 44:14.160988 45:-4.3043799 46:2247.2585 47:0 #
-0.00033742717537497822 1:10.816449 2:156 3:11 4:2 5:7 6:0 7:0 8:0.000218 9:1.3e-005 10:0.00038899999 11:0.00051300001 12:0.003333 13:9.7348042 14:0 15:-10.7172 16:0.026732 17:-11.1354 18:-8.0882797 19:-7.30231 20:0.808182 21:-7.18578 22:-7.1375299 23:-6.9365001 24:1.44043 25:-6.8762798 26:-6.8752999 27:9.7348042 28:2 29:0 30:0 31:0 32:2.4999999e-005 33:0 34:0 35:0 36:0 37:0 38:0 39:0 40:0 41:0 42:0 43:0 44:0 45:-4.3043799 46:0.00021899999 47:0.00026999999 #
