SVM-light Version V6.02
0 # kernel type
3 # kernel parameter -d 
1 # kernel parameter -g 
1 # kernel parameter -s 
1 # kernel parameter -r 
empty# kernel parameter -u 
44 # highest feature index 
9061 # number of training documents 
4506 # number of support vectors plus 1 
0 # threshold b, each following line is a SV (starting with alpha*y)
-0.02 1:31.749445 2:109 3:6 4:5 5:2 6:0.011525 7:0.0049709999 8:0.00057899999 9:2.3000001e-005 10:0.00087400002 11:0.00062399998 12:0.001149 13:30.177538 14:1e-006 15:-9.2358704 16:12.3208 17:-8.55797 18:-8.6883602 19:-8.9228201 20:2.0597899 21:-8.5089302 22:-8.5830698 23:-8.2966805 24:6.41852 25:-8.2709904 26:-8.2966805 27:30.194061 28:8 29:1 30:1 31:0 32:0.00017699999 33:0.00087400002 34:0.00062399998 35:0 36:0 37:0.001083 38:6.0000002e-006 39:0.0026189999 40:0.002442 41:0.001488 42:33.642815 43:33.005608 44:29.790527 #docid = 362
-0.02 1:20.896353 2:76 3:19 4:2 5:2 6:0.026753999 7:0.0014609999 8:0.00066100003 9:2.3000001e-005 10:0.00087400002 11:0.00062399998 12:0.001149 13:20.093742 14:8e-006 15:-15.1426 16:0.074611001 17:-12.8709 18:-10.2224 19:-8.9228201 20:2.0597899 21:-8.5089302 22:-8.5830698 23:-8.7425699 24:2.5332799 25:-8.5541201 26:-8.6767902 27:20.134272 28:2 29:0 30:0 31:0 32:4.4e-005 33:0 34:0 35:0 36:0 37:0.002052 38:1e-006 39:0.001732 40:0.00162 41:0.003974 42:21.009201 43:23.07445 44:35.933041 #docid = 711
-0.02 1:17.320086 2:31 3:3 4:5 5:3 6:0 7:0 8:0.000142 9:2.3000001e-005 10:0.00087400002 11:0.00062399998 12:0.001149 13:15.667096 14:1.4e-005 15:-15.1426 16:0.074611001 17:-12.8709 18:-10.2224 19:-8.9228201 20:2.0597899 21:-8.5089302 22:-8.5830698 23:-8.7425699 24:2.5332799 25:-8.5541201 26:-8.6767902 27:15.667097 28:0 29:0 30:0 31:0 32:0 33:0 34:0 35:0 36:0 37:0 38:0 39:0 40:0 41:0 42:0 43:0 44:0 #docid = 4178
-0.02 1:17.268507 2:302 3:1 4:3 5:3 6:0 7:0 8:0.000106 9:2.3000001e-005 10:0.00087400002 11:0.00062399998 12:0.001149 13:15.541656 14:1e-006 15:-15.1426 16:0.074611001 17:-12.8709 18:-10.2224 19:-8.9228201 20:2.0597899 21:-8.5089302 22:-8.5830698 23:-8.7425699 24:2.5332799 25:-8.5541201 26:-8.6767902 27:15.541656 28:7 29:0 30:0 31:0 32:0.000155 33:0 34:0 35:0 36:0 37:0 38:0 39:0 40:0 41:0 42:0 43:0 44:0 #docid = 5628
-0.02 1:16.743429 2:579 3:7 4:6 5:4 6:0.019308999 7:0.0011399999 8:0.000344 9:2.3000001e-005 10:0.00087400002 11:0.00062399998 12:0.001149 13:15.069086 14:9.9999997e-005 15:-15.0848 16:0.192692 17:-12.778 18:-10.1357 19:-8.9228201 20:2.0597899 21:-8.5089302 22:-8.5830698 23:-8.3421803 24:5.9145799 25:-8.28901 26:-8.3421803 27:15.069086 28:18 29:1 30:1 31:0 32:0.00039900001 33:0.00087400002 34:0.00062399998 35:0 36:3.2e-005 37:0.0078889998 38:2.4000001e-005 39:0.001396 40:0.0012919999 41:0.00098699995 42:17.105062 43:17.253014 44:14.24299 #docid = 7685
-0.01 1:20.594923 2:553 3:4 4:3 5:7 6:0 7:0 8:0.000428 9:2.3000001e-005 10:0.00087400002 11:0.00062399998 12:0.001149 13:18.535431 14:0 15:-15.1426 16:0.074611001 17:-12.8709 18:-10.2224 19:-8.9228201 20:2.0597899 21:-8.5089302 22:-8.5830698 23:-8.7425699 24:2.5332799 25:-8.5541201 26:-8.6767902 27:18.535431 28:8 29:0 30:0 31:0 32:0.00017699999 33:0 34:0 35:0 36:0 37:0 38:0 39:0 40:0 41:0 42:0 43:0 44:0 #docid = 10239
-0.02 1:20.237352 2:785 3:2 4:4 5:3 6:0.022666 7:0.00162 8:0.00042600001 9:2.3000001e-005 10:0.00087400002 11:0.00062399998 12:0.001149 13:18.213617 14:2e-006 15:-15.1426 16:0.074611001 17:-12.8709 18:-10.2224 19:-8.9228201 20:2.0597899 21:-8.5089302 22:-8.5830698 23:-8.7425699 24:2.5332799 25:-8.5541201 26:-8.6767902 27:18.213617 28:21 29:0 30:0 31:0 32:0.000466 33:0 34:0 35:0 36:0 37:0.001373 38:1e-006 39:0.001666 40:0.001573 41:0.0041439999 42:20.26697 43:20.118454 44:26.887194 #docid = 10642
-0.02 1:17.366552 2:30 3:1 4:2 5:5 6:0 7:0 8:0.000113 9:2.3000001e-005 10:0.00087400002 11:0.00062399998 12:0.001149 13:16.056519 14:0 15:-15.1426 16:0.074611001 17:-12.8709 18:-10.2224 19:-8.9228201 20:2.0597899 21:-8.5089302 22:-8.5830698 23:-8.7425699 24:2.5332799 25:-8.5541201 26:-8.6767902 27:16.056519 28:2 29:0 30:0 31:0 32:4.4e-005 33:0 34:0 35:0 36:0 37:0 38:0 39:0 40:0 41:0 42:0 43:0 44:0 #docid = 11268
-0.02 1:25.098104 2:339 3:0 4:4 5:3 6:0.0087890001 7:0.0094670001 8:0.000455 9:2.3000001e-005 10:0.00087400002 11:0.00062399998 12:0.001149 13:22.588293 14:0 15:-15.1426 16:0.074611001 17:-12.8709 18:-10.2224 19:-8.9228201 20:2.0597899 21:-8.5089302 22:-8.5830698 23:-8.2409697 24:7.0163498 25:-8.2526398 26:-8.2409697 27:22.588293 28:11 29:0 30:1 31:0 32:0.000244 33:0 34:0.00062399998 35:0 36:0 37:0.000279 38:4e-006 39:0.001902 40:0.001897 41:0.001313 42:24.635181 43:24.926517 44:20.148079 #docid = 12500
-0.01 1:16.612066 2:627 3:2 4:4 5:5 6:0 7:0 8:0.00034 9:2.3000001e-005 10:0.00087400002 11:0.00062399998 12:0.001149 13:14.950859 14:0 15:-15.1426 16:0.074611001 17:-12.8709 18:-10.2224 19:-8.9228201 20:2.0597899 21:-8.5089302 22:-8.5830698 23:-8.7425699 24:2.5332799 25:-8.5541201 26:-8.6767902 27:14.950859 28:17 29:0 30:0 31:0 32:0.00037699999 33:0 34:0 35:0 36:0 37:0 38:0 39:0 40:0 41:0 42:0 43:0 44:0 #docid = 15085
-0.02 1:17.999491 2:539 3:2 4:7 5:4 6:0 7:0 8:0.00042600001 9:2.3000001e-005 10:0.00087400002 11:0.00062399998 12:0.001149 13:16.199541 14:0 15:-15.1426 16:0.074611001 17:-12.8709 18:-10.2224 19:-8.9228201 20:2.0597899 21:-8.5089302 22:-8.5830698 23:-8.7425699 24:2.5332799 25:-8.5541201 26:-8.6767902 27:16.199541 28:11 29:0 30:0 31:0 32:0.000244 33:0 34:0 35:0 36:0 37:0 38:0 39:0 40:0 41:0 42:0 43:0 44:0 #docid = 15917
-0.02 1:19.634592 2:123 3:5 4:4 5:5 6:0 7:0 8:9.1000002e-005 9:2.3000001e-005 10:0.00087400002 11:0.00062399998 12:0.001149 13:19.259861 14:3.0000001e-006 15:-15.1426 16:0.074611001 17:-12.8709 18:-10.2224 19:-8.9228201 20:2.0597899 21:-8.5089302 22:-8.5830698 23:-8.7425699 24:2.5332799 25:-8.5541201 26:-8.6767902 27:19.329853 28:5 29:0 30:0 31:0 32:0.000111 33:0 34:0 35:0 36:0 37:0 38:0 39:0 40:0 41:0 42:0 43:0 44:0 #docid = 20844
-0.02 1:21.886889 2:655 3:2 4:2 5:4 6:0 7:0 8:0.000106 9:2.3000001e-005 10:0.00087400002 11:0.00062399998 12:0.001149 13:19.6982 14:3.0000001e-006 15:-15.1426 16:0.074611001 17:-12.8709 18:-10.2224 19:-8.9228201 20:2.0597899 21:-8.5089302 22:-8.5830698 23:-8.7425699 24:2.5332799 25:-8.5541201 26:-8.6767902 27:19.698198 28:12 29:0 30:0 31:0 32:0.00026599999 33:0 34:0 35:0 36:0 37:0 38:0 39:0 40:0 41:0 42:0 43:0 44:0 #docid = 21037
-0.029999999999999999 1:32.171951 2:263 3:0 4:6 5:3 6:0.0043930002 7:0.0031089999 8:0.000455 9:2.3000001e-005 10:0.00087400002 11:0.00062399998 12:0.001149 13:28.954756 14:0 15:-15.1426 16:0.074611001 17:-12.8709 18:-10.2224 19:-8.9228201 20:2.0597899 21:-8.5089302 22:-8.5830698 23:-8.3421803 24:5.9145799 25:-8.28901 26:-8.3421803 27:28.954756 28:29 29:0 30:1 31:0 32:0.00064300001 33:0 34:0.00062399998 35:0 36:0 37:0.000119 38:6.0000002e-006 39:0.0023980001 40:0.002475 41:0.00135 42:31.454439 43:32.457443 44:26.102619 #docid = 21784
-0.040000000000000001 1:19.112762 2:301 3:1 4:1 5:4 6:0 7:0 8:0.000106 9:2.3000001e-005 10:0.00087400002 11:0.00062399998 12:0.001149 13:17.201487 14:3.0000001e-006 15:-10.1144 16:18.0695 17:-7.6805201 18:-7.78404 19:-8.9228201 20:2.0597899 21:-8.5089302 22:-8.5830698 23:-7.37918 24:12.7296 25:-7.6833601 26:-7.37918 27:17.201487 28:14 29:1 30:1 31:1 32:0.00031 33:0.00087400002 34:0.00062399998 35:0.001149 36:0 37:0 38:0 39:0 40:0 41:0 42:0 43:0 44:0 #docid = 22492
-0.02 1:20.362333 2:514 3:1 4:3 5:3 6:0.022666 7:0.00162 8:0.00042600001 9:2.3000001e-005 10:0.00087400002 11:0.00062399998 12:0.001149 13:18.326101 14:2e-006 15:-15.1426 16:0.074611001 17:-12.8709 18:-10.2224 19:-8.9228201 20:2.0597899 21:-8.5089302 22:-8.5830698 23:-8.7425699 24:2.5332799 25:-8.5541201 26:-8.6767902 27:18.326099 28:12 29:0 30:0 31:0 32:0.00026599999 33:0 34:0 35:0 36:0 37:0.001434 38:1e-006 39:0.001676 40:0.001581 41:0.0041410001 42:20.409237 43:20.590755 44:29.007906 #docid = 22906
-0.01 1:18.04427 2:16 3:7 4:4 5:5 6:0.016682999 7:0.001178 8:0.000344 9:2.3000001e-005 10:0.00087400002 11:0.00062399998 12:0.001149 13:16.239843 14:9.0000003e-006 15:-15.1426 16:0.074611001 17:-12.8709 18:-10.2224 19:-8.9228201 20:2.0597899 21:-8.5089302 22:-8.5830698 23:-8.7425699 24:2.5332799 25:-8.5541201 26:-8.6767902 27:16.239841 28:0 29:0 30:0 31:0 32:0 33:0 34:0 35:0 36:0 37:3.4000001e-005 38:4e-006 39:0.001468 40:0.001405 41:0.000658 42:18.114609 43:17.809059 44:12.982327 #docid = 23998
-0.02 1:25.900232 2:150 3:1 4:3 5:4 6:0 7:0 8:9.1000002e-005 9:2.3000001e-005 10:0.00087400002 11:0.00062399998 12:0.001149 13:23.310207 14:0 15:-15.1426 16:0.074611001 17:-12.8709 18:-10.2224 19:-8.9228201 20:2.0597899 21:-8.5089302 22:-8.5830698 23:-8.7425699 24:2.5332799 25:-8.5541201 26:-8.6767902 27:23.310209 28:7 29:0 30:0 31:0 32:0.000155 33:0 34:0 35:0 36:0 37:0 38:0 39:0 40:0 41:0 42:0 43:0 44:0 #docid = 24283
-0.01 1:20.928291 2:209 3:7 4:6 5:6 6:0.011136 7:0 8:0.000272 9:2.3000001e-005 10:0.00087400002 11:0.00062399998 12:0.001149 13:18.835461 14:2e-006 15:-15.1426 16:0.074611001 17:-12.8709 18:-10.2224 19:-8.9228201 20:2.0597899 21:-8.5089302 22:-8.5830698 23:-8.7425699 24:2.5332799 25:-8.5541201 26:-8.6767902 27:18.835463 28:6 29:0 30:0 31:0 32:0.00013299999 33:0 34:0 35:0 36:0 37:0.0036170001 38:0 39:0.001755 40:0.001499 41:0.000665 42:21.448767 43:20.151743 44:15.10628 #docid = 24899
-0.01 1:17.327812 2:321 3:35 4:4 5:4 6:0 7:0 8:0.00046099999 9:2.3000001e-005 10:0.00087400002 11:0.00062399998 12:0.001149 13:15.746602 14:6.0000002e-006 15:-15.1426 16:0.074611001 17:-12.8709 18:-10.2224 19:-8.9228201 20:2.0597899 21:-8.5089302 22:-8.5830698 23:-8.7425699 24:2.5332799 25:-8.5541201 26:-8.6767902 27:15.746601 28:6 29:0 30:0 31:0 32:0.00013299999 33:0 34:0 35:0 36:0 37:0 38:0 39:0 40:0 41:0 42:0 43:0 44:0 #docid = 27311
-0.02 1:19.522377 2:182 3:15 4:1 5:4 6:0 7:0 8:0.00043499999 9:2.3000001e-005 10:0.00087400002 11:0.00062399998 12:0.001149 13:17.570139 14:1.1e-005 15:-15.1426 16:0.074611001 17:-12.8709 18:-10.2224 19:-8.9228201 20:2.0597899 21:-8.5089302 22:-8.5830698 23:-8.7425699 24:2.5332799 25:-8.5541201 26:-8.6767902 27:17.570139 28:5 29:0 30:0 31:0 32:0.000111 33:0 34:0 35:0 36:0 37:0 38:0 39:0 40:0 41:0 42:0 43:0 44:0 #docid = 28577
-0.02 1:16.871098 2:251 3:1 4:3 5:3 6:0.022671999 7:0.00154 8:0.00042600001 9:2.3000001e-005 10:0.00087400002 11:0.00062399998 12:0.001149 13:15.183987 14:2e-006 15:-15.1426 16:0.074611001 17:-12.8709 18:-10.2224 19:-8.9228201 20:2.0597899 21:-8.5089302 22:-8.5830698 23:-8.7425699 24:2.5332799 25:-8.5541201 26:-8.6767902 27:15.183988 28:2 29:0 30:0 31:0 32:4.4e-005 33:0 34:0 35:0 36:0 37:0.001442 38:1e-006 39:0.00139 40:0.001334 41:0.0040040002 42:16.972902 43:18.531139 44:32.154247 #docid = 28692
-0.02 1:26.560171 2:109 3:3 4:5 5:4 6:0 7:0 8:8.5e-005 9:2.3000001e-005 10:0.00087400002 11:0.00062399998 12:0.001149 13:23.904154 14:1.3e-005 15:-15.1426 16:0.074611001 17:-12.8709 18:-10.2224 19:-8.9228201 20:2.0597899 21:-8.5089302 22:-8.5830698 23:-8.7425699 24:2.5332799 25:-8.5541201 26:-8.6767902 27:23.904154 28:6 29:0 30:0 31:1 32:0.00013299999 33:0 34:0 35:0.001149 36:3.0000001e-006 37:0 38:0 39:0 40:0 41:0 42:0 43:0 44:0 #docid = 30333
-0.040000000000000001 1:29.390646 2:368 3:1 4:3 5:3 6:0 7:0 8:0.00042600001 9:2.3000001e-005 10:0.00087400002 11:0.00062399998 12:0.001149 13:26.45158 14:2e-006 15:-10.03 16:18.047501 17:-7.6696301 18:-7.78404 19:-7.2797599 20:12.6935 21:-7.58393 22:-7.2797599 23:-7.65382 24:10.1148 25:-7.7218199 26:-7.65382 27:26.45158 28:33 29:1 30:1 31:1 32:0.00073199999 33:0.00087400002 34:0.00062399998 35:0.001149 36:0 37:0 38:0 39:0 40:0 41:0 42:0 43:0 44:0 #docid = 32124
-0.02 1:23.217772 2:1406 3:1 4:1 5:3 6:0 7:0 8:0.00045799999 9:2.3000001e-005 10:0.00087400002 11:0.00062399998 12:0.001149 13:20.895994 14:0 15:-15.1426 16:0.074611001 17:-12.8709 18:-10.2224 19:-8.9228201 20:2.0597899 21:-8.5089302 22:-8.5830698 23:-8.7425699 24:2.5332799 25:-8.5541201 26:-8.6767902 27:20.895994 28:38 29:0 30:0 31:0 32:0.00084300002 33:0 34:0 35:0 36:0 37:0 38:0 39:0 40:0 41:0 42:0 43:0 44:0 #docid = 32597
-0.01 1:16.666262 2:96 3:7 4:4 5:4 6:0.014439 7:0 8:0.00043399999 9:2.3000001e-005 10:0.00087400002 11:0.00062399998 12:0.001149 13:14.999636 14:8e-006 15:-15.1426 16:0.074611001 17:-12.8709 18:-10.2224 19:-8.9228201 20:2.0597899 21:-8.5089302 22:-8.5830698 23:-8.7425699 24:2.5332799 25:-8.5541201 26:-8.6767902 27:14.999635 28:3 29:0 30:0 31:0 32:6.7000001e-005 33:0 34:0 35:0 36:0 37:0.001222 38:0 39:0.001251 40:0.001194 41:0.00052900001 42:16.066956 43:15.736418 44:10.538385 #docid = 32703
-0.02 1:23.768093 2:180 3:5 4:2 5:3 6:0 7:0 8:0.000459 9:2.3000001e-005 10:0.00087400002 11:0.00062399998 12:0.001149 13:22.700089 14:3.0000001e-006 15:-9.8415403 16:17.083401 17:-7.9640398 18:-7.9939599 19:-7.4530401 20:11.3671 21:-7.6033401 22:-7.4530401 23:-8.7425699 24:2.5332799 25:-8.5541201 26:-8.6767902 27:22.700089 28:17 29:2 30:0 31:0 32:0.00037699999 33:0.001748 34:0 35:0 36:0 37:0 38:0 39:0 40:0 41:0 42:0 43:0 44:0 #docid = 35897
-0.040000000000000001 1:35.476166 2:26 3:0 4:5 5:3 6:0.76351899 7:0.0056400001 8:0.000455 9:2.3000001e-005 10:0.00087400002 11:0.00062399998 12:0.001149 13:33.533695 14:4.3e-005 15:-15.1426 16:0.074611001 17:-12.8709 18:-10.2224 19:-8.9228201 20:2.0597899 21:-8.5089302 22:-8.5830698 23:-8.1896696 24:8.9052095 25:-8.0996399 26:-8.1235905 27:33.539196 28:2 29:0 30:2 31:0 32:4.4e-005 33:0 34:0.001248 35:0 36:3.0000001e-006 37:0.128043 38:3.7000002e-005 39:0.013921 40:0.0026680001 41:0.001544 42:46.021431 43:39.809414 44:34.319237 #docid = 35991
-0.02 1:17.747885 2:206 3:1 4:3 5:3 6:0.022671999 7:0.00154 8:0.00042600001 9:2.3000001e-005 10:0.00087400002 11:0.00062399998 12:0.001149 13:15.973097 14:2e-006 15:-15.1426 16:0.074611001 17:-12.8709 18:-10.2224 19:-8.9228201 20:2.0597899 21:-8.5089302 22:-8.5830698 23:-8.7425699 24:2.5332799 25:-8.5541201 26:-8.6767902 27:15.973096 28:2 29:0 30:0 31:0 32:4.4e-005 33:0 34:0 35:0 36:0 37:0.001443 38:1e-006 39:0.001462 40:0.001396 41:0.00403 42:17.847166 43:19.48387 44:32.986877 #docid = 36891
-0.02 1:18.693909 2:70 3:1 4:1 5:4 6:0 7:0 8:0.00045399999 9:2.3000001e-005 10:0.00087400002 11:0.00062399998 12:0.001149 13:17.204115 14:2e-006 15:-15.1426 16:0.074611001 17:-12.8709 18:-10.2224 19:-8.9228201 20:2.0597899 21:-8.5089302 22:-8.5830698 23:-8.7425699 24:2.5332799 25:-8.5541201 26:-8.6767902 27:17.204117 28:0 29:0 30:0 31:0 32:0 33:0 34:0 35:0 36:0 37:0 38:0 39:0 40:0 41:0 42:0 43:0 44:0 #docid = 39099
-0.02 1:16.61677 2:1304 3:4 4:4 5:3 6:0 7:0 8:0.00042999999 9:2.3000001e-005 10:0.00087400002 11:0.00062399998 12:0.001149 13:14.955094 14:4e-006 15:-15.1426 16:0.074611001 17:-12.8709 18:-10.2224 19:-8.9228201 20:2.0597899 21:-8.5089302 22:-8.5830698 23:-8.7425699 24:2.5332799 25:-8.5541201 26:-8.6767902 27:14.955092 28:28 29:0 30:0 31:0 32:0.00062100001 33:0 34:0 35:0 36:0 37:0 38:0 39:0 40:0 41:0 42:0 43:0 44:0 #docid = 39535
-0.02 1:18.096205 2:993 3:2 4:5 5:4 6:0.01732 7:0.00122 8:0.00034100001 9:2.3000001e-005 10:0.00087400002 11:0.00062399998 12:0.001149 13:16.286585 14:7.5000004e-005 15:-15.1426 16:0.074611001 17:-12.8709 18:-10.2224 19:-8.9228201 20:2.0597899 21:-8.5089302 22:-8.5830698 23:-8.2966805 24:6.41852 25:-8.2709904 26:-8.2966805 27:16.286583 28:27 29:0 30:1 31:0 32:0.00059900002 33:0 34:0.00062399998 35:0 36:2.1e-005 37:0.0072980002 38:4.8000002e-005 39:0.0014909999 40:0.001394 41:0.00107 42:18.21109 43:17.66033 44:13.779674 #docid = 39540
-0.01 1:17.44562 2:164 3:6 4:4 5:4 6:0 7:0 8:0.00042600001 9:2.3000001e-005 10:0.00087400002 11:0.00062399998 12:0.001149 13:15.701057 14:4.9999999e-006 15:-9.5417099 16:12.7154 17:-8.5176296 18:-8.6487398 19:-8.9228201 20:2.0597899 21:-8.5089302 22:-8.5830698 23:-8.2409697 24:7.0163498 25:-8.2526398 26:-8.2409697 27:15.701057 28:5 29:2 30:1 31:0 32:0.000111 33:0.001748 34:0.00062399998 35:0 36:0 37:0 38:0 39:0 40:0 41:0 42:0 43:0 44:0 #docid = 40134
-0.02 1:22.400698 2:1540 3:6 4:5 5:5 6:0.0057489998 7:0.002991 8:0.00034 9:2.3000001e-005 10:0.00087400002 11:0.00062399998 12:0.001149 13:20.160627 14:1e-006 15:-15.1426 16:0.074611001 17:-12.8709 18:-10.2224 19:-8.9228201 20:2.0597899 21:-8.5089302 22:-8.5830698 23:-8.7425699 24:2.5332799 25:-8.5541201 26:-8.6767902 27:20.160627 28:30 29:0 30:0 31:0 32:0.000665 33:0 34:0 35:0 36:0 37:0.002114 38:3.0000001e-006 39:0.001684 40:0.0017650001 41:0.001207 42:21.739475 43:22.14694 44:17.255268 #docid = 42249
-0.01 1:16.651787 2:46 3:7 4:5 5:5 6:0 7:0 8:0.000344 9:2.3000001e-005 10:0.00087400002 11:0.00062399998 12:0.001149 13:14.986608 14:4.9999999e-006 15:-15.1426 16:0.074611001 17:-12.8709 18:-10.2224 19:-8.9228201 20:2.0597899 21:-8.5089302 22:-8.5830698 23:-8.7425699 24:2.5332799 25:-8.5541201 26:-8.6767902 27:14.986608 28:0 29:0 30:0 31:0 32:0 33:0 34:0 35:0 36:0 37:0 38:0 39:0 40:0 41:0 42:0 43:0 44:0 #docid = 43511
-0.02 1:19.895781 2:586 3:1 4:1 5:4 6:0 7:0 8:0.00042600001 9:2.3000001e-005 10:0.00087400002 11:0.00062399998 12:0.001149 13:17.906202 14:4.9999999e-006 15:-15.1426 16:0.074611001 17:-12.8709 18:-10.2224 19:-8.9228201 20:2.0597899 21:-8.5089302 22:-8.5830698 23:-8.7425699 24:2.5332799 25:-8.5541201 26:-8.6767902 27:17.906202 28:12 29:0 30:0 31:0 32:0.00026599999 33:0 34:0 35:0 36:0 37:0 38:0 39:0 40:0 41:0 42:0 43:0 44:0 #docid = 44027
-0.01 1:20.250242 2:185 3:4 4:9 5:5 6:0.0086439997 7:0.000298 8:0.00027300001 9:2.3000001e-005 10:0.00087400002 11:0.00062399998 12:0.001149 13:18.225218 14:0 15:-15.1426 16:0.074611001 17:-12.8709 18:-10.2224 19:-8.18221 20:6.01825 21:-8.1093302 22:-8.18221 23:-8.5317297 24:4.7870202 25:-8.3411903 26:-8.4433098 27:18.225218 28:9 29:0 30:1 31:0 32:0.00019999999 33:0 34:0.00062399998 35:0 36:0 37:0.000153 38:2e-006 39:0.001541 40:0.001535 41:0.00066000002 42:19.858723 43:19.60199 44:15.071532 #docid = 45311
-0.02 1:17.268507 2:302 3:0 4:3 5:3 6:0 7:0 8:0.000113 9:2.3000001e-005 10:0.00087400002 11:0.00062399998 12:0.001149 13:15.541656 14:0 15:-15.1426 16:0.074611001 17:-12.8709 18:-10.2224 19:-8.9228201 20:2.0597899 21:-8.5089302 22:-8.5830698 23:-8.7425699 24:2.5332799 25:-8.5541201 26:-8.6767902 27:15.541656 28:7 29:0 30:0 31:0 32:0.000155 33:0 34:0 35:0 36:0 37:0 38:0 39:0 40:0 41:0 42:0 43:0 44:0 #docid = 46646
-0.02 1:22.434444 2:26 3:0 4:4 5:4 6:0 7:0.001401 8:0.00042600001 9:2.3000001e-005 10:0.00087400002 11:0.00062399998 12:0.001149 13:20.191 14:0 15:-15.1426 16:0.074611001 17:-12.8709 18:-10.2224 19:-8.9228201 20:2.0597899 21:-8.5089302 22:-8.5830698 23:-8.7425699 24:2.5332799 25:-8.5541201 26:-8.6767902 27:20.191 28:2 29:0 30:0 31:0 32:4.4e-005 33:0 34:0 35:0 36:0 37:0 38:0 39:0.001651 40:0.001734 41:0.003883 42:21.979761 43:22.935455 44:37.351837 #docid = 50159
-0.02 1:19.874584 2:847 3:6 4:1 5:4 6:0 7:0 8:0.000113 9:2.3000001e-005 10:0.00087400002 11:0.00062399998 12:0.001149 13:17.887127 14:0 15:-15.1426 16:0.074611001 17:-12.8709 18:-10.2224 19:-8.9228201 20:2.0597899 21:-8.5089302 22:-8.5830698 23:-8.7425699 24:2.5332799 25:-8.5541201 26:-8.6767902 27:17.887125 28:21 29:0 30:0 31:0 32:0.000466 33:0 34:0 35:0 36:0 37:0 38:0 39:0 40:0 41:0 42:0 43:0 44:0 #docid = 50259
-0.02 1:17.56575 2:367 3:2 4:3 5:4 6:0.0089419996 7:0 8:0.00042600001 9:2.3000001e-005 10:0.00087400002 11:0.00062399998 12:0.001149 13:15.809175 14:2e-006 15:-15.1426 16:0.074611001 17:-12.8709 18:-10.2224 19:-8.9228201 20:2.0597899 21:-8.5089302 22:-8.5830698 23:-8.7425699 24:2.5332799 25:-8.5541201 26:-8.6767902 27:15.809175 28:11 29:0 30:0 31:0 32:0.000244 33:0 34:0 35:0 36:0 37:0.0020419999 38:0 39:0.001425 40:0.001258 41:0.000558 42:18.079807 43:16.730427 44:12.004128 #docid = 50896
-0.01 1:17.413267 2:29 3:0 4:4 5:5 6:0 7:0 8:0.000272 9:2.3000001e-005 10:0.00087400002 11:0.00062399998 12:0.001149 13:15.671941 14:0 15:-15.1426 16:0.074611001 17:-12.8709 18:-10.2224 19:-8.9228201 20:2.0597899 21:-8.5089302 22:-8.5830698 23:-8.7425699 24:2.5332799 25:-8.5541201 26:-8.6767902 27:15.67194 28:0 29:0 30:0 31:0 32:0 33:0 34:0 35:0 36:0 37:0 38:0 39:0 40:0 41:0 42:0 43:0 44:0 #docid = 50981
-0.02 1:19.967781 2:110 3:4 4:2 5:4 6:0 7:0 8:0.000459 9:2.3000001e-005 10:0.00087400002 11:0.00062399998 12:0.001149 13:17.971003 14:1.2e-005 15:-15.1426 16:0.074611001 17:-12.8709 18:-10.2224 19:-8.9228201 20:2.0597899 21:-8.5089302 22:-8.5830698 23:-8.7425699 24:2.5332799 25:-8.5541201 26:-8.6767902 27:17.971003 28:1 29:0 30:0 31:0 32:2.2e-005 33:0 34:0 35:0 36:0 37:0 38:0 39:0 40:0 41:0 42:0 43:0 44:0 #docid = 51151
-0.02 1:17.913544 2:198 3:1 4:3 5:3 6:0.022671999 7:0.00154 8:0.00042600001 9:2.3000001e-005 10:0.00087400002 11:0.00062399998 12:0.001149 13:16.122189 14:2e-006 15:-15.1426 16:0.074611001 17:-12.8709 18:-10.2224 19:-8.9228201 20:2.0597899 21:-8.5089302 22:-8.5830698 23:-8.7425699 24:2.5332799 25:-8.5541201 26:-8.6767902 27:16.122189 28:2 29:0 30:0 31:0 32:4.4e-005 33:0 34:0 35:0 36:0 37:0.001443 38:1e-006 39:0.0014750001 40:0.001408 41:0.0040350002 42:18.012253 43:19.665306 44:33.146252 #docid = 51957
-0.029999999999999999 1:22.879114 2:345 3:1 4:3 5:3 6:0.02266 7:0.001701 8:0.00042600001 9:2.3000001e-005 10:0.00087400002 11:0.00062399998 12:0.001149 13:20.591204 14:2e-006 15:-10.6041 16:14.4177 17:-8.2436399 18:-8.3581104 19:-7.6960502 20:10.2318 21:-7.9980998 22:-7.6960502 23:-8.1691303 24:7.7369699 25:-8.2339497 26:-8.1691303 27:20.591202 28:30 29:1 30:1 31:1 32:0.000665 33:0.00087400002 34:0.00062399998 35:0.001149 36:0 37:0.00101 38:1e-006 39:0.001882 40:0.00176 41:0.004255 42:22.914196 43:23.228445 44:31.091835 #docid = 52137
-0.01 1:21.556784 2:201 3:5 4:6 5:3 6:0.070005998 7:0.0015050001 8:0.000463 9:2.3000001e-005 10:0.00087400002 11:0.00062399998 12:0.001149 13:20.623714 14:8e-006 15:-8.76019 16:10.0556 17:-8.7349596 18:-8.76019 19:-8.9228201 20:2.0597899 21:-8.5089302 22:-8.5830698 23:-8.3421803 24:5.9145799 25:-8.28901 26:-8.3421803 27:20.80324 28:12 29:1 30:1 31:0 32:0.00026599999 33:0.00087400002 34:0.00062399998 35:0 36:0 37:0.001802 38:0.000124 39:0.0022809999 40:0.001694 41:0.00079199998 42:24.535883 43:23.681883 44:17.93553 #docid = 53222
-0.02 1:16.701149 2:422 3:1 4:3 5:3 6:0.022671999 7:0.00154 8:0.00042600001 9:2.3000001e-005 10:0.00087400002 11:0.00062399998 12:0.001149 13:15.031034 14:2e-006 15:-15.1426 16:0.074611001 17:-12.8709 18:-10.2224 19:-8.9228201 20:2.0597899 21:-8.5089302 22:-8.5830698 23:-8.7425699 24:2.5332799 25:-8.5541201 26:-8.6767902 27:15.031034 28:4 29:0 30:0 31:0 32:8.9000001e-005 33:0 34:0 35:0 36:0 37:0.001442 38:1e-006 39:0.001376 40:0.001321 41:0.0039980002 42:16.792997 43:17.68388 44:29.760098 #docid = 54726
-0.02 1:18.418102 2:97 3:2 4:2 5:4 6:0 7:0 8:0.000106 9:2.3000001e-005 10:0.00087400002 11:0.00062399998 12:0.001149 13:16.576292 14:1e-006 15:-15.1426 16:0.074611001 17:-12.8709 18:-10.2224 19:-8.9228201 20:2.0597899 21:-8.5089302 22:-8.5830698 23:-8.7425699 24:2.5332799 25:-8.5541201 26:-8.6767902 27:16.576292 28:2 29:0 30:0 31:0 32:4.4e-005 33:0 34:0 35:0 36:0 37:0 38:0 39:0 40:0 41:0 42:0 43:0 44:0 #docid = 54879
-0.02 1:17.265261 2:449 3:1 4:3 5:4 6:0.017321 7:0.0011390001 8:0.00034100001 9:2.3000001e-005 10:0.00087400002 11:0.00062399998 12:0.001149 13:15.538734 14:7.3000003e-005 15:-15.1426 16:0.074611001 17:-12.8709 18:-10.2224 19:-8.9228201 20:2.0597899 21:-8.5089302 22:-8.5830698 23:-8.1691303 24:7.7369699 25:-8.2339497 26:-8.1691303 27:15.538734 28:14 29:0 30:1 31:0 32:0.00031 33:0 34:0.00062399998 35:0 36:1.9999999e-005 37:0.0077669998 38:4.2e-005 39:0.001422 40:0.001329 41:0.001003 42:17.506353 43:17.999435 44:15.033254 #docid = 55389
-0.02 1:19.358131 2:307 3:8 4:1 5:6 6:0 7:0 8:0.00034200001 9:2.3000001e-005 10:0.00087400002 11:0.00062399998 12:0.001149 13:17.422318 14:0 15:-3.0239601 16:38.002998 17:-3.9213901 18:-3.0919299 19:-7.55439 20:10.2916 21:-7.6223898 22:-7.55439 23:-7.37918 24:12.7296 25:-7.6833601 26:-7.37918 27:17.422318 28:2 29:3 30:1 31:1 32:4.4e-005 33:0.0026219999 34:0.00062399998 35:0.001149 36:0 37:0 38:0 39:0 40:0 41:0 42:0 43:0 44:0 #docid = 56367
-0.02 1:27.487429 2:213 3:3 4:4 5:4 6:0.013391 7:0.0074080001 8:0.00027300001 9:2.3000001e-005 10:0.00087400002 11:0.00062399998 12:0.001149 13:26.406603 14:4e-006 15:-15.1426 16:0.074611001 17:-12.8709 18:-10.2224 19:-8.9228201 20:2.0597899 21:-8.5089302 22:-8.5830698 23:-8.7425699 24:2.5332799 25:-8.5541201 26:-8.6767902 27:26.406601 28:12 29:0 30:0 31:0 32:0.00026599999 33:0 34:0 35:0 36:0 37:0.000208 38:3.0000001e-006 39:0.0021319999 40:0.0021269999 41:0.001425 42:26.736292 43:44.071621 44:39.867908 #docid = 57668
-0.02 1:20.91855 2:286 3:8 4:1 5:4 6:0 7:0 8:0.000355 9:2.3000001e-005 10:0.00087400002 11:0.00062399998 12:0.001149 13:18.826694 14:1.3e-005 15:-11.8887 16:4.2168102 17:-10.05 18:-9.3766804 19:-8.9228201 20:2.0597899 21:-8.5089302 22:-8.5830698 23:-8.7425699 24:2.5332799 25:-8.5541201 26:-8.6767902 27:18.826694 28:9 29:2 30:0 31:0 32:0.00019999999 33:0.001748 34:0 35:0 36:0 37:0 38:0 39:0 40:0 41:0 42:0 43:0 44:0 #docid = 59209
-0.02 1:20.264658 2:618 3:10 4:3 5:4 6:0 7:0 8:0.00034100001 9:2.3000001e-005 10:0.00087400002 11:0.00062399998 12:0.001149 13:18.238194 14:0 15:-15.1426 16:0.074611001 17:-12.8709 18:-10.2224 19:-8.9228201 20:2.0597899 21:-8.5089302 22:-8.5830698 23:-8.7425699 24:2.5332799 25:-8.5541201 26:-8.6767902 27:18.238192 28:17 29:0 30:0 31:0 32:0.00037699999 33:0 34:0 35:0 36:0 37:0 38:0 39:0 40:0 41:0 42:0 43:0 44:0 #docid = 60247
-0.02 1:17.445517 2:221 3:2 4:4 5:3 6:0.022671999 7:0.00154 8:0.00042600001 9:2.3000001e-005 10:0.00087400002 11:0.00062399998 12:0.001149 13:15.700965 14:2e-006 15:-15.1426 16:0.074611001 17:-12.8709 18:-10.2224 19:-8.9228201 20:2.0597899 21:-8.5089302 22:-8.5830698 23:-8.7425699 24:2.5332799 25:-8.5541201 26:-8.6767902 27:15.700965 28:2 29:0 30:0 31:0 32:4.4e-005 33:0 34:0 35:0 36:0 37:0.001442 38:1e-006 39:0.001437 40:0.001374 41:0.0040210001 42:17.545761 43:19.153959 44:32.6978 #docid = 62236
-0.01 1:21.255798 2:144 3:2 4:4 5:6 6:0 7:0 8:0.00023200001 9:2.3000001e-005 10:0.00087400002 11:0.00062399998 12:0.001149 13:20.262199 14:1e-006 15:-7.9573202 16:13.7419 17:-8.1077805 18:-7.9573202 19:-8.9228201 20:2.0597899 21:-8.5089302 22:-8.5830698 23:-7.7257299 24:9.1726904 25:-7.74051 26:-7.7257299 27:20.320507 28:8 29:1 30:1 31:1 32:0.00017699999 33:0.00087400002 34:0.00062399998 35:0.001149 36:0 37:0 38:0 39:0 40:0 41:0 42:0 43:0 44:0 #docid = 64411
-0.02 1:20.742956 2:85 3:1 4:2 5:4 6:0.0085549997 7:0.00031199999 8:0.00042600001 9:2.3000001e-005 10:0.00087400002 11:0.00062399998 12:0.001149 13:18.668661 14:1e-006 15:-15.1426 16:0.074611001 17:-12.8709 18:-10.2224 19:-8.9228201 20:2.0597899 21:-8.5089302 22:-8.5830698 23:-8.7425699 24:2.5332799 25:-8.5541201 26:-8.6767902 27:18.668659 28:10 29:0 30:0 31:1 32:0.000222 33:0 34:0 35:0.001149 36:0 37:0.000172 38:2e-006 39:0.001713 40:0.001618 41:0.00069900003 42:20.950111 43:20.243425 44:15.74137 #docid = 64490
-0.02 1:17.635431 2:297 3:6 4:4 5:4 6:0 7:0 8:0.00043499999 9:2.3000001e-005 10:0.00087400002 11:0.00062399998 12:0.001149 13:15.871888 14:4e-006 15:-15.1426 16:0.074611001 17:-12.8709 18:-10.2224 19:-8.9228201 20:2.0597899 21:-8.5089302 22:-8.5830698 23:-8.7425699 24:2.5332799 25:-8.5541201 26:-8.6767902 27:15.871888 28:6 29:0 30:0 31:0 32:0.00013299999 33:0 34:0 35:0 36:0 37:0 38:0 39:0 40:0 41:0 42:0 43:0 44:0 #docid = 64572
-0.02 1:18.13261 2:254 3:1 4:2 5:4 6:0.0041789999 7:0 8:0.00042600001 9:2.3000001e-005 10:0.00087400002 11:0.00062399998 12:0.001149 13:16.319349 14:0 15:-15.1426 16:0.074611001 17:-12.8709 18:-10.2224 19:-8.9228201 20:2.0597899 21:-8.5089302 22:-8.5830698 23:-8.7425699 24:2.5332799 25:-8.5541201 26:-8.6767902 27:16.319349 28:25 29:0 30:0 31:1 32:0.00055400003 33:0 34:0 35:0.001149 36:0 37:0.000126 38:0 39:0.0013530001 40:0.001299 41:0.00057600002 42:17.688499 43:17.226357 44:13.786075 #docid = 66421
-0.01 1:16.639841 2:519 3:9 4:9 5:4 6:0 7:0 8:0.00034500001 9:2.3000001e-005 10:0.00087400002 11:0.00062399998 12:0.001149 13:14.975857 14:0 15:-15.1426 16:0.074611001 17:-12.8709 18:-10.2224 19:-8.9228201 20:2.0597899 21:-8.5089302 22:-8.5830698 23:-8.7425699 24:2.5332799 25:-8.5541201 26:-8.6767902 27:14.975857 28:9 29:0 30:0 31:0 32:0.00019999999 33:0 34:0 35:0 36:0 37:0 38:0 39:0 40:0 41:0 42:0 43:0 44:0 #docid = 67219
-0.029999999999999999 1:31.681307 2:106 3:0 4:2 5:4 6:0.0021190001 7:0.007549 8:0.00042600001 9:2.3000001e-005 10:0.00087400002 11:0.00062399998 12:0.001149 13:28.513176 14:0 15:-15.1426 16:0.074611001 17:-12.8709 18:-10.2224 19:-8.9228201 20:2.0597899 21:-8.5089302 22:-8.5830698 23:-8.7425699 24:2.5332799 25:-8.5541201 26:-8.6767902 27:28.513176 28:11 29:0 30:0 31:1 32:0.000244 33:0 34:0 35:0.001149 36:0 37:2.4000001e-005 38:3.0000001e-006 39:0.002354 40:0.0024039999 41:0.0024550001 42:30.783886 43:32.452343 44:32.633377 #docid = 68207
-0.02 1:23.91855 2:66 3:16 4:2 5:5 6:0 7:0 8:0.00034500001 9:2.3000001e-005 10:0.00087400002 11:0.00062399998 12:0.001149 13:21.526693 14:2e-006 15:-6.5896502 16:25.228201 17:-6.7108202 18:-6.5724502 19:-8.9228201 20:2.0597899 21:-8.5089302 22:-8.5830698 23:-7.89463 24:9.7370901 25:-8.1954803 26:-7.89463 27:21.526695 28:4 29:6 30:1 31:1 32:8.9000001e-005 33:0.0052450001 34:0.00062399998 35:0.001149 36:0 37:0 38:0 39:0 40:0 41:0 42:0 43:0 44:0 #docid = 69292
-0.01 1:19.459242 2:294 3:5 4:3 5:6 6:0.016682999 7:0.001178 8:0.000272 9:2.3000001e-005 10:0.00087400002 11:0.00062399998 12:0.001149 13:17.513317 14:3.0000001e-006 15:-10.1066 16:12.7893 17:-8.6001701 18:-8.6827497 19:-8.9228201 20:2.0597899 21:-8.5089302 22:-8.5830698 23:-8.1691303 24:7.7369699 25:-8.2339497 26:-8.1691303 27:17.513317 28:17 29:1 30:1 31:0 32:0.00037699999 33:0.00087400002 34:0.00062399998 35:0 36:0 37:3.3e-005 38:3.1e-005 39:0.001588 40:0.001541 41:0.00064300001 42:19.284533 43:19.800858 44:14.92828 #docid = 70193
-0.02 1:22.704664 2:178 3:6 4:5 5:5 6:0.015131 7:0.001747 8:0.00036500001 9:2.3000001e-005 10:0.00087400002 11:0.00062399998 12:0.001149 13:22.186478 14:0 15:-9.63904 16:11.2264 17:-8.6747303 18:-8.8057098 19:-8.0424604 20:7.5787401 21:-8.0552597 22:-8.0424604 23:-8.2409697 24:7.0163498 25:-8.2526398 26:-8.2409697 27:22.186478 28:21 29:2 30:1 31:1 32:0.000466 33:0.001748 34:0.00062399998 35:0.001149 36:0 37:0.000229 38:3.0000001e-006 39:0.001868 40:0.001759 41:0.001214 42:22.91065 43:22.562784 44:20.322598 #docid = 70909
-0.01 1:18.896639 2:493 3:7 4:3 5:6 6:0.016682999 7:0.001178 8:0.000272 9:2.3000001e-005 10:0.00087400002 11:0.00062399998 12:0.001149 13:17.006975 14:1e-006 15:-15.1426 16:0.074611001 17:-12.8709 18:-10.2224 19:-8.9228201 20:2.0597899 21:-8.5089302 22:-8.5830698 23:-8.7425699 24:2.5332799 25:-8.5541201 26:-8.6767902 27:17.006975 28:12 29:0 30:0 31:0 32:0.00026599999 33:0 34:0 35:0 36:0 37:3.3e-005 38:3.1e-005 39:0.0015510001 40:0.001504 41:0.00062499999 42:19.048939 43:18.462145 44:12.05993 #docid = 73218
-0.02 1:23.726219 2:139 3:6 4:5 5:5 6:0.002751 7:0.00165 8:0.00027399999 9:2.3000001e-005 10:0.00087400002 11:0.00062399998 12:0.001149 13:21.353598 14:0 15:-7.6992798 16:17.309799 17:-7.2685599 18:-7.1168799 19:-6.1399398 20:13.4844 21:-6.5581498 22:-6.1399398 23:-6.0552702 24:16.188999 25:-6.6979098 26:-6.0552702 27:21.353598 28:11 29:2 30:2 31:1 32:0.000244 33:0.001748 34:0.001248 35:0.001149 36:0 37:2.2e-005 38:1e-006 39:0.001791 40:0.001829 41:0.001202 42:23.468763 43:23.560698 44:21.272907 #docid = 73781
-0.01 1:19.761051 2:332 3:2 4:9 5:6 6:0 7:0 8:0.00027300001 9:2.3000001e-005 10:0.00087400002 11:0.00062399998 12:0.001149 13:17.784945 14:1e-006 15:-15.1426 16:0.074611001 17:-12.8709 18:-10.2224 19:-7.76618 20:7.4661698 21:-7.6951499 22:-7.76618 23:-7.9284101 24:6.2582302 25:-7.8290701 26:-7.9284101 27:17.784946 28:8 29:0 30:1 31:0 32:0.00017699999 33:0 34:0.00062399998 35:0 36:0 37:0 38:0 39:0 40:0 41:0 42:0 43:0 44:0 #docid = 74620
-0.01 1:17.342964 2:231 3:11 4:4 5:4 6:0.002784 7:0.0027040001 8:0.00046099999 9:2.3000001e-005 10:0.00087400002 11:0.00062399998 12:0.001149 13:16.638004 14:2e-006 15:-9.0968199 16:11.9754 17:-8.5823603 18:-8.7044802 19:-8.2155399 20:5.6317101 21:-8.1267204 22:-8.2155399 23:-8.2966805 24:6.41852 25:-8.2709904 26:-8.2966805 27:16.641777 28:10 29:3 30:1 31:0 32:0.000222 33:0.0026219999 34:0.00062399998 35:0 36:0 37:3.5000001e-005 38:5.0999999e-005 39:0.001316 40:0.0013520001 41:0.001591 42:16.894434 43:18.027054 44:19.366934 #docid = 74745
-0.02 1:26.249794 2:53 3:2 4:2 5:5 6:0.031982001 7:0.001846 8:0.00034100001 9:2.3000001e-005 10:0.00087400002 11:0.00062399998 12:0.001149 13:23.624815 14:2e-006 15:-2.79954 16:38.885201 17:-4.5563998 18:-2.79954 19:-8.9228201 20:2.0597899 21:-8.5089302 22:-8.5830698 23:-8.7425699 24:2.5332799 25:-8.5541201 26:-8.6767902 27:23.624813 28:7 29:2 30:0 31:1 32:0.000155 33:0.001748 34:0 35:0.001149 36:0 37:0.0049800002 38:6.0000002e-006 39:0.0021820001 40:0.0020659999 41:0.001586 42:26.278337 43:32.327873 44:33.932125 #docid = 78081
-0.02 1:20.456511 2:69 3:2 4:2 5:4 6:0.013301 7:0.000306 8:0.00042600001 9:2.3000001e-005 10:0.00087400002 11:0.00062399998 12:0.001149 13:18.410858 14:2e-006 15:-15.1426 16:0.074611001 17:-12.8709 18:-10.2224 19:-8.9228201 20:2.0597899 21:-8.5089302 22:-8.5830698 23:-8.7425699 24:2.5332799 25:-8.5541201 26:-8.6767902 27:18.410858 28:5 29:0 30:0 31:1 32:0.000111 33:0 34:0 35:0.001149 36:0 37:0.000216 38:2e-006 39:0.001779 40:0.001599 41:0.00069000002 42:21.934755 43:20.070663 44:15.048347 #docid = 82398
-0.02 1:17.50173 2:71 3:4 4:1 5:5 6:0 7:0 8:0.00027300001 9:2.3000001e-005 10:0.00087400002 11:0.00062399998 12:0.001149 13:15.751557 14:4e-006 15:-15.1426 16:0.074611001 17:-12.8709 18:-10.2224 19:-8.9228201 20:2.0597899 21:-8.5089302 22:-8.5830698 23:-8.7425699 24:2.5332799 25:-8.5541201 26:-8.6767902 27:15.751556 28:0 29:0 30:0 31:0 32:0 33:0 34:0 35:0 36:1e-006 37:0 38:0 39:0 40:0 41:0 42:0 43:0 44:0 #docid = 82470
-0.01 1:17.996252 2:214 3:11 4:5 5:6 6:0.025575999 7:0.001241 8:0.000363 9:2.3000001e-005 10:0.00087400002 11:0.00062399998 12:0.001149 13:18.007269 14:1e-006 15:-9.81007 16:12.995 17:-8.5507698 18:-8.6504698 19:-8.0424604 20:7.5787401 21:-8.0552597 22:-8.0424604 23:-8.2966805 24:6.41852 25:-8.2709904 26:-8.2966805 27:18.007267 28:21 29:3 30:1 31:1 32:0.000466 33:0.0026219999 34:0.00062399998 35:0.001149 36:0 37:5.9999998e-005 38:1e-006 39:0.001525 40:0.00144 41:0.00099500001 42:18.012161 43:18.259832 44:17.294958 #docid = 83191
-0.02 1:19.813166 2:411 3:0 4:2 5:7 6:0 7:0 8:0.00027300001 9:2.3000001e-005 10:0.00087400002 11:0.00062399998 12:0.001149 13:17.83185 14:8e-006 15:-15.1426 16:0.074611001 17:-12.8709 18:-10.2224 19:-7.55439 20:10.2916 21:-7.6223898 22:-7.55439 23:-7.65382 24:10.1148 25:-7.7218199 26:-7.65382 27:17.831848 28:5 29:0 30:1 31:0 32:0.000111 33:0 34:0.00062399998 35:0 36:0 37:0 38:0 39:0 40:0 41:0 42:0 43:0 44:0 #docid = 83647
-0.01 1:16.907188 2:566 3:9 4:7 5:4 6:0 7:0 8:0.00034100001 9:2.3000001e-005 10:0.00087400002 11:0.00062399998 12:0.001149 13:15.21647 14:4e-006 15:-15.1426 16:0.074611001 17:-12.8709 18:-10.2224 19:-8.9228201 20:2.0597899 21:-8.5089302 22:-8.5830698 23:-8.38064 24:5.4840002 25:-8.3067102 26:-8.38064 27:15.216469 28:17 29:0 30:1 31:0 32:0.00037699999 33:0 34:0.00062399998 35:0 36:2e-006 37:0 38:0 39:0 40:0 41:0 42:0 43:0 44:0 #docid = 83788
-0.01 1:16.61216 2:187 3:8 4:5 5:4 6:0 7:0 8:0.000432 9:2.3000001e-005 10:0.00087400002 11:0.00062399998 12:0.001149 13:14.950943 14:2e-006 15:-15.1426 16:0.074611001 17:-12.8709 18:-10.2224 19:-8.9228201 20:2.0597899 21:-8.5089302 22:-8.5830698 23:-8.7425699 24:2.5332799 25:-8.5541201 26:-8.6767902 27:14.950943 28:3 29:0 30:0 31:0 32:6.7000001e-005 33:0 34:0 35:0 36:0 37:0 38:0 39:0 40:0 41:0 42:0 43:0 44:0 #docid = 84258
-0.02 1:17.698925 2:23 3:0 4:0 5:5 6:0 7:0 8:0.000272 9:2.3000001e-005 10:0.00087400002 11:0.00062399998 12:0.001149 13:15.929034 14:0 15:-15.1426 16:0.074611001 17:-12.8709 18:-10.2224 19:-8.9228201 20:2.0597899 21:-8.5089302 22:-8.5830698 23:-8.7425699 24:2.5332799 25:-8.5541201 26:-8.6767902 27:15.929032 28:2 29:0 30:0 31:0 32:4.4e-005 33:0 34:0 35:0 36:0 37:0 38:0 39:0 40:0 41:0 42:0 43:0 44:0 #docid = 84981
-0.02 1:17.919785 2:157 3:2 4:5 5:4 6:0 7:0 8:0.00034100001 9:2.3000001e-005 10:0.00087400002 11:0.00062399998 12:0.001149 13:16.127808 14:3.0000001e-006 15:-15.1426 16:0.074611001 17:-12.8709 18:-10.2224 19:-8.9228201 20:2.0597899 21:-8.5089302 22:-8.5830698 23:-8.2966805 24:6.41852 25:-8.2709904 26:-8.2966805 27:16.127806 28:9 29:0 30:1 31:0 32:0.00019999999 33:0 34:0.00062399998 35:0 36:2e-006 37:0 38:0 39:0 40:0 41:0 42:0 43:0 44:0 #docid = 86049
-0.01 1:23.309315 2:208 3:5 4:8 5:7 6:0.022377999 7:0.001241 8:0.000272 9:2.3000001e-005 10:0.00087400002 11:0.00062399998 12:0.001149 13:20.978384 14:0 15:-15.1426 16:0.074611001 17:-12.8709 18:-10.2224 19:-8.9228201 20:2.0597899 21:-8.5089302 22:-8.5830698 23:-8.41395 24:5.1118698 25:-8.3240995 26:-8.41395 27:20.978382 28:18 29:0 30:1 31:1 32:0.00039900001 33:0 34:0.00062399998 35:0.001149 36:0 37:5.3e-005 38:1e-006 39:0.001911 40:0.001817 41:0.001158 42:23.259607 43:22.993135 44:20.685728 #docid = 87612
-0.01 1:24.969746 2:190 3:2 4:11 5:7 6:0 7:0 8:0.000272 9:2.3000001e-005 10:0.00087400002 11:0.00062399998 12:0.001149 13:23.843901 14:0 15:-15.1426 16:0.074611001 17:-12.8709 18:-10.2224 19:-8.0981998 20:6.9758101 21:-8.0736103 22:-8.0981998 23:-8.5150003 24:4.0205498 25:-8.39079 26:-8.5150003 27:23.843899 28:25 29:0 30:1 31:0 32:0.00055400003 33:0 34:0.00062399998 35:0 36:0 37:0 38:0 39:0 40:0 41:0 42:0 43:0 44:0 #docid = 88905
-0.02 1:22.529253 2:7243 3:2 4:7 5:7 6:0.0079939999 7:0.00033899999 8:0.000272 9:2.3000001e-005 10:0.00087400002 11:0.00062399998 12:0.001149 13:20.276327 14:0 15:-15.1426 16:0.074611001 17:-12.8709 18:-10.2224 19:-8.1437197 20:6.46175 21:-8.09163 22:-8.1437197 23:-8.38064 24:5.4840002 25:-8.3067102 26:-8.38064 27:20.276327 28:430 29:0 30:1 31:0 32:0.009536 33:0 34:0.00062399998 35:0 36:0 37:1.8999999e-005 38:2e-006 39:0.001716 40:0.001691 41:0.00077799999 42:22.128521 43:21.915361 44:17.868132 #docid = 91669
-0.02 1:16.566557 2:48 3:0 4:3 5:6 6:0 7:0 8:0.00029299999 9:2.3000001e-005 10:0.00087400002 11:0.00062399998 12:0.001149 13:17.106787 14:0 15:-15.1426 16:0.074611001 17:-12.8709 18:-10.2224 19:-8.9228201 20:2.0597899 21:-8.5089302 22:-8.5830698 23:-8.7425699 24:2.5332799 25:-8.5541201 26:-8.6767902 27:17.106785 28:1 29:0 30:0 31:1 32:2.2e-005 33:0 34:0 35:0.001149 36:0 37:0 38:0 39:0.001219 40:0.001186 41:0.00052599999 42:15.903455 43:15.610559 44:10.273719 #docid = 93901
-0.01 1:19.291157 2:192 3:2 4:8 5:5 6:0 7:0 8:0.000348 9:2.3000001e-005 10:0.00087400002 11:0.00062399998 12:0.001149 13:17.362041 14:1e-006 15:-15.1426 16:0.074611001 17:-12.8709 18:-10.2224 19:-8.9228201 20:2.0597899 21:-8.5089302 22:-8.5830698 23:-8.7425699 24:2.5332799 25:-8.5541201 26:-8.6767902 27:17.362041 28:5 29:0 30:0 31:0 32:0.000111 33:0 34:0 35:0 36:0 37:0 38:0 39:0 40:0 41:0 42:0 43:0 44:0 #docid = 97293
-0.02 1:23.360529 2:25 3:0 4:7 5:6 6:0 7:0 8:0.000218 9:2.3000001e-005 10:0.00087400002 11:0.00062399998 12:0.001149 13:21.024475 14:0 15:-15.1426 16:0.074611001 17:-12.8709 18:-10.2224 19:-8.9228201 20:2.0597899 21:-8.5089302 22:-8.5830698 23:-8.38064 24:5.4840002 25:-8.3067102 26:-8.38064 27:21.024475 28:2 29:0 30:1 31:0 32:4.4e-005 33:0 34:0.00062399998 35:0 36:0 37:0 38:0 39:0 40:0 41:0 42:0 43:0 44:0 #docid = 98199
-0.01 1:18.948795 2:112 3:2 4:7 5:5 6:0 7:0 8:0.000106 9:2.3000001e-005 10:0.00087400002 11:0.00062399998 12:0.001149 13:17.053915 14:0 15:-15.1426 16:0.074611001 17:-12.8709 18:-10.2224 19:-8.9228201 20:2.0597899 21:-8.5089302 22:-8.5830698 23:-8.7425699 24:2.5332799 25:-8.5541201 26:-8.6767902 27:17.053915 28:4 29:0 30:0 31:0 32:8.9000001e-005 33:0 34:0 35:0 36:0 37:0 38:0 39:0 40:0 41:0 42:0 43:0 44:0 #docid = 98547
-0.02 1:17.146097 2:209 3:0 4:1 5:3 6:0 7:0 8:0.00034 9:2.3000001e-005 10:0.00087400002 11:0.00062399998 12:0.001149 13:15.431487 14:0 15:-15.1426 16:0.074611001 17:-12.8709 18:-10.2224 19:-8.9228201 20:2.0597899 21:-8.5089302 22:-8.5830698 23:-8.7425699 24:2.5332799 25:-8.5541201 26:-8.6767902 27:15.431487 28:5 29:0 30:0 31:0 32:0.000111 33:0 34:0 35:0 36:0 37:0 38:0 39:0 40:0 41:0 42:0 43:0 44:0 #docid = 98693
-0.02 1:16.446806 2:504 3:5 4:2 5:3 6:0 7:0 8:0.00034200001 9:2.3000001e-005 10:0.00087400002 11:0.00062399998 12:0.001149 13:14.802127 14:0 15:-15.1426 16:0.074611001 17:-12.8709 18:-10.2224 19:-8.9228201 20:2.0597899 21:-8.5089302 22:-8.5830698 23:-8.7425699 24:2.5332799 25:-8.5541201 26:-8.6767902 27:14.802125 28:8 29:0 30:0 31:0 32:0.00017699999 33:0 34:0 35:0 36:0 37:0 38:0 39:0 40:0 41:0 42:0 43:0 44:0 #docid = 101544
-0.02 1:18.960995 2:54 3:1 4:3 5:5 6:0 7:0 8:9.1000002e-005 9:2.3000001e-005 10:0.00087400002 11:0.00062399998 12:0.001149 13:17.064896 14:0 15:-15.1426 16:0.074611001 17:-12.8709 18:-10.2224 19:-8.9228201 20:2.0597899 21:-8.5089302 22:-8.5830698 23:-8.7425699 24:2.5332799 25:-8.5541201 26:-8.6767902 27:17.064896 28:4 29:0 30:0 31:0 32:8.9000001e-005 33:0 34:0 35:0 36:0 37:0 38:0 39:0 40:0 41:0 42:0 43:0 44:0 #docid = 103705
-0.02 1:16.408541 2:205 3:1 4:4 5:4 6:0 7:0 8:0.00042600001 9:2.3000001e-005 10:0.00087400002 11:0.00062399998 12:0.001149 13:14.767686 14:0 15:-15.1426 16:0.074611001 17:-12.8709 18:-10.2224 19:-8.9228201 20:2.0597899 21:-8.5089302 22:-8.5830698 23:-8.7425699 24:2.5332799 25:-8.5541201 26:-8.6767902 27:14.767686 28:7 29:0 30:0 31:0 32:0.000155 33:0 34:0 35:0 36:0 37:0 38:0 39:0 40:0 41:0 42:0 43:0 44:0 #docid = 108968
-0.01 1:19.159782 2:763 3:29 4:7 5:4 6:0 7:0.000581 8:0.000356 9:2.3000001e-005 10:0.00087400002 11:0.00062399998 12:0.001149 13:17.243803 14:1e-006 15:-15.1426 16:0.074611001 17:-12.8709 18:-10.2224 19:-8.9228201 20:2.0597899 21:-8.5089302 22:-8.5830698 23:-8.7425699 24:2.5332799 25:-8.5541201 26:-8.6767902 27:17.243803 28:10 29:0 30:0 31:0 32:0.000222 33:0 34:0 35:0 36:0 37:0 38:3.0000001e-006 39:0.00141 40:0.00154 41:0.000695 42:18.213972 43:19.688623 44:12.112037 #docid = 113528
-0.01 1:18.843201 2:126 3:2 4:4 5:6 6:0 7:0 8:0.000272 9:2.3000001e-005 10:0.00087400002 11:0.00062399998 12:0.001149 13:17.634157 14:0 15:-15.1426 16:0.074611001 17:-12.8709 18:-10.2224 19:-8.1643105 20:7.4967399 21:-7.9886599 22:-8.0981998 23:-8.2966805 24:6.41852 25:-8.2709904 26:-8.2966805 27:17.64274 28:12 29:0 30:1 31:0 32:0.00026599999 33:0 34:0.00062399998 35:0 36:0 37:0 38:0 39:0 40:0 41:0 42:0 43:0 44:0 #docid = 114686
-0.02 1:22.782606 2:764 3:3 4:4 5:3 6:0 7:0 8:0.00042699999 9:2.3000001e-005 10:0.00087400002 11:0.00062399998 12:0.001149 13:20.504345 14:1e-006 15:-15.1426 16:0.074611001 17:-12.8709 18:-10.2224 19:-8.9228201 20:2.0597899 21:-8.5089302 22:-8.5830698 23:-8.7425699 24:2.5332799 25:-8.5541201 26:-8.6767902 27:20.504345 28:37 29:0 30:0 31:0 32:0.00082100002 33:0 34:0 35:0 36:0 37:0 38:0 39:0 40:0 41:0 42:0 43:0 44:0 #docid = 119304
-0.01 1:17.959278 2:155 3:7 4:5 5:5 6:0.064507999 7:0.000314 8:0.00027300001 9:2.3000001e-005 10:0.00087400002 11:0.00062399998 12:0.001149 13:16.163349 14:3.0000001e-006 15:-15.1426 16:0.074611001 17:-12.8709 18:-10.2224 19:-8.9228201 20:2.0597899 21:-8.5089302 22:-8.5830698 23:-8.7425699 24:2.5332799 25:-8.5541201 26:-8.6767902 27:16.163349 28:10 29:0 30:0 31:0 32:0.000222 33:0 34:0 35:0 36:0 37:0.0030149999 38:6.0000002e-006 39:0.001604 40:0.001373 41:0.000588 42:20.513802 43:17.414848 44:13.219156 #docid = 122247
-0.02 1:21.627527 2:252 3:5 4:3 5:5 6:0 7:0 8:9.1000002e-005 9:2.3000001e-005 10:0.00087400002 11:0.00062399998 12:0.001149 13:19.464773 14:0 15:-8.0790997 16:15.1516 17:-7.9907498 18:-8.0130997 19:-7.55439 20:10.2916 21:-7.6223898 22:-7.55439 23:-7.65382 24:10.1148 25:-7.7218199 26:-7.65382 27:19.464773 28:14 29:2 30:1 31:1 32:0.00031 33:0.001748 34:0.00062399998 35:0.001149 36:0 37:0 38:0 39:0 40:0 41:0 42:0 43:0 44:0 #docid = 122403
-0.02 1:28.733789 2:150 3:2 4:3 5:5 6:0.002138 7:0.000151 8:0.000291 9:2.3000001e-005 10:0.00087400002 11:0.00062399998 12:0.001149 13:25.860411 14:0 15:-15.1426 16:0.074611001 17:-12.8709 18:-10.2224 19:-8.9228201 20:2.0597899 21:-8.5089302 22:-8.5830698 23:-8.7425699 24:2.5332799 25:-8.5541201 26:-8.6767902 27:25.860411 28:8 29:0 30:0 31:0 32:0.00017699999 33:0 34:0 35:0 36:0 37:0 38:1e-006 39:0.0021230001 40:0.002269 41:0.000963 42:27.748438 43:28.557747 44:19.84437 #docid = 123287
-0.02 1:22.261366 2:73 3:8 4:6 5:4 6:0.0093409996 7:0.000314 8:0.00034100001 9:2.3000001e-005 10:0.00087400002 11:0.00062399998 12:0.001149 13:20.035229 14:2e-006 15:-10.465 16:12.7479 17:-8.7144804 18:-8.7044802 19:-8.0424604 20:7.5787401 21:-8.0552597 22:-8.0424604 23:-8.2966805 24:6.41852 25:-8.2709904 26:-8.2966805 27:20.035229 28:6 29:2 30:1 31:0 32:0.00013299999 33:0.001748 34:0.00062399998 35:0 36:0 37:0.000162 38:6.0000002e-006 39:0.001726 40:0.001682 41:0.00072399998 42:21.88204 43:21.839823 44:17.493895 #docid = 124723
-0.02 1:19.629015 2:141 3:4 4:5 5:4 6:0.0034640001 7:0.00122 8:0.00034100001 9:2.3000001e-005 10:0.00087400002 11:0.00062399998 12:0.001149 13:17.666113 14:4e-006 15:-9.2159901 16:10.0531 17:-8.3154202 18:-8.4437103 19:-8.9228201 20:2.0597899 21:-8.5089302 22:-8.5830698 23:-6.16675 24:14.8097 25:-6.71626 26:-6.16675 27:17.666113 28:1 29:1 30:2 31:1 32:2.2e-005 33:0.00087400002 34:0.001248 35:0.001149 36:1e-006 37:0.001464 38:4.2e-005 39:0.001478 40:0.001502 41:0.001117 42:19.181087 43:22.521229 44:21.091301 #docid = 125090
-0.02 1:17.164505 2:4943 3:4 4:4 5:6 6:0 7:0 8:6.8000001e-005 9:2.3000001e-005 10:0.00087400002 11:0.00062399998 12:0.001149 13:15.448056 14:0 15:-15.1426 16:0.074611001 17:-12.8709 18:-10.2224 19:-8.9228201 20:2.0597899 21:-8.5089302 22:-8.5830698 23:-8.7425699 24:2.5332799 25:-8.5541201 26:-8.6767902 27:15.448054 28:56 29:0 30:0 31:0 32:0.001242 33:0 34:0 35:0 36:0 37:0 38:0 39:0 40:0 41:0 42:0 43:0 44:0 #docid = 127472
-0.02 1:16.978588 2:225 3:2 4:5 5:4 6:0 7:0 8:0.00034100001 9:2.3000001e-005 10:0.00087400002 11:0.00062399998 12:0.001149 13:16.280939 14:6.0000002e-006 15:-15.1426 16:0.074611001 17:-12.8709 18:-10.2224 19:-8.9228201 20:2.0597899 21:-8.5089302 22:-8.5830698 23:-8.2966805 24:6.41852 25:-8.2709904 26:-8.2966805 27:16.302191 28:11 29:0 30:1 31:0 32:0.000244 33:0 34:0.00062399998 35:0 36:2e-006 37:0 38:0 39:0 40:0 41:0 42:0 43:0 44:0 #docid = 128023
-0.01 1:20.575199 2:265 3:7 4:4 5:6 6:0 7:0 8:0.00038300001 9:2.3000001e-005 10:0.00087400002 11:0.00062399998 12:0.001149 13:18.517681 14:1e-006 15:-15.1426 16:0.074611001 17:-12.8709 18:-10.2224 19:-8.9228201 20:2.0597899 21:-8.5089302 22:-8.5830698 23:-8.7425699 24:2.5332799 25:-8.5541201 26:-8.6767902 27:18.517679 28:12 29:0 30:0 31:0 32:0.00026599999 33:0 34:0 35:0 36:0 37:0 38:0 39:0 40:0 41:0 42:0 43:0 44:0 #docid = 128220
-0.02 1:17.890102 2:390 3:2 4:5 5:4 6:0 7:0 8:0.00034200001 9:2.3000001e-005 10:0.00087400002 11:0.00062399998 12:0.001149 13:16.101091 14:6.0000002e-006 15:-15.1426 16:0.074611001 17:-12.8709 18:-10.2224 19:-8.9228201 20:2.0597899 21:-8.5089302 22:-8.5830698 23:-8.2966805 24:6.41852 25:-8.2709904 26:-8.2966805 27:16.101091 28:14 29:0 30:1 31:0 32:0.00031 33:0 34:0.00062399998 35:0 36:2e-006 37:0 38:0 39:0 40:0 41:0 42:0 43:0 44:0 #docid = 128498
-0.01 1:19.403168 2:96 3:7 4:6 5:6 6:0 7:0 8:0.00027399999 9:2.3000001e-005 10:0.00087400002 11:0.00062399998 12:0.001149 13:17.462851 14:6.0000002e-006 15:-15.1426 16:0.074611001 17:-12.8709 18:-10.2224 19:-8.9228201 20:2.0597899 21:-8.5089302 22:-8.5830698 23:-8.7425699 24:2.5332799 25:-8.5541201 26:-8.6767902 27:17.462851 28:4 29:0 30:0 31:0 32:8.9000001e-005 33:0 34:0 35:0 36:0 37:0 38:0 39:0 40:0 41:0 42:0 43:0 44:0 #docid = 130045
-0.02 1:17.465302 2:519 3:11 4:4 5:3 6:0 7:0 8:0.00046000001 9:2.3000001e-005 10:0.00087400002 11:0.00062399998 12:0.001149 13:16.513172 14:1e-006 15:-15.1426 16:0.074611001 17:-12.8709 18:-10.2224 19:-8.9228201 20:2.0597899 21:-8.5089302 22:-8.5830698 23:-8.7425699 24:2.5332799 25:-8.5541201 26:-8.6767902 27:16.513172 28:9 29:0 30:0 31:0 32:0.00019999999 33:0 34:0 35:0 36:0 37:0 38:0 39:0 40:0 41:0 42:0 43:0 44:0 #docid = 131444
-0.02 1:23.236788 2:36 3:6 4:3 5:6 6:0 7:0 8:0.00027399999 9:2.3000001e-005 10:0.00087400002 11:0.00062399998 12:0.001149 13:20.913111 14:4e-006 15:-7.0142298 16:28.5215 17:-6.4398699 18:-6.3875999 19:-8.9228201 20:2.0597899 21:-8.5089302 22:-8.5830698 23:-5.91151 24:17.851801 25:-6.6792102 26:-5.91151 27:20.913109 28:0 29:4 30:2 31:0 32:0 33:0.0034970001 34:0.001248 35:0 36:0 37:0 38:0 39:0 40:0 41:0 42:0 43:0 44:0 #docid = 135274
-0.02 1:20.867561 2:524 3:3 4:5 5:3 6:0 7:0 8:0.00045799999 9:2.3000001e-005 10:0.00087400002 11:0.00062399998 12:0.001149 13:18.780806 14:0 15:-15.1426 16:0.074611001 17:-12.8709 18:-10.2224 19:-8.9228201 20:2.0597899 21:-8.5089302 22:-8.5830698 23:-8.7425699 24:2.5332799 25:-8.5541201 26:-8.6767902 27:18.780806 28:12 29:0 30:0 31:0 32:0.00026599999 33:0 34:0 35:0 36:0 37:0 38:0 39:0 40:0 41:0 42:0 43:0 44:0 #docid = 138147
-0.02 1:20.005224 2:292 3:5 4:3 5:4 6:0.031851001 7:0.0022489999 8:0.000459 9:2.3000001e-005 10:0.00087400002 11:0.00062399998 12:0.001149 13:18.856794 14:9.0000003e-006 15:-15.1426 16:0.074611001 17:-12.8709 18:-10.2224 19:-8.9228201 20:2.0597899 21:-8.5089302 22:-8.5830698 23:-8.7425699 24:2.5332799 25:-8.5541201 26:-8.6767902 27:18.869215 28:6 29:0 30:0 31:0 32:0.00013299999 33:0 34:0 35:0 36:0 37:0.0044030002 38:0.001574 39:0.001893 40:0.001584 41:0.00075800001 42:21.194149 43:22.445953 44:16.572123 #docid = 140878
-0.01 1:20.462784 2:391 3:4 4:5 5:7 6:0 7:0 8:6.8000001e-005 9:2.3000001e-005 10:0.00087400002 11:0.00062399998 12:0.001149 13:18.416504 14:0 15:-15.1426 16:0.074611001 17:-12.8709 18:-10.2224 19:-8.9228201 20:2.0597899 21:-8.5089302 22:-8.5830698 23:-8.7425699 24:2.5332799 25:-8.5541201 26:-8.6767902 27:18.416506 28:5 29:0 30:0 31:0 32:0.000111 33:0 34:0 35:0 36:0 37:0 38:0 39:0 40:0 41:0 42:0 43:0 44:0 #docid = 144205
-0.01 1:17.263281 2:2837 3:8 4:4 5:7 6:0 7:0 8:0.00021899999 9:2.3000001e-005 10:0.00087400002 11:0.00062399998 12:0.001149 13:15.536953 14:0 15:-15.1426 16:0.074611001 17:-12.8709 18:-10.2224 19:-8.9228201 20:2.0597899 21:-8.5089302 22:-8.5830698 23:-8.7425699 24:2.5332799 25:-8.5541201 26:-8.6767902 27:15.536952 28:40 29:0 30:0 31:0 32:0.000887 33:0 34:0 35:0 36:0 37:0 38:0 39:0 40:0 41:0 42:0 43:0 44:0 #docid = 149968
-0.01 1:18.126547 2:222 3:2 4:4 5:6 6:0 7:0 8:9.1000002e-005 9:2.3000001e-005 10:0.00087400002 11:0.00062399998 12:0.001149 13:16.853083 14:4.9999999e-006 15:-15.1426 16:0.074611001 17:-12.8709 18:-10.2224 19:-8.9228201 20:2.0597899 21:-8.5089302 22:-8.5830698 23:-8.7425699 24:2.5332799 25:-8.5541201 26:-8.6767902 27:16.863327 28:6 29:0 30:0 31:0 32:0.00013299999 33:0 34:0 35:0 36:0 37:0 38:0 39:0 40:0 41:0 42:0 43:0 44:0 #docid = 150987
-0.01 1:20.896353 2:76 3:4 4:6 5:4 6:0 7:0 8:6.8000001e-005 9:2.3000001e-005 10:0.00087400002 11:0.00062399998 12:0.001149 13:20.166109 14:1e-006 15:-8.7044802 16:10.3454 17:-8.71661 18:-8.7044802 19:-8.9228201 20:2.0597899 21:-8.5089302 22:-8.5830698 23:-8.2966805 24:6.41852 25:-8.2709904 26:-8.2966805 27:20.166109 28:3 29:1 30:1 31:0 32:6.7000001e-005 33:0.00087400002 34:0.00062399998 35:0 36:0 37:0 38:0 39:0 40:0 41:0 42:0 43:0 44:0 #docid = 152474
-0.02 1:25.477671 2:3091 3:7 4:5 5:4 6:0 7:0 8:0.00034100001 9:2.3000001e-005 10:0.00087400002 11:0.00062399998 12:0.001149 13:22.929903 14:2e-006 15:-15.1426 16:0.074611001 17:-12.8709 18:-10.2224 19:-8.9228201 20:2.0597899 21:-8.5089302 22:-8.5830698 23:-8.7425699 24:2.5332799 25:-8.5541201 26:-8.6767902 27:22.929903 28:160 29:0 30:0 31:0 32:0.003548 33:0 34:0 35:0 36:0 37:0 38:0 39:0 40:0 41:0 42:0 43:0 44:0 #docid = 153300
-0.02 1:20.274578 2:1948 3:7 4:5 5:3 6:0.0090889996 7:0.00062399998 8:0.00034100001 9:2.3000001e-005 10:0.00087400002 11:0.00062399998 12:0.001149 13:18.247122 14:2e-006 15:-15.1426 16:0.074611001 17:-12.8709 18:-10.2224 19:-8.9228201 20:2.0597899 21:-8.5089302 22:-8.5830698 23:-8.7425699 24:2.5332799 25:-8.5541201 26:-8.6767902 27:18.24712 28:87 29:0 30:0 31:0 32:0.001929 33:0 34:0 35:0 36:0 37:5.4e-005 38:4e-006 39:0.0015679999 40:0.001581 41:0.00068699999 42:19.531059 43:19.70813 44:14.147148 #docid = 154591
-0.02 1:17.629398 2:155 3:2 4:2 5:5 6:0 7:0 8:0.000367 9:2.3000001e-005 10:0.00087400002 11:0.00062399998 12:0.001149 13:16.795151 14:2e-006 15:-15.1426 16:0.074611001 17:-12.8709 18:-10.2224 19:-8.9228201 20:2.0597899 21:-8.5089302 22:-8.5830698 23:-8.7425699 24:2.5332799 25:-8.5541201 26:-8.6767902 27:16.795151 28:8 29:0 30:0 31:0 32:0.00017699999 33:0 34:0 35:0 36:0 37:0 38:0 39:0 40:0 41:0 42:0 43:0 44:0 #docid = 158644
-0.0050629084243308383 1:20.590994 2:492 3:26 4:5 5:5 6:0 7:0.0023109999 8:0.00034 9:2.3000001e-005 10:0.00087400002 11:0.00062399998 12:0.001149 13:18.531895 14:0 15:-15.1426 16:0.074611001 17:-12.8709 18:-10.2224 19:-8.9228201 20:2.0597899 21:-8.5089302 22:-8.5830698 23:-8.7425699 24:2.5332799 25:-8.5541201 26:-8.6767902 27:18.531895 28:10 29:0 30:0 31:0 32:0.000222 33:0 34:0 35:0 36:0 37:0 38:0.000142 39:0.001515 40:0.001631 41:0.001058 42:19.850912 43:22.702742 44:19.048246 #docid = 160246
-0.01 1:25.042057 2:87 3:2 4:4 5:7 6:0.029735999 7:0.002173 8:0.000283 9:2.3000001e-005 10:0.00087400002 11:0.00062399998 12:0.001149 13:22.537851 14:9.0000003e-006 15:-15.1426 16:0.074611001 17:-12.8709 18:-10.2224 19:-8.9228201 20:2.0597899 21:-8.5089302 22:-8.5830698 23:-8.7425699 24:2.5332799 25:-8.5541201 26:-8.6767902 27:22.537851 28:3 29:0 30:0 31:0 32:6.7000001e-005 33:0 34:0 35:0 36:0 37:0.001946 38:0.00030799999 39:0.00239 40:0.001917 41:0.013827 42:29.887815 43:26.089458 44:45.805649 #docid = 160353
-0.02 1:20.087944 2:694 3:7 4:4 5:5 6:0 7:0 8:0.00028400001 9:2.3000001e-005 10:0.00087400002 11:0.00062399998 12:0.001149 13:18.079149 14:3.0000001e-006 15:-15.1426 16:0.074611001 17:-12.8709 18:-10.2224 19:-8.9228201 20:2.0597899 21:-8.5089302 22:-8.5830698 23:-8.7425699 24:2.5332799 25:-8.5541201 26:-8.6767902 27:18.079149 28:9 29:0 30:0 31:0 32:0.00019999999 33:0 34:0 35:0 36:1e-006 37:0 38:0 39:0 40:0 41:0 42:0 43:0 44:0 #docid = 162209
-0.01 1:21.848181 2:165 3:8 4:5 5:5 6:0 7:0.001626 8:0.00034 9:2.3000001e-005 10:0.00087400002 11:0.00062399998 12:0.001149 13:19.663363 14:0 15:-15.1426 16:0.074611001 17:-12.8709 18:-10.2224 19:-8.9228201 20:2.0597899 21:-8.5089302 22:-8.5830698 23:-8.7425699 24:2.5332799 25:-8.5541201 26:-8.6767902 27:19.663363 28:6 29:0 30:0 31:0 32:0.00013299999 33:0 34:0 35:0 36:0 37:0 38:0.000142 39:0.001608 40:0.001754 41:0.001059 42:21.148067 43:26.139902 44:23.462286 #docid = 162896
-0.02 1:20.491098 2:992 3:5 4:3 5:3 6:0 7:0 8:0.000355 9:2.3000001e-005 10:0.00087400002 11:0.00062399998 12:0.001149 13:18.44199 14:1e-006 15:-15.1426 16:0.074611001 17:-12.8709 18:-10.2224 19:-8.9228201 20:2.0597899 21:-8.5089302 22:-8.5830698 23:-8.7425699 24:2.5332799 25:-8.5541201 26:-8.6767902 27:18.441988 28:16 29:0 30:0 31:0 32:0.000355 33:0 34:0 35:0 36:0 37:0 38:0 39:0 40:0 41:0 42:0 43:0 44:0 #docid = 164182
-0.02 1:22.400698 2:1540 3:10 4:5 5:5 6:0.013495 7:0.0028599999 8:0.00034699999 9:2.3000001e-005 10:0.00087400002 11:0.00062399998 12:0.001149 13:20.160627 14:1e-006 15:-15.1426 16:0.074611001 17:-12.8709 18:-10.2224 19:-8.9228201 20:2.0597899 21:-8.5089302 22:-8.5830698 23:-8.7425699 24:2.5332799 25:-8.5541201 26:-8.6767902 27:20.160627 28:30 29:0 30:0 31:0 32:0.000665 33:0 34:0 35:0 36:0 37:0.0049959999 38:3.0000001e-006 39:0.001866 40:0.0017650001 41:0.001181 42:22.193432 43:22.108051 44:17.133444 #docid = 164352
-0.01 1:16.571554 2:99 3:2 4:6 5:4 6:0.024494 7:0.002075 8:0.00034500001 9:2.3000001e-005 10:0.00087400002 11:0.00062399998 12:0.001149 13:14.914399 14:1e-006 15:-15.1426 16:0.074611001 17:-12.8709 18:-10.2224 19:-8.9228201 20:2.0597899 21:-8.5089302 22:-8.5830698 23:-8.7425699 24:2.5332799 25:-8.5541201 26:-8.6767902 27:14.914398 28:3 29:0 30:0 31:0 32:6.7000001e-005 33:0 34:0 35:0 36:0 37:0.00041899999 38:2e-006 39:0.0013229999 40:0.001302 41:0.00075800001 42:17.114717 43:23.053469 44:18.528244 #docid = 165281
-0.02 1:29.048105 2:128 3:5 4:3 5:6 6:0 7:0 8:0.00034100001 9:2.3000001e-005 10:0.00087400002 11:0.00062399998 12:0.001149 13:26.143293 14:0 15:-15.1426 16:0.074611001 17:-12.8709 18:-10.2224 19:-8.9228201 20:2.0597899 21:-8.5089302 22:-8.5830698 23:-8.7425699 24:2.5332799 25:-8.5541201 26:-8.6767902 27:26.143293 28:6 29:0 30:0 31:0 32:0.00013299999 33:0 34:0 35:0 36:0 37:0 38:0 39:0 40:0 41:0 42:0 43:0 44:0 #docid = 166129
-0.01 1:25.949934 2:167 3:2 4:4 5:7 6:0.037296001 7:0.002696 8:0.000283 9:2.3000001e-005 10:0.00087400002 11:0.00062399998 12:0.001149 13:23.35494 14:9.9999997e-006 15:-15.1426 16:0.074611001 17:-12.8709 18:-10.2224 19:-8.9228201 20:2.0597899 21:-8.5089302 22:-8.5830698 23:-8.7425699 24:2.5332799 25:-8.5541201 26:-8.6767902 27:23.35494 28:5 29:0 30:0 31:0 32:0.000111 33:0 34:0 35:0 36:1e-006 37:0.0039309999 38:0.001436 39:0.0027640001 40:0.0019710001 41:0.014058 42:28.912683 43:25.545847 44:45.338963 #docid = 167891
-0.040000000000000001 1:27.534147 2:609 3:0 4:1 5:5 6:0 7:0 8:0.00035399999 9:2.3000001e-005 10:0.00087400002 11:0.00062399998 12:0.001149 13:24.780733 14:2.4000001e-005 15:-15.1426 16:0.074611001 17:-12.8709 18:-10.2224 19:-7.6820798 20:8.6541204 21:-7.65943 22:-7.6820798 23:-7.37918 24:12.7296 25:-7.6833601 26:-7.37918 27:24.780731 28:46 29:0 30:1 31:1 32:0.00102 33:0 34:0.00062399998 35:0.001149 36:2e-006 37:0 38:0 39:0 40:0 41:0 42:0 43:0 44:0 #docid = 168171
-0.01 1:20.723131 2:999 3:10 4:7 5:5 6:0 7:0 8:0.000355 9:2.3000001e-005 10:0.00087400002 11:0.00062399998 12:0.001149 13:18.650818 14:1e-006 15:-15.1426 16:0.074611001 17:-12.8709 18:-10.2224 19:-8.9228201 20:2.0597899 21:-8.5089302 22:-8.5830698 23:-8.7425699 24:2.5332799 25:-8.5541201 26:-8.6767902 27:18.650818 28:14 29:0 30:0 31:0 32:0.00031 33:0 34:0 35:0 36:0 37:0 38:0 39:0 40:0 41:0 42:0 43:0 44:0 #docid = 168801
-0.02 1:24.142397 2:377 3:0 4:10 5:6 6:0.0086460002 7:0.000298 8:0.00027300001 9:2.3000001e-005 10:0.00087400002 11:0.00062399998 12:0.001149 13:23.356285 14:0 15:-15.1426 16:0.074611001 17:-12.8709 18:-10.2224 19:-8.2155399 20:5.6317101 21:-8.1267204 22:-8.2155399 23:-8.5486698 24:4.5009999 25:-8.3579998 26:-8.4695702 27:23.356283 28:23 29:0 30:1 31:0 32:0.00050999998 33:0 34:0.00062399998 35:0 36:0 37:0.000193 38:2e-006 39:0.001845 40:0.001814 41:0.00078399997 42:23.866764 43:23.708132 44:19.899675 #docid = 170215
-0.02 1:24.413841 2:84 3:6 4:3 5:5 6:0 7:0 8:0.00042600001 9:2.3000001e-005 10:0.00087400002 11:0.00062399998 12:0.001149 13:21.972456 14:0 15:-6.42486 16:26.804001 17:-6.7595401 18:-6.2808599 19:-8.9228201 20:2.0597899 21:-8.5089302 22:-8.5830698 23:-5.91151 24:17.851801 25:-6.6792102 26:-5.91151 27:21.972456 28:5 29:4 30:2 31:0 32:0.000111 33:0.0034970001 34:0.001248 35:0 36:0 37:0 38:0 39:0 40:0 41:0 42:0 43:0 44:0 #docid = 170338
-0.01 1:19.148987 2:171 3:4 4:8 5:5 6:0 7:0 8:0.00027399999 9:2.3000001e-005 10:0.00087400002 11:0.00062399998 12:0.001149 13:17.234089 14:0 15:-15.1426 16:0.074611001 17:-12.8709 18:-10.2224 19:-8.9228201 20:2.0597899 21:-8.5089302 22:-8.5830698 23:-8.7425699 24:2.5332799 25:-8.5541201 26:-8.6767902 27:17.234087 28:4 29:0 30:0 31:0 32:8.9000001e-005 33:0 34:0 35:0 36:0 37:0 38:0 39:0 40:0 41:0 42:0 43:0 44:0 #docid = 173333
-0.02 1:18.256546 2:194 3:1 4:4 5:4 6:0.053415 7:0.0033789999 8:0.000455 9:2.3000001e-005 10:0.00087400002 11:0.00062399998 12:0.001149 13:17.684189 14:9.0000003e-006 15:-15.1426 16:0.074611001 17:-12.8709 18:-10.2224 19:-8.9228201 20:2.0597899 21:-8.5089302 22:-8.5830698 23:-8.2409697 24:7.0163498 25:-8.2526398 26:-8.2409697 27:17.77985 28:10 29:0 30:1 31:0 32:0.000222 33:0 34:0.00062399998 35:0 36:1e-006 37:0.017824 38:0.001223 39:0.0021480001 40:0.001449 41:0.00080400001 42:19.670729 43:21.757484 44:17.801348 #docid = 174658
-0.029999999999999999 1:24.655544 2:364 3:0 4:4 5:4 6:0.0087890001 7:0.0094670001 8:0.000455 9:2.3000001e-005 10:0.00087400002 11:0.00062399998 12:0.001149 13:24.44882 14:0 15:-15.1426 16:0.074611001 17:-12.8709 18:-10.2224 19:-8.9228201 20:2.0597899 21:-8.5089302 22:-8.5830698 23:-8.2409697 24:7.0163498 25:-8.2526398 26:-8.2409697 27:24.448818 28:12 29:0 30:1 31:0 32:0.00026599999 33:0 34:0.00062399998 35:0 36:0 37:0.000279 38:4e-006 39:0.001869 40:0.001865 41:0.001299 42:24.195667 43:24.475285 44:19.745741 #docid = 175501
-0.02 1:25.947737 2:72 3:2 4:2 5:5 6:0 7:0 8:8.5e-005 9:2.3000001e-005 10:0.00087400002 11:0.00062399998 12:0.001149 13:23.352964 14:1e-006 15:-15.1426 16:0.074611001 17:-12.8709 18:-10.2224 19:-8.9228201 20:2.0597899 21:-8.5089302 22:-8.5830698 23:-8.7425699 24:2.5332799 25:-8.5541201 26:-8.6767902 27:23.352962 28:3 29:0 30:0 31:0 32:6.7000001e-005 33:0 34:0 35:0 36:0 37:0 38:0 39:0 40:0 41:0 42:0 43:0 44:0 #docid = 175818
-0.01 1:19.690723 2:384 3:2 4:3 5:7 6:0.026504001 7:0.0019490001 8:0.000283 9:2.3000001e-005 10:0.00087400002 11:0.00062399998 12:0.001149 13:17.721651 14:1.1e-005 15:-15.1426 16:0.074611001 17:-12.8709 18:-10.2224 19:-8.9228201 20:2.0597899 21:-8.5089302 22:-8.5830698 23:-8.7425699 24:2.5332799 25:-8.5541201 26:-8.6767902 27:17.721651 28:8 29:0 30:0 31:0 32:0.00017699999 33:0 34:0 35:0 36:1e-006 37:0.0012000001 38:1.6e-005 39:0.001606 40:0.001528 41:0.013533 42:19.775246 43:19.256134 44:44.06234 #docid = 176906
-0.01 1:20.058611 2:282 3:2 4:3 5:7 6:0.026504001 7:0.0019490001 8:0.000283 9:2.3000001e-005 10:0.00087400002 11:0.00062399998 12:0.001149 13:18.05275 14:1.1e-005 15:-15.1426 16:0.074611001 17:-12.8709 18:-10.2224 19:-8.9228201 20:2.0597899 21:-8.5089302 22:-8.5830698 23:-8.7425699 24:2.5332799 25:-8.5541201 26:-8.6767902 27:18.05275 28:4 29:0 30:0 31:0 32:8.9000001e-005 33:0 34:0 35:0 36:1e-006 37:0.001361 38:1.6e-005 39:0.001635 40:0.001554 41:0.013545 42:20.176382 43:19.809395 44:44.63689 #docid = 178259
-0.02 1:16.816626 2:3227 3:7 4:6 5:5 6:0 7:0 8:0.00034100001 9:2.3000001e-005 10:0.00087400002 11:0.00062399998 12:0.001149 13:15.134964 14:6.0000002e-006 15:-15.1426 16:0.074611001 17:-12.8709 18:-10.2224 19:-8.9228201 20:2.0597899 21:-8.5089302 22:-8.5830698 23:-8.7425699 24:2.5332799 25:-8.5541201 26:-8.6767902 27:15.134963 28:41 29:0 30:0 31:0 32:0.00090899999 33:0 34:0 35:0 36:0 37:0 38:0 39:0 40:0 41:0 42:0 43:0 44:0 #docid = 179211
-0.01 1:21.448854 2:70 3:5 4:6 5:5 6:0.007582 7:0.00015000001 8:0.00030300001 9:2.3000001e-005 10:0.00087400002 11:0.00062399998 12:0.001149 13:19.30397 14:3.0000001e-006 15:-15.1426 16:0.074611001 17:-12.8709 18:-10.2224 19:-8.9228201 20:2.0597899 21:-8.5089302 22:-8.5830698 23:-8.7425699 24:2.5332799 25:-8.5541201 26:-8.6767902 27:19.303968 28:3 29:0 30:0 31:0 32:6.7000001e-005 33:0 34:0 35:0 36:1e-006 37:1.8000001e-005 38:1.3e-005 39:0.001611 40:0.0017359999 41:0.00071499997 42:21.191929 43:23.031984 44:17.348686 #docid = 181546
-0.02 1:19.45392 2:267 3:5 4:2 5:4 6:0 7:0 8:0.00034 9:2.3000001e-005 10:0.00087400002 11:0.00062399998 12:0.001149 13:17.508528 14:2e-006 15:-15.1426 16:0.074611001 17:-12.8709 18:-10.2224 19:-8.9228201 20:2.0597899 21:-8.5089302 22:-8.5830698 23:-8.7425699 24:2.5332799 25:-8.5541201 26:-8.6767902 27:17.508528 28:8 29:0 30:0 31:0 32:0.00017699999 33:0 34:0 35:0 36:0 37:0 38:0 39:0 40:0 41:0 42:0 43:0 44:0 #docid = 185181
-0.02 1:20.677225 2:170 3:1 4:5 5:6 6:0 7:0 8:0.00034 9:2.3000001e-005 10:0.00087400002 11:0.00062399998 12:0.001149 13:18.609503 14:1e-006 15:-15.1426 16:0.074611001 17:-12.8709 18:-10.2224 19:-8.9228201 20:2.0597899 21:-8.5089302 22:-8.5830698 23:-8.7425699 24:2.5332799 25:-8.5541201 26:-8.6767902 27:18.609503 28:6 29:0 30:0 31:1 32:0.00013299999 33:0 34:0 35:0.001149 36:0 37:0 38:0 39:0 40:0 41:0 42:0 43:0 44:0 #docid = 187841
-0.01 1:18.247728 2:12 3:9 4:5 5:5 6:0 7:0 8:0.000344 9:2.3000001e-005 10:0.00087400002 11:0.00062399998 12:0.001149 13:16.422956 14:1e-006 15:-15.1426 16:0.074611001 17:-12.8709 18:-10.2224 19:-8.9228201 20:2.0597899 21:-8.5089302 22:-8.5830698 23:-8.7425699 24:2.5332799 25:-8.5541201 26:-8.6767902 27:16.422955 28:0 29:0 30:0 31:0 32:0 33:0 34:0 35:0 36:0 37:0 38:0 39:0 40:0 41:0 42:0 43:0 44:0 #docid = 188615
-0.02 1:18.626902 2:146 3:0 4:5 5:3 6:0 7:0 8:0.000113 9:2.3000001e-005 10:0.00087400002 11:0.00062399998 12:0.001149 13:16.764212 14:0 15:-15.1426 16:0.074611001 17:-12.8709 18:-10.2224 19:-8.9228201 20:2.0597899 21:-8.5089302 22:-8.5830698 23:-8.7425699 24:2.5332799 25:-8.5541201 26:-8.6767902 27:16.764212 28:7 29:0 30:0 31:1 32:0.000155 33:0 34:0 35:0.001149 36:0 37:0 38:0 39:0 40:0 41:0 42:0 43:0 44:0 #docid = 189295
-0.01 1:16.651787 2:46 3:3 4:6 5:5 6:0 7:0 8:0.000344 9:2.3000001e-005 10:0.00087400002 11:0.00062399998 12:0.001149 13:14.986608 14:1e-006 15:-15.1426 16:0.074611001 17:-12.8709 18:-10.2224 19:-8.9228201 20:2.0597899 21:-8.5089302 22:-8.5830698 23:-8.7425699 24:2.5332799 25:-8.5541201 26:-8.6767902 27:14.986608 28:0 29:0 30:0 31:0 32:0 33:0 34:0 35:0 36:0 37:0 38:0 39:0 40:0 41:0 42:0 43:0 44:0 #docid = 191287
-0.01 1:19.057638 2:284 3:7 4:1 5:6 6:0 7:0 8:0.000306 9:2.3000001e-005 10:0.00087400002 11:0.00062399998 12:0.001149 13:17.151875 14:0 15:-15.1426 16:0.074611001 17:-12.8709 18:-10.2224 19:-8.9228201 20:2.0597899 21:-8.5089302 22:-8.5830698 23:-8.7425699 24:2.5332799 25:-8.5541201 26:-8.6767902 27:17.151875 28:8 29:0 30:0 31:0 32:0.00017699999 33:0 34:0 35:0 36:0 37:0 38:0 39:0 40:0 41:0 42:0 43:0 44:0 #docid = 192027
-0.01 1:16.724535 2:287 3:3 4:5 5:4 6:0 7:0 8:0.00034 9:2.3000001e-005 10:0.00087400002 11:0.00062399998 12:0.001149 13:15.052081 14:2e-006 15:-15.1426 16:0.074611001 17:-12.8709 18:-10.2224 19:-8.9228201 20:2.0597899 21:-8.5089302 22:-8.5830698 23:-8.7425699 24:2.5332799 25:-8.5541201 26:-8.6767902 27:15.052081 28:5 29:0 30:0 31:0 32:0.000111 33:0 34:0 35:0 36:0 37:0 38:0 39:0 40:0 41:0 42:0 43:0 44:0 #docid = 194331
-0.02 1:22.618732 2:81 3:17 4:3 5:4 6:0.015992001 7:0.001631 8:0.00045600001 9:2.3000001e-005 10:0.00087400002 11:0.00062399998 12:0.001149 13:22.047602 14:9.9999997e-006 15:-10.9817 16:4.1911502 17:-9.6740198 18:-9.37148 19:-8.9228201 20:2.0597899 21:-8.5089302 22:-8.5830698 23:-8.7425699 24:2.5332799 25:-8.5541201 26:-8.6767902 27:22.171021 28:7 29:2 30:0 31:1 32:0.000155 33:0.001748 34:0 35:0.001149 36:0 37:0.0044740001 38:3.1e-005 39:0.001864 40:0.001724 41:0.00096600002 42:22.79994 43:22.283901 44:19.057646 #docid = 196955
-0.02 1:32.270473 2:261 3:3 4:6 5:4 6:0 7:0 8:0.00046700001 9:2.3000001e-005 10:0.00087400002 11:0.00062399998 12:0.001149 13:29.043427 14:0 15:-8.6326199 16:10.6523 17:-8.6979198 18:-8.6326199 19:-8.9228201 20:2.0597899 21:-8.5089302 22:-8.5830698 23:-8.3421803 24:5.9145799 25:-8.28901 26:-8.3421803 27:29.043425 28:29 29:1 30:1 31:1 32:0.00064300001 33:0.00087400002 34:0.00062399998 35:0.001149 36:0 37:0 38:0 39:0 40:0 41:0 42:0 43:0 44:0 #docid = 200053
-0.02 1:20.031445 2:709 3:1 4:3 5:4 6:0 7:0 8:0.000113 9:2.3000001e-005 10:0.00087400002 11:0.00062399998 12:0.001149 13:18.453468 14:1e-006 15:-15.1426 16:0.074611001 17:-12.8709 18:-10.2224 19:-8.9228201 20:2.0597899 21:-8.5089302 22:-8.5830698 23:-8.7425699 24:2.5332799 25:-8.5541201 26:-8.6767902 27:18.453468 28:21 29:0 30:0 31:0 32:0.000466 33:0 34:0 35:0 36:0 37:0 38:0 39:0.001474 40:0.001435 41:0.00063600001 42:19.196701 43:18.63501 44:12.889603 #docid = 202942
-0.02 1:18.477118 2:458 3:0 4:1 5:4 6:0.010854 7:0.001178 8:0.00038300001 9:2.3000001e-005 10:0.00087400002 11:0.00062399998 12:0.001149 13:16.629406 14:4e-006 15:-15.1426 16:0.074611001 17:-12.8709 18:-10.2224 19:-8.9228201 20:2.0597899 21:-8.5089302 22:-8.5830698 23:-8.7425699 24:2.5332799 25:-8.5541201 26:-8.6767902 27:16.629406 28:10 29:0 30:0 31:0 32:0.000222 33:0 34:0 35:0 36:0 37:0.00064099999 38:3.6000001e-005 39:0.001423 40:0.001424 41:0.00060700002 42:18.054825 43:18.959475 44:12.561819 #docid = 207762
-0.02 1:16.35483 2:190 3:5 4:3 5:4 6:0 7:0 8:0.00034200001 9:2.3000001e-005 10:0.00087400002 11:0.00062399998 12:0.001149 13:14.719346 14:1e-006 15:-15.1426 16:0.074611001 17:-12.8709 18:-10.2224 19:-8.9228201 20:2.0597899 21:-8.5089302 22:-8.5830698 23:-8.1691303 24:7.7369699 25:-8.2339497 26:-8.1691303 27:14.719346 28:4 29:0 30:1 31:1 32:8.9000001e-005 33:0 34:0.00062399998 35:0.001149 36:0 37:0 38:0 39:0 40:0 41:0 42:0 43:0 44:0 #docid = 209211
-0.02 1:16.712048 2:172 3:1 4:4 5:3 6:0 7:0 8:0.00034699999 9:2.3000001e-005 10:0.00087400002 11:0.00062399998 12:0.001149 13:15.040842 14:1e-006 15:-15.1426 16:0.074611001 17:-12.8709 18:-10.2224 19:-8.9228201 20:2.0597899 21:-8.5089302 22:-8.5830698 23:-8.7425699 24:2.5332799 25:-8.5541201 26:-8.6767902 27:15.040842 28:2 29:0 30:0 31:0 32:4.4e-005 33:0 34:0 35:0 36:0 37:0 38:0 39:0 40:0 41:0 42:0 43:0 44:0 #docid = 209481
-0.02 1:19.799719 2:307 3:7 4:3 5:5 6:0 7:0 8:0.000113 9:2.3000001e-005 10:0.00087400002 11:0.00062399998 12:0.001149 13:18.820669 14:4e-006 15:-15.1426 16:0.074611001 17:-12.8709 18:-10.2224 19:-8.9228201 20:2.0597899 21:-8.5089302 22:-8.5830698 23:-8.7425699 24:2.5332799 25:-8.5541201 26:-8.6767902 27:18.820669 28:6 29:0 30:0 31:0 32:0.00013299999 33:0 34:0 35:0 36:0 37:0 38:0 39:0 40:0 41:0 42:0 43:0 44:0 #docid = 211160
-0.01 1:22.328007 2:109 3:7 4:0 5:7 6:0 7:0 8:0.000275 9:2.3000001e-005 10:0.00087400002 11:0.00062399998 12:0.001149 13:20.851219 14:0 15:-6.8484001 16:23.6654 17:-6.8930702 18:-6.7042098 19:-8.9228201 20:2.0597899 21:-8.5089302 22:-8.5830698 23:-8.7425699 24:2.5332799 25:-8.5541201 26:-8.6767902 27:20.851219 28:6 29:2 30:0 31:0 32:0.00013299999 33:0.001748 34:0 35:0 36:0 37:0 38:0 39:0 40:0 41:0 42:0 43:0 44:0 #docid = 211963
-0.02 1:23.894846 2:373 3:11 4:3 5:4 6:0.010872 7:0.001917 8:0.00038300001 9:2.3000001e-005 10:0.00087400002 11:0.00062399998 12:0.001149 13:21.50536 14:1e-006 15:-15.1426 16:0.074611001 17:-12.8709 18:-10.2224 19:-8.9228201 20:2.0597899 21:-8.5089302 22:-8.5830698 23:-8.7425699 24:2.5332799 25:-8.5541201 26:-8.6767902 27:21.505362 28:8 29:0 30:0 31:0 32:0.00017699999 33:0 34:0 35:0 36:0 37:0.000142 38:0.00154 39:0.001907 40:0.0018720001 41:0.00086700002 42:23.729088 43:26.12323 44:17.206694 #docid = 218421
-0.02 1:21.990007 2:647 3:2 4:2 5:6 6:0 7:0 8:0.000113 9:2.3000001e-005 10:0.00087400002 11:0.00062399998 12:0.001149 13:19.91189 14:0 15:-15.1426 16:0.074611001 17:-12.8709 18:-10.2224 19:-8.9228201 20:2.0597899 21:-8.5089302 22:-8.5830698 23:-8.7425699 24:2.5332799 25:-8.5541201 26:-8.6767902 27:19.91189 28:12 29:0 30:0 31:0 32:0.00026599999 33:0 34:0 35:0 36:0 37:0 38:0 39:0 40:0 41:0 42:0 43:0 44:0 #docid = 219143
-0.02 1:21.581751 2:144 3:5 4:4 5:4 6:0.020775 7:0.0022 8:0.00036899999 9:2.3000001e-005 10:0.00087400002 11:0.00062399998 12:0.001149 13:21.070122 14:1e-006 15:-9.3968897 16:12.5359 17:-8.52672 18:-8.6526203 19:-8.9228201 20:2.0597899 21:-8.5089302 22:-8.5830698 23:-8.1896696 24:8.9052095 25:-8.0996399 26:-8.1235905 27:21.12541 28:14 29:2 30:2 31:1 32:0.00031 33:0.001748 34:0.001248 35:0.001149 36:0 37:4.8999998e-005 38:7.0000001e-006 39:0.001836 40:0.001699 41:0.00087799999 42:21.853895 43:23.039677 44:19.043058 #docid = 221077
-0.01 1:18.614107 2:62 3:0 4:5 5:5 6:0 7:0 8:6.8000001e-005 9:2.3000001e-005 10:0.00087400002 11:0.00062399998 12:0.001149 13:16.752697 14:0 15:-15.1426 16:0.074611001 17:-12.8709 18:-10.2224 19:-8.9228201 20:2.0597899 21:-8.5089302 22:-8.5830698 23:-8.7425699 24:2.5332799 25:-8.5541201 26:-8.6767902 27:16.752695 28:0 29:0 30:0 31:0 32:0 33:0 34:0 35:0 36:0 37:0 38:0 39:0 40:0 41:0 42:0 43:0 44:0 #docid = 223870
-0.02 1:16.490046 2:12 3:7 4:5 5:4 6:0.050050002 7:0.001178 8:8.5e-005 9:2.3000001e-005 10:0.00087400002 11:0.00062399998 12:0.001149 13:14.84104 14:1e-006 15:-5.4589701 16:30.032101 17:-5.2382302 18:-5.1367798 19:-4.9875598 20:18.4617 21:-5.6338601 22:-4.9875598 23:-5.0070801 24:17.139999 25:-5.5602899 26:-5.0070801 27:14.841041 28:1 29:2 30:1 31:0 32:2.2e-005 33:0.001748 34:0.00062399998 35:0 36:1e-006 37:0.057767 38:0.017558999 39:0.001576 40:0.001303 41:0.00058499997 42:16.715591 43:16.253805 44:14.270038 #docid = 228564
-0.02 1:23.369562 2:414 3:0 4:3 5:5 6:0 7:0 8:8.5e-005 9:2.3000001e-005 10:0.00087400002 11:0.00062399998 12:0.001149 13:21.032604 14:0 15:-15.1426 16:0.074611001 17:-12.8709 18:-10.2224 19:-8.9228201 20:2.0597899 21:-8.5089302 22:-8.5830698 23:-8.1691303 24:7.7369699 25:-8.2339497 26:-8.1691303 27:21.032606 28:12 29:0 30:1 31:1 32:0.00026599999 33:0 34:0.00062399998 35:0.001149 36:0 37:0 38:0 39:0 40:0 41:0 42:0 43:0 44:0 #docid = 233288
-0.02 1:18.8866 2:0 3:9 4:8 5:6 6:0 7:0 8:0.00027399999 9:2.3000001e-005 10:0.00087400002 11:0.00062399998 12:0.001149 13:0 14:0 15:-15.1426 16:0.074611001 17:-12.8709 18:-10.2224 19:-8.9228201 20:2.0597899 21:-8.5089302 22:-8.5830698 23:-8.7425699 24:2.5332799 25:-8.5541201 26:-8.6767902 27:16.99794 28:0 29:0 30:0 31:0 32:0 33:0 34:0 35:0 36:0 37:0 38:0 39:0 40:0 41:0 42:0 43:0 44:0 #docid = 233854
-0.01 1:21.239328 2:97 3:6 4:4 5:6 6:0 7:0 8:0.000272 9:2.3000001e-005 10:0.00087400002 11:0.00062399998 12:0.001149 13:19.115395 14:0 15:-15.1426 16:0.074611001 17:-12.8709 18:-10.2224 19:-8.9228201 20:2.0597899 21:-8.5089302 22:-8.5830698 23:-8.7425699 24:2.5332799 25:-8.5541201 26:-8.6767902 27:19.115395 28:7 29:0 30:0 31:0 32:0.000155 33:0 34:0 35:0 36:0 37:0 38:0 39:0 40:0 41:0 42:0 43:0 44:0 #docid = 239658
-0.02 1:24.211376 2:374 3:0 4:6 5:6 6:0 7:0 8:0.000218 9:2.3000001e-005 10:0.00087400002 11:0.00062399998 12:0.001149 13:21.790239 14:0 15:-15.1426 16:0.074611001 17:-12.8709 18:-10.2224 19:-7.6820798 20:8.6541204 21:-7.65943 22:-7.6820798 23:-7.8270702 24:7.7323098 25:-7.7768798 26:-7.8270702 27:21.790237 28:22 29:0 30:1 31:0 32:0.00048799999 33:0 34:0.00062399998 35:0 36:0 37:0 38:0 39:0 40:0 41:0 42:0 43:0 44:0 #docid = 241298
-0.02 1:17.963688 2:103 3:2 4:4 5:3 6:0 7:0 8:0.00034200001 9:2.3000001e-005 10:0.00087400002 11:0.00062399998 12:0.001149 13:16.16732 14:7.0000001e-006 15:-15.1426 16:0.074611001 17:-12.8709 18:-10.2224 19:-8.9228201 20:2.0597899 21:-8.5089302 22:-8.5830698 23:-8.7425699 24:2.5332799 25:-8.5541201 26:-8.6767902 27:16.167318 28:4 29:0 30:0 31:0 32:8.9000001e-005 33:0 34:0 35:0 36:0 37:0 38:0 39:0 40:0 41:0 42:0 43:0 44:0 #docid = 241446
-0.01 1:18.626997 2:98 3:9 4:3 5:5 6:0 7:0 8:0.00027399999 9:2.3000001e-005 10:0.00087400002 11:0.00062399998 12:0.001149 13:16.764296 14:2e-006 15:-15.1426 16:0.074611001 17:-12.8709 18:-10.2224 19:-8.9228201 20:2.0597899 21:-8.5089302 22:-8.5830698 23:-8.7425699 24:2.5332799 25:-8.5541201 26:-8.6767902 27:16.764297 28:4 29:0 30:0 31:0 32:8.9000001e-005 33:0 34:0 35:0 36:1e-006 37:0 38:0 39:0 40:0 41:0 42:0 43:0 44:0 #docid = 248127
-0.040000000000000001 1:38.312649 2:1196 3:8 4:2 5:5 6:0.025629999 7:0.001202 8:0.00027300001 9:2.3000001e-005 10:0.00087400002 11:0.00062399998 12:0.001149 13:36.507469 14:4e-006 15:-15.1426 16:0.074611001 17:-12.8709 18:-10.2224 19:-7.9706001 20:8.2957602 21:-8.0365696 22:-7.9706001 23:-8.7425699 24:2.5332799 25:-8.5541201 26:-8.6767902 27:36.507469 28:95 29:0 30:0 31:0 32:0.002107 33:0 34:0 35:0 36:0 37:0.000197 38:3.0000001e-006 39:0.003182 40:0.002929 41:0.001335 42:38.101341 43:37.516457 44:30.879686 #docid = 249927
-0.02 1:25.50853 2:119 3:6 4:2 5:4 6:0 7:0 8:0.00043399999 9:2.3000001e-005 10:0.00087400002 11:0.00062399998 12:0.001149 13:22.957676 14:8e-006 15:-10.0567 16:13.7849 17:-8.5797901 18:-8.54984 19:-8.9228201 20:2.0597899 21:-8.5089302 22:-8.5830698 23:-8.0678396 24:8.6225595 25:-8.2149 26:-8.0678396 27:22.957676 28:18 29:1 30:1 31:1 32:0.00039900001 33:0.00087400002 34:0.00062399998 35:0.001149 36:2e-006 37:0 38:0 39:0 40:0 41:0 42:0 43:0 44:0 #docid = 253316
6.4650629084242377 1:22.43828 2:92 3:6 4:4 5:5 6:0 7:0 8:0.00027300001 9:2.3000001e-005 10:0.00087400002 11:0.00062399998 12:0.001149 13:20.19445 14:2e-006 15:-15.1426 16:0.074611001 17:-12.8709 18:-10.2224 19:-8.9228201 20:2.0597899 21:-8.5089302 22:-8.5830698 23:-8.7425699 24:2.5332799 25:-8.5541201 26:-8.6767902 27:20.194452 28:6 29:0 30:0 31:0 32:0.00013299999 33:0 34:0 35:0 36:1e-006 37:0 38:0 39:0 40:0 41:0 42:0 43:0 44:0 #docid = 255064
-0.029999999999999999 1:26.378988 2:47 3:3 4:7 5:5 6:0.049075998 7:0.0034370001 8:0.00027300001 9:2.3000001e-005 10:0.00087400002 11:0.00062399998 12:0.001149 13:23.741089 14:3.0000001e-006 15:-3.17608 16:46.402699 17:-3.3041601 18:-3.10356 19:-8.9228201 20:2.0597899 21:-8.5089302 22:-8.5830698 23:-3.3002601 24:24.202499 25:-4.3643498 26:-3.3559301 27:23.741089 28:4 29:2 30:3 31:1 32:8.9000001e-005 33:0.001748 34:0.0018729999 35:0.001149 36:0 37:0.006149 38:9.0000003e-006 39:0.0029200001 40:0.0021589999 41:0.001341 42:29.646952 43:42.453194 44:40.561081 #docid = 255876
-0.01 1:17.015945 2:552 3:3 4:4 5:6 6:0 7:0 8:0.00028899999 9:2.3000001e-005 10:0.00087400002 11:0.00062399998 12:0.001149 13:15.314351 14:4e-006 15:-11.1189 16:4.7453799 17:-8.8927298 18:-8.8233299 19:-8.9228201 20:2.0597899 21:-8.5089302 22:-8.5830698 23:-8.7425699 24:2.5332799 25:-8.5541201 26:-8.6767902 27:15.31435 28:8 29:1 30:0 31:0 32:0.00017699999 33:0.00087400002 34:0 35:0 36:0 37:0 38:0 39:0 40:0 41:0 42:0 43:0 44:0 #docid = 256651
-0.01 1:18.813799 2:593 3:4 4:5 5:4 6:0.0050039999 7:0 8:0.00034299999 9:2.3000001e-005 10:0.00087400002 11:0.00062399998 12:0.001149 13:16.932419 14:1e-006 15:-8.3494797 16:16.061899 17:-7.9074602 18:-7.9573202 19:-7.4530401 20:11.3671 21:-7.6033401 22:-7.4530401 23:-7.7814999 24:8.39114 25:-7.7588601 26:-7.7814999 27:16.932419 28:16 29:2 30:1 31:0 32:0.000355 33:0.001748 34:0.00062399998 35:0 36:0 37:0.003583 38:0 39:0.0015369999 40:0.001347 41:0.00059800001 42:19.249899 43:17.879566 44:13.83767 #docid = 256698
-0.02 1:22.002169 2:625 3:1 4:5 5:4 6:0.0025879999 7:0.00051599997 8:0.00034299999 9:2.3000001e-005 10:0.00087400002 11:0.00062399998 12:0.001149 13:19.80195 14:1e-006 15:-15.1426 16:0.074611001 17:-12.8709 18:-10.2224 19:-7.76618 20:7.4661698 21:-7.6951499 22:-7.76618 23:-7.7814999 24:8.39114 25:-7.7588601 26:-7.7814999 27:19.80195 28:27 29:0 30:1 31:0 32:0.00059900002 33:0 34:0.00062399998 35:0 36:0 37:0.0022140001 38:3.9999999e-005 39:0.001655 40:0.0016740001 41:0.000742 42:21.441914 43:21.235794 44:16.615658 #docid = 258821
-0.02 1:17.82538 2:209 3:29 4:4 5:4 6:0.0077399998 7:0 8:0.00047299999 9:2.3000001e-005 10:0.00087400002 11:0.00062399998 12:0.001149 13:17.691261 14:1e-006 15:-15.1426 16:0.074611001 17:-12.8709 18:-10.2224 19:-8.9228201 20:2.0597899 21:-8.5089302 22:-8.5830698 23:-8.7425699 24:2.5332799 25:-8.5541201 26:-8.6767902 27:18.584255 28:6 29:0 30:0 31:0 32:0.00013299999 33:0 34:0 35:0 36:0 37:0.00032600001 38:0 39:0.001335 40:0.0012769999 41:0.000566 42:17.322123 43:17.036537 44:12.394271 #docid = 259697
-0.01 1:19.046114 2:476 3:0 4:3 5:5 6:0 7:0.00095700001 8:0.000279 9:2.3000001e-005 10:0.00087400002 11:0.00062399998 12:0.001149 13:17.141502 14:0 15:-15.1426 16:0.074611001 17:-12.8709 18:-10.2224 19:-8.9228201 20:2.0597899 21:-8.5089302 22:-8.5830698 23:-8.7425699 24:2.5332799 25:-8.5541201 26:-8.6767902 27:17.141502 28:6 29:0 30:0 31:0 32:0.00013299999 33:0 34:0 35:0 36:0 37:0 38:0.00088900002 39:0.001402 40:0.001564 41:0.00080500002 42:18.204805 43:23.657822 44:16.578474 #docid = 263953
-0.01 1:16.986662 2:578 3:14 4:2 5:5 6:0 7:0 8:0.00046700001 9:2.3000001e-005 10:0.00087400002 11:0.00062399998 12:0.001149 13:15.509419 14:1e-006 15:-15.1426 16:0.074611001 17:-12.8709 18:-10.2224 19:-8.9228201 20:2.0597899 21:-8.5089302 22:-8.5830698 23:-8.7425699 24:2.5332799 25:-8.5541201 26:-8.6767902 27:15.509419 28:5 29:0 30:0 31:0 32:0.000111 33:0 34:0 35:0 36:0 37:0 38:0 39:0 40:0 41:0 42:0 43:0 44:0 #docid = 264504
-0.02 1:24.682791 2:43 3:1 4:4 5:5 6:0.04507 7:0.0030410001 8:0.00027300001 9:2.3000001e-005 10:0.00087400002 11:0.00062399998 12:0.001149 13:22.214512 14:4e-006 15:-9.18647 16:17.6213 17:-7.6974201 18:-7.78404 19:-8.9228201 20:2.0597899 21:-8.5089302 22:-8.5830698 23:-6.0552702 24:16.188999 25:-6.6979098 26:-6.0552702 27:22.214512 28:3 29:1 30:2 31:1 32:6.7000001e-005 33:0.00087400002 34:0.001248 35:0.001149 36:1e-006 37:0.015662 38:3.9999999e-005 39:0.002541 40:0.0019690001 41:0.001116 42:27.482637 43:30.37199 44:29.523832 #docid = 268814
-0.02 1:23.507532 2:43 3:4 4:5 5:5 6:0.045123 7:0.0030410001 8:0.00027300001 9:2.3000001e-005 10:0.00087400002 11:0.00062399998 12:0.001149 13:21.156778 14:4e-006 15:-9.3597603 16:16.9564 17:-7.8266301 18:-7.9573202 19:-8.9228201 20:2.0597899 21:-8.5089302 22:-8.5830698 23:-6.16675 24:14.8097 25:-6.71626 26:-6.16675 27:21.156778 28:3 29:2 30:2 31:0 32:6.7000001e-005 33:0.001748 34:0.001248 35:0 36:1e-006 37:0.016696 38:3.7999998e-005 39:0.0024959999 40:0.0019 41:0.001092 42:26.824026 43:28.604097 44:27.776546 #docid = 271019
-0.02 1:17.977491 2:678 3:0 4:4 5:3 6:0 7:0 8:0.00042600001 9:2.3000001e-005 10:0.00087400002 11:0.00062399998 12:0.001149 13:16.179741 14:1e-006 15:-15.1426 16:0.074611001 17:-12.8709 18:-10.2224 19:-8.9228201 20:2.0597899 21:-8.5089302 22:-8.5830698 23:-8.7425699 24:2.5332799 25:-8.5541201 26:-8.6767902 27:16.179741 28:13 29:0 30:0 31:0 32:0.00028800001 33:0 34:0 35:0 36:0 37:0 38:0 39:0 40:0 41:0 42:0 43:0 44:0 #docid = 274189
-0.02 1:18.587172 2:93 3:2 4:2 5:5 6:0 7:0 8:8.5e-005 9:2.3000001e-005 10:0.00087400002 11:0.00062399998 12:0.001149 13:16.728455 14:1e-006 15:-15.1426 16:0.074611001 17:-12.8709 18:-10.2224 19:-8.9228201 20:2.0597899 21:-8.5089302 22:-8.5830698 23:-8.7425699 24:2.5332799 25:-8.5541201 26:-8.6767902 27:16.728455 28:2 29:0 30:0 31:0 32:4.4e-005 33:0 34:0 35:0 36:0 37:0 38:0 39:0 40:0 41:0 42:0 43:0 44:0 #docid = 274618
-0.01 1:16.477962 2:102 3:3 4:3 5:6 6:0 7:0 8:0.000272 9:2.3000001e-005 10:0.00087400002 11:0.00062399998 12:0.001149 13:14.830167 14:0 15:-15.1426 16:0.074611001 17:-12.8709 18:-10.2224 19:-8.9228201 20:2.0597899 21:-8.5089302 22:-8.5830698 23:-8.7425699 24:2.5332799 25:-8.5541201 26:-8.6767902 27:14.830166 28:3 29:0 30:0 31:0 32:6.7000001e-005 33:0 34:0 35:0 36:0 37:0 38:0 39:0 40:0 41:0 42:0 43:0 44:0 #docid = 275373
-0.01 1:18.948795 2:112 3:23 4:7 5:4 6:0 7:0 8:0.000379 9:2.3000001e-005 10:0.00087400002 11:0.00062399998 12:0.001149 13:17.603533 14:2e-006 15:-15.1426 16:0.074611001 17:-12.8709 18:-10.2224 19:-8.9228201 20:2.0597899 21:-8.5089302 22:-8.5830698 23:-8.7425699 24:2.5332799 25:-8.5541201 26:-8.6767902 27:17.614069 28:2 29:0 30:0 31:0 32:4.4e-005 33:0 34:0 35:0 36:1e-006 37:0 38:0 39:0 40:0 41:0 42:0 43:0 44:0 #docid = 275632
-0.02 1:20.799952 2:1140 3:8 4:3 5:4 6:0 7:0 8:0.000344 9:2.3000001e-005 10:0.00087400002 11:0.00062399998 12:0.001149 13:18.719955 14:0 15:-15.1426 16:0.074611001 17:-12.8709 18:-10.2224 19:-8.9228201 20:2.0597899 21:-8.5089302 22:-8.5830698 23:-8.7425699 24:2.5332799 25:-8.5541201 26:-8.6767902 27:18.719955 28:30 29:0 30:0 31:0 32:0.000665 33:0 34:0 35:0 36:0 37:0 38:0 39:0 40:0 41:0 42:0 43:0 44:0 #docid = 276253
-0.02 1:21.650085 2:288 3:9 4:8 5:7 6:0 7:0 8:0.000218 9:2.3000001e-005 10:0.00087400002 11:0.00062399998 12:0.001149 13:19.485077 14:1e-006 15:-3.9388499 16:34.701099 17:-4.1902499 18:-4.05441 19:-3.74119 20:19.3505 21:-4.5683198 22:-3.74119 23:-3.74458 24:18.7626 25:-4.5707898 26:-3.74458 27:19.485077 28:5 29:2 30:2 31:0 32:0.000111 33:0.001748 34:0.001248 35:0 36:0 37:0 38:0 39:0 40:0 41:0 42:0 43:0 44:0 #docid = 278519
-0.02 1:23.233776 2:303 3:9 4:8 5:7 6:0 7:0 8:0.000218 9:2.3000001e-005 10:0.00087400002 11:0.00062399998 12:0.001149 13:20.910397 14:1e-006 15:-3.99947 16:34.0811 17:-4.2143502 18:-4.0998302 19:-3.74119 20:19.3505 21:-4.5683198 22:-3.74119 23:-3.74458 24:18.7626 25:-4.5707898 26:-3.74458 27:20.910398 28:9 29:2 30:2 31:0 32:0.00019999999 33:0.001748 34:0.001248 35:0 36:0 37:0 38:0 39:0 40:0 41:0 42:0 43:0 44:0 #docid = 285995
-0.02 1:19.340393 2:1336 3:2 4:7 5:5 6:0 7:0 8:0.00027399999 9:2.3000001e-005 10:0.00087400002 11:0.00062399998 12:0.001149 13:17.406353 14:3.0000001e-006 15:-15.1426 16:0.074611001 17:-12.8709 18:-10.2224 19:-8.9228201 20:2.0597899 21:-8.5089302 22:-8.5830698 23:-8.7425699 24:2.5332799 25:-8.5541201 26:-8.6767902 27:17.406353 28:27 29:0 30:0 31:0 32:0.00059900002 33:0 34:0 35:0 36:0 37:0 38:0 39:0 40:0 41:0 42:0 43:0 44:0 #docid = 286282
-0.01 1:27.948957 2:249 3:16 4:9 5:6 6:0.015395 7:0.00030399999 8:0.00027799999 9:2.3000001e-005 10:0.00087400002 11:0.00062399998 12:0.001149 13:25.154062 14:0 15:-9.4028196 16:13.6169 17:-8.4076595 18:-8.3190002 19:-8.9228201 20:2.0597899 21:-8.5089302 22:-8.5830698 23:-7.9284101 24:6.2582302 25:-7.8290701 26:-7.9284101 27:25.15406 28:4 29:2 30:1 31:0 32:8.9000001e-005 33:0.001748 34:0.00062399998 35:0 36:0 37:0.0040489999 38:1.6e-005 39:0.002172 40:0.002206 41:0.00092399999 42:27.751442 43:27.36256 44:21.594456 #docid = 290234
-0.02 1:19.250357 2:1927 3:0 4:11 5:4 6:0 7:0 8:0.00027300001 9:2.3000001e-005 10:0.00087400002 11:0.00062399998 12:0.001149 13:17.325321 14:1e-006 15:-15.1426 16:0.074611001 17:-12.8709 18:-10.2224 19:-8.9228201 20:2.0597899 21:-8.5089302 22:-8.5830698 23:-8.7425699 24:2.5332799 25:-8.5541201 26:-8.6767902 27:17.325321 28:102 29:0 30:0 31:0 32:0.002262 33:0 34:0 35:0 36:0 37:0 38:0 39:0 40:0 41:0 42:0 43:0 44:0 #docid = 291183
-0.01 1:24.633852 2:1170 3:0 4:16 5:5 6:0 7:0 8:0.00027300001 9:2.3000001e-005 10:0.00087400002 11:0.00062399998 12:0.001149 13:22.170465 14:1e-006 15:-15.1426 16:0.074611001 17:-12.8709 18:-10.2224 19:-6.37111 20:10.7271 21:-6.5467601 22:-6.40975 23:-6.6003599 24:9.9847002 25:-6.7405801 26:-6.6043801 27:22.170465 28:97 29:0 30:3 31:0 32:0.0021510001 33:0 34:0.0018729999 35:0 36:0 37:0 38:0 39:0 40:0 41:0 42:0 43:0 44:0 #docid = 293510
-0.02 1:34.073261 2:200 3:16 4:3 5:6 6:0.011551 7:0 8:0.00027799999 9:2.3000001e-005 10:0.00087400002 11:0.00062399998 12:0.001149 13:30.665936 14:0 15:-4.1524701 16:26.1127 17:-4.1196098 18:-4.1196098 19:-8.9228201 20:2.0597899 21:-8.5089302 22:-8.5830698 23:-8.7425699 24:2.5332799 25:-8.5541201 26:-8.6767902 27:30.665934 28:7 29:2 30:0 31:0 32:0.000155 33:0.001748 34:0 35:0 36:0 37:0.0035059999 38:0 39:0.002596 40:0.00244 41:0.001082 42:33.605801 43:32.640457 44:25.356998 #docid = 293539
-0.02 1:19.927013 2:1016 3:0 4:10 5:5 6:0 7:0 8:0.00027300001 9:2.3000001e-005 10:0.00087400002 11:0.00062399998 12:0.001149 13:19.2248 14:1e-006 15:-15.1426 16:0.074611001 17:-12.8709 18:-10.2224 19:-8.2949896 20:4.7219 21:-8.1771498 22:-8.2949896 23:-8.4933205 24:4.2472301 25:-8.3745298 26:-8.4933205 27:19.2248 28:46 29:0 30:1 31:0 32:0.00102 33:0 34:0.00062399998 35:0 36:0 37:0 38:0 39:0 40:0 41:0 42:0 43:0 44:0 #docid = 294217
-0.02 1:22.269751 2:241 3:14 4:9 5:6 6:0 7:0 8:0.00027700001 9:2.3000001e-005 10:0.00087400002 11:0.00062399998 12:0.001149 13:20.042774 14:0 15:-6.1778798 16:18.362 17:-5.9168901 18:-5.8042498 19:-8.9228201 20:2.0597899 21:-8.5089302 22:-8.5830698 23:-5.3009501 24:12.7832 25:-5.6304898 26:-5.3009501 27:20.042774 28:4 29:1 30:1 31:0 32:8.9000001e-005 33:0.00087400002 34:0.00062399998 35:0 36:0 37:0 38:0 39:0 40:0 41:0 42:0 43:0 44:0 #docid = 297973
-0.02 1:17.483631 2:322 3:4 4:6 5:4 6:0.0084520001 7:0.000895 8:0.00034100001 9:2.3000001e-005 10:0.00087400002 11:0.00062399998 12:0.001149 13:15.735269 14:1e-006 15:-15.1426 16:0.074611001 17:-12.8709 18:-10.2224 19:-8.9228201 20:2.0597899 21:-8.5089302 22:-8.5830698 23:-8.4790001 24:5.9145799 25:-8.28901 26:-8.3421803 27:15.735268 28:34 29:0 30:1 31:0 32:0.00075399998 33:0 34:0.00062399998 35:0 36:0 37:8.5e-005 38:6.0000002e-006 39:0.0013689999 40:0.0013370001 41:0.00060099998 42:17.055462 43:16.661745 44:13.646919 #docid = 298511
-0.02 1:19.052458 2:2287 3:9 4:3 5:6 6:0 7:0 8:0.00027399999 9:2.3000001e-005 10:0.00087400002 11:0.00062399998 12:0.001149 13:17.147213 14:1e-006 15:-15.1426 16:0.074611001 17:-12.8709 18:-10.2224 19:-8.9228201 20:2.0597899 21:-8.5089302 22:-8.5830698 23:-8.7425699 24:2.5332799 25:-8.5541201 26:-8.6767902 27:17.147211 28:43 29:0 30:0 31:0 32:0.00095399999 33:0 34:0 35:0 36:0 37:0 38:0 39:0 40:0 41:0 42:0 43:0 44:0 #docid = 299341
-0.01 1:17.268839 2:2220 3:0 4:14 5:4 6:0 7:0 8:0.00027300001 9:2.3000001e-005 10:0.00087400002 11:0.00062399998 12:0.001149 13:15.541955 14:1e-006 15:-15.1426 16:0.074611001 17:-12.8709 18:-10.2224 19:-8.4886503 20:3.7202201 21:-8.2559299 22:-8.3884001 23:-8.3951197 24:5.8129301 25:-8.2511902 26:-8.38064 27:15.541955 28:96 29:0 30:2 31:0 32:0.0021289999 33:0 34:0.001248 35:0 36:0 37:0 38:0 39:0 40:0 41:0 42:0 43:0 44:0 #docid = 300469
0.3000000000000001 1:32.16539 2:212 3:41 4:7 5:6 6:0.034687001 7:0.00030399999 8:0.00027799999 9:2.3000001e-005 10:0.00087400002 11:0.00062399998 12:0.001149 13:28.948851 14:0 15:-3.2876101 16:43.7654 17:-3.0537701 18:-3.1842799 19:-8.9228201 20:2.0597899 21:-8.5089302 22:-8.5830698 23:-3.16803 24:21.8139 25:-4.0412698 26:-3.1294701 27:28.948851 28:11 29:12 30:2 31:0 32:0.000244 33:0.01049 34:0.001248 35:0 36:0 37:0.005839 38:1.6e-005 39:0.002756 40:0.002508 41:0.001058 42:32.251579 43:31.737078 44:28.400898 #docid = 301206
-0.01 1:28.927511 2:269 3:37 4:9 5:6 6:0.021361001 7:0.00030399999 8:0.00027799999 9:2.3000001e-005 10:0.00087400002 11:0.00062399998 12:0.001149 13:26.03476 14:0 15:-4.9766502 16:16.184 17:-4.6142998 18:-4.7374301 19:-8.9228201 20:2.0597899 21:-8.5089302 22:-8.5830698 23:-8.7425699 24:2.5332799 25:-8.5541201 26:-8.6767902 27:26.03476 28:6 29:2 30:0 31:0 32:0.00013299999 33:0.001748 34:0 35:0 36:0 37:0.007065 38:1.6e-005 39:0.002349 40:0.0022760001 41:0.000955 42:29.559761 43:28.329266 44:22.96674 #docid = 302822
-0.01 1:26.395767 2:266 3:18 4:4 5:6 6:0 7:0 8:0.00027799999 9:2.3000001e-005 10:0.00087400002 11:0.00062399998 12:0.001149 13:23.756191 14:0 15:-6.2149901 16:20.209 17:-5.7906299 18:-5.7772198 19:-8.9228201 20:2.0597899 21:-8.5089302 22:-8.5830698 23:-8.7425699 24:2.5332799 25:-8.5541201 26:-8.6767902 27:23.756189 28:5 29:1 30:0 31:0 32:0.000111 33:0.00087400002 34:0 35:0 36:0 37:0 38:0 39:0 40:0 41:0 42:0 43:0 44:0 #docid = 303424
-0.01 1:16.180927 2:572 3:1 4:1 5:7 6:0 7:0 8:0.00027300001 9:2.3000001e-005 10:0.00087400002 11:0.00062399998 12:0.001149 13:14.562833 14:0 15:-15.1426 16:0.074611001 17:-12.8709 18:-10.2224 19:-8.9228201 20:2.0597899 21:-8.5089302 22:-8.5830698 23:-8.7425699 24:2.5332799 25:-8.5541201 26:-8.6767902 27:14.562834 28:8 29:0 30:0 31:0 32:0.00017699999 33:0 34:0 35:0 36:0 37:0 38:0 39:0 40:0 41:0 42:0 43:0 44:0 #docid = 303856
-0.02 1:21.760782 2:1218 3:0 4:14 5:5 6:0 7:0 8:0.00027300001 9:2.3000001e-005 10:0.00087400002 11:0.00062399998 12:0.001149 13:21.276833 14:1e-006 15:-15.1426 16:0.074611001 17:-12.8709 18:-10.2224 19:-8.1365604 20:6.40204 21:-8.0531998 22:-8.18221 23:-8.3951197 24:5.8129301 25:-8.2511902 26:-8.38064 27:21.365196 28:88 29:0 30:2 31:0 32:0.001952 33:0 34:0.001248 35:0 36:0 37:0 38:0 39:0 40:0 41:0 42:0 43:0 44:0 #docid = 306608
-0.01 1:19.09264 2:2207 3:5 4:4 5:4 6:0 7:0 8:0.00042699999 9:2.3000001e-005 10:0.00087400002 11:0.00062399998 12:0.001149 13:17.183374 14:1e-006 15:-9.1789103 16:11.1633 17:-8.6503696 18:-8.76019 19:-8.9228201 20:2.0597899 21:-8.5089302 22:-8.5830698 23:-8.2409697 24:7.0163498 25:-8.2526398 26:-8.2409697 27:17.183376 28:140 29:1 30:1 31:0 32:0.0031049999 33:0.00087400002 34:0.00062399998 35:0 36:0 37:0 38:0 39:0 40:0 41:0 42:0 43:0 44:0 #docid = 307471
-0.01 1:26.277954 2:132 3:33 4:7 5:5 6:0.060277 7:0.00041400001 8:0.000356 9:2.3000001e-005 10:0.00087400002 11:0.00062399998 12:0.001149 13:25.111921 14:4.9999999e-006 15:-15.1426 16:0.074611001 17:-12.8709 18:-10.2224 19:-8.9228201 20:2.0597899 21:-8.5089302 22:-8.5830698 23:-8.7425699 24:2.5332799 25:-8.5541201 26:-8.6767902 27:25.23983 28:4 29:0 30:0 31:0 32:8.9000001e-005 33:0 34:0 35:0 36:0 37:0.0051560001 38:2e-006 39:0.0038020001 40:0.002084 41:0.000932 42:32.408844 43:32.923637 44:23.470156 #docid = 307993
-0.02 1:20.645538 2:176 3:3 4:3 5:4 6:0 7:0 8:0.00034 9:2.3000001e-005 10:0.00087400002 11:0.00062399998 12:0.001149 13:18.580984 14:1e-006 15:-10.3339 16:13.1952 17:-8.5638504 18:-8.6326199 19:-7.9706001 20:8.2957602 21:-8.0365696 22:-7.9706001 23:-8.1691303 24:7.7369699 25:-8.2339497 26:-8.1691303 27:18.580984 28:11 29:1 30:1 31:0 32:0.000244 33:0.00087400002 34:0.00062399998 35:0 36:0 37:0 38:0 39:0 40:0 41:0 42:0 43:0 44:0 #docid = 308636
-0.02 1:23.611485 2:282 3:2 4:5 5:6 6:0 7:0 8:0.00027300001 9:2.3000001e-005 10:0.00087400002 11:0.00062399998 12:0.001149 13:21.250336 14:0 15:-15.1426 16:0.074611001 17:-12.8709 18:-10.2224 19:-8.9228201 20:2.0597899 21:-8.5089302 22:-8.5830698 23:-8.7425699 24:2.5332799 25:-8.5541201 26:-8.6767902 27:21.250336 28:17 29:0 30:0 31:0 32:0.00037699999 33:0 34:0 35:0 36:0 37:0 38:0 39:0 40:0 41:0 42:0 43:0 44:0 #docid = 309943
-0.040000000000000001 1:17.281425 2:8813 3:9 4:6 5:5 6:0.0046839998 7:0.00030399999 8:0.00035399999 9:2.3000001e-005 10:0.00087400002 11:0.00062399998 12:0.001149 13:15.553282 14:1e-006 15:-5.00703 16:28.8262 17:-5.4138198 18:-5.0840998 19:-4.7321701 20:22.0287 21:-5.3238602 22:-4.84373 23:-4.64011 24:22.4533 25:-5.2318702 26:-4.7516799 27:15.553283 28:64 29:2 30:2 31:0 32:0.001419 33:0.001748 34:0.001248 35:0 36:0 37:0.00072200003 38:1.6e-005 39:0.001362 40:0.001442 41:0.00058499997 42:16.668026 43:15.896372 44:9.7473574 #docid = 310500
-0.01 1:18.495901 2:245 3:7 4:1 5:6 6:0 7:0 8:0.00034100001 9:2.3000001e-005 10:0.00087400002 11:0.00062399998 12:0.001149 13:16.646313 14:1e-006 15:-15.1426 16:0.074611001 17:-12.8709 18:-10.2224 19:-8.9228201 20:2.0597899 21:-8.5089302 22:-8.5830698 23:-8.7425699 24:2.5332799 25:-8.5541201 26:-8.6767902 27:16.646311 28:6 29:0 30:0 31:0 32:0.00013299999 33:0 34:0 35:0 36:0 37:0 38:0 39:0 40:0 41:0 42:0 43:0 44:0 #docid = 311688
-0.01 1:16.566557 2:48 3:3 4:5 5:5 6:0 7:0 8:0.000344 9:2.3000001e-005 10:0.00087400002 11:0.00062399998 12:0.001149 13:14.909902 14:0 15:-15.1426 16:0.074611001 17:-12.8709 18:-10.2224 19:-8.9228201 20:2.0597899 21:-8.5089302 22:-8.5830698 23:-8.7425699 24:2.5332799 25:-8.5541201 26:-8.6767902 27:14.909901 28:0 29:0 30:0 31:0 32:0 33:0 34:0 35:0 36:0 37:0 38:0 39:0 40:0 41:0 42:0 43:0 44:0 #docid = 313137
-0.01 1:17.084885 2:114 3:2 4:2 5:5 6:0 7:0 8:0.00034 9:2.3000001e-005 10:0.00087400002 11:0.00062399998 12:0.001149 13:15.376397 14:1e-006 15:-15.1426 16:0.074611001 17:-12.8709 18:-10.2224 19:-8.9228201 20:2.0597899 21:-8.5089302 22:-8.5830698 23:-8.7425699 24:2.5332799 25:-8.5541201 26:-8.6767902 27:15.376396 28:4 29:0 30:0 31:0 32:8.9000001e-005 33:0 34:0 35:0 36:0 37:0 38:0 39:0 40:0 41:0 42:0 43:0 44:0 #docid = 313823
-0.01 1:17.366552 2:30 3:4 4:5 5:5 6:0 7:0 8:0.000344 9:2.3000001e-005 10:0.00087400002 11:0.00062399998 12:0.001149 13:15.629896 14:0 15:-15.1426 16:0.074611001 17:-12.8709 18:-10.2224 19:-8.9228201 20:2.0597899 21:-8.5089302 22:-8.5830698 23:-8.7425699 24:2.5332799 25:-8.5541201 26:-8.6767902 27:15.629897 28:0 29:0 30:0 31:0 32:0 33:0 34:0 35:0 36:0 37:0 38:0 39:0 40:0 41:0 42:0 43:0 44:0 #docid = 315194
-0.040000000000000001 1:24.480583 2:154 3:6 4:3 5:6 6:0.091263004 7:0.001528 8:0.000218 9:2.3000001e-005 10:0.00087400002 11:0.00062399998 12:0.001149 13:23.837208 14:3.0000001e-006 15:-11.9048 16:13.9801 17:-9.1695299 18:-8.5313301 19:-7.8692799 20:9.1626196 21:-8.01752 22:-7.8692799 23:-8.1691303 24:7.7369699 25:-8.2339497 26:-8.1691303 27:23.837208 28:18 29:3 30:1 31:2 32:0.00039900001 33:0.0026219999 34:0.00062399998 35:0.002299 36:0 37:0.000512 38:2e-006 39:0.0025909999 40:0.001899 41:0.001254 42:24.756338 43:24.557417 44:22.727453 #docid = 315482
-0.01 1:18.528372 2:107 3:0 4:2 5:6 6:0 7:0 8:0.00034100001 9:2.3000001e-005 10:0.00087400002 11:0.00062399998 12:0.001149 13:16.675535 14:1e-006 15:-15.1426 16:0.074611001 17:-12.8709 18:-10.2224 19:-8.9228201 20:2.0597899 21:-8.5089302 22:-8.5830698 23:-8.7425699 24:2.5332799 25:-8.5541201 26:-8.6767902 27:16.675533 28:4 29:0 30:0 31:0 32:8.9000001e-005 33:0 34:0 35:0 36:0 37:0 38:0 39:0 40:0 41:0 42:0 43:0 44:0 #docid = 315664
-0.01 1:17.389357 2:1867 3:1 4:7 5:5 6:0 7:0 8:0.00028400001 9:2.3000001e-005 10:0.00087400002 11:0.00062399998 12:0.001149 13:15.650422 14:0 15:-15.1426 16:0.074611001 17:-12.8709 18:-10.2224 19:-8.9228201 20:2.0597899 21:-8.5089302 22:-8.5830698 23:-8.7425699 24:2.5332799 25:-8.5541201 26:-8.6767902 27:15.65042 28:33 29:0 30:0 31:0 32:0.00073199999 33:0 34:0 35:0 36:0 37:0 38:0 39:0 40:0 41:0 42:0 43:0 44:0 #docid = 316959
-0.01 1:18.12509 2:188 3:5 4:4 5:6 6:0 7:0 8:0.00017499999 9:2.3000001e-005 10:0.00087400002 11:0.00062399998 12:0.001149 13:16.31258 14:4e-006 15:-15.1426 16:0.074611001 17:-12.8709 18:-10.2224 19:-8.9228201 20:2.0597899 21:-8.5089302 22:-8.5830698 23:-8.7425699 24:2.5332799 25:-8.5541201 26:-8.6767902 27:16.31258 28:5 29:0 30:0 31:0 32:0.000111 33:0 34:0 35:0 36:0 37:0 38:0 39:0 40:0 41:0 42:0 43:0 44:0 #docid = 318206
-0.01 1:16.167822 2:1177 3:1 4:6 5:5 6:0 7:0 8:0.00028400001 9:2.3000001e-005 10:0.00087400002 11:0.00062399998 12:0.001149 13:14.55104 14:0 15:-15.1426 16:0.074611001 17:-12.8709 18:-10.2224 19:-8.9228201 20:2.0597899 21:-8.5089302 22:-8.5830698 23:-8.7425699 24:2.5332799 25:-8.5541201 26:-8.6767902 27:14.55104 28:16 29:0 30:0 31:0 32:0.000355 33:0 34:0 35:0 36:0 37:0 38:0 39:0 40:0 41:0 42:0 43:0 44:0 #docid = 327417
-0.01 1:19.005926 2:734 3:4 4:4 5:6 6:0 7:0 8:0.000187 9:2.3000001e-005 10:0.00087400002 11:0.00062399998 12:0.001149 13:17.105333 14:1e-006 15:-15.1426 16:0.074611001 17:-12.8709 18:-10.2224 19:-8.9228201 20:2.0597899 21:-8.5089302 22:-8.5830698 23:-8.7425699 24:2.5332799 25:-8.5541201 26:-8.6767902 27:17.105333 28:15 29:0 30:0 31:0 32:0.000333 33:0 34:0 35:0 36:0 37:0 38:0 39:0 40:0 41:0 42:0 43:0 44:0 #docid = 329195
-0.01 1:19.90658 2:102 3:2 4:1 5:6 6:0 7:0.00038000001 8:0.00027300001 9:2.3000001e-005 10:0.00087400002 11:0.00062399998 12:0.001149 13:17.915922 14:0 15:-15.1426 16:0.074611001 17:-12.8709 18:-10.2224 19:-8.9228201 20:2.0597899 21:-8.5089302 22:-8.5830698 23:-8.7425699 24:2.5332799 25:-8.5541201 26:-8.6767902 27:17.915922 28:8 29:0 30:0 31:0 32:0.00017699999 33:0 34:0 35:0 36:0 37:0 38:0 39:0.001465 40:0.001636 41:0.00066899997 42:19.326427 43:28.871799 44:18.033951 #docid = 330595
-0.02 1:23.604692 2:115 3:1 4:2 5:6 6:0 7:0 8:0.00034200001 9:2.3000001e-005 10:0.00087400002 11:0.00062399998 12:0.001149 13:21.244223 14:2e-006 15:-15.1426 16:0.074611001 17:-12.8709 18:-10.2224 19:-8.9228201 20:2.0597899 21:-8.5089302 22:-8.5830698 23:-8.7425699 24:2.5332799 25:-8.5541201 26:-8.6767902 27:21.244223 28:4 29:0 30:0 31:0 32:8.9000001e-005 33:0 34:0 35:0 36:1e-006 37:0 38:0 39:0 40:0 41:0 42:0 43:0 44:0 #docid = 330662
-0.02 1:16.393671 2:140 3:0 4:3 5:4 6:0 7:0 8:8.5e-005 9:2.3000001e-005 10:0.00087400002 11:0.00062399998 12:0.001149 13:14.754305 14:1e-006 15:-15.1426 16:0.074611001 17:-12.8709 18:-10.2224 19:-8.9228201 20:2.0597899 21:-8.5089302 22:-8.5830698 23:-8.7425699 24:2.5332799 25:-8.5541201 26:-8.6767902 27:14.754304 28:4 29:0 30:0 31:0 32:8.9000001e-005 33:0 34:0 35:0 36:0 37:0 38:0 39:0 40:0 41:0 42:0 43:0 44:0 #docid = 347519
-0.02 1:30.86433 2:465 3:7 4:10 5:4 6:0.022483001 7:0.000291 8:0.00034100001 9:2.3000001e-005 10:0.00087400002 11:0.00062399998 12:0.001149 13:27.777897 14:1e-006 15:-15.1426 16:0.074611001 17:-12.8709 18:-10.2224 19:-3.5255499 20:22.2024 21:-4.5332298 22:-3.5255499 23:-8.7425699 24:2.5332799 25:-8.5541201 26:-8.6767902 27:27.777897 28:30 29:0 30:0 31:0 32:0.000665 33:0 34:0 35:0 36:0 37:0.007584 38:2e-006 39:0.0027020001 40:0.0023759999 41:0.001011 42:32.013287 43:29.851273 44:24.115206 #docid = 349450
-0.02 1:20.233383 2:622 3:14 4:5 5:4 6:0 7:0 8:0.00034100001 9:2.3000001e-005 10:0.00087400002 11:0.00062399998 12:0.001149 13:18.210045 14:0 15:-15.1426 16:0.074611001 17:-12.8709 18:-10.2224 19:-8.9228201 20:2.0597899 21:-8.5089302 22:-8.5830698 23:-8.7425699 24:2.5332799 25:-8.5541201 26:-8.6767902 27:18.210045 28:17 29:0 30:0 31:0 32:0.00037699999 33:0 34:0 35:0 36:0 37:0 38:0 39:0 40:0 41:0 42:0 43:0 44:0 #docid = 352067
-0.02 1:16.686411 2:747 3:0 4:4 5:4 6:0 7:0 8:0.00034100001 9:2.3000001e-005 10:0.00087400002 11:0.00062399998 12:0.001149 13:15.01777 14:1e-006 15:-15.1426 16:0.074611001 17:-12.8709 18:-10.2224 19:-8.18221 20:6.01825 21:-8.1093302 22:-8.18221 23:-8.2409697 24:7.0163498 25:-8.2526398 26:-8.2409697 27:15.01777 28:56 29:0 30:1 31:0 32:0.001242 33:0 34:0.00062399998 35:0 36:0 37:0 38:0 39:0 40:0 41:0 42:0 43:0 44:0 #docid = 352687
